{"learner":{"attributes":{"best_iteration":"109","best_score":"0.4876317520153243","scikit_learn":"{\"_estimator_type\": \"classifier\"}"},"feature_names":["age","gender","occupation","bmi","country","sleep_duration_hrs","sleep_quality_score","rem_percentage","deep_sleep_percentage","sleep_latency_mins","wake_episodes_per_night","caffeine_mg_before_bed","alcohol_units_before_bed","screen_time_before_bed_mins","exercise_day","steps_that_day","nap_duration_mins","stress_score","work_hours_that_day","chronotype","mental_health_condition","heart_rate_resting_bpm","sleep_aid_used","shift_work","room_temperature_celsius","weekend_sleep_diff_hrs","season","day_type"],"feature_types":["float","c","c","float","c","float","float","float","float","float","float","float","float","float","c","float","float","float","float","c","c","float","c","c","float","float","c","c"],"gradient_booster":{"model":{"cats":{"enc":[{"offsets":[],"values":[]},{"offsets":[0,1,2,4],"values":[-25,-108,-73,-27]},{"offsets":[0,7,14,20,27,32,37,43,60,66,76,83,92],"values":[83,116,117,100,101,110,116,77,97,110,97,103,101,114,68,111,99,116,111,114,84,101,97,99,104,101,114,78,117,114,115,101,83,97,108,101,115,76,97,119,121,101,114,83,111,102,116,119,97,114,101,32,69,110,103,105,110,101,101,114,68,114,105,118,101,114,70,114,101,101,108,97,110,99,101,114,82,101,116,105,114,101,100,72,111,109,101,109,97,107,101,114]},{"offsets":[],"values":[]},{"offsets":[0,6,9,11,16,22,27,32,39,50,59,65,71,82,87,93],"values":[67,97,110,97,100,97,85,83,65,85,75,74,97,112,97,110,66,114,97,122,105,108,73,116,97,108,121,73,110,100,105,97,71,101,114,109,97,110,121,83,111,117,116,104,32,75,111,114,101,97,65,117,115,116,114,97,108,105,97,70,114,97,110,99,101,83,119,101,100,101,110,78,101,116,104,101,114,108,97,110,100,115,83,112,97,105,110,77,101,120,105,99,111]},{"offsets":[],"values":[]},{"offsets":[],"values":[]},{"offsets":[],"values":[]},{"offsets":[],"values":[]},{"offsets":[],"values":[]},{"offsets":[],"values":[]},{"offsets":[],"values":[]},{"offsets":[],"values":[]},{"offsets":[],"values":[]},{"offsets":[0,1,2],"values":[-27,-112]},{"offsets":[],"values":[]},{"offsets":[],"values":[]},{"offsets":[],"values":[]},{"offsets":[],"values":[]},{"offsets":[0,7,14,21],"values":[77,111,114,110,105,110,103,69,118,101,110,105,110,103,78,101,117,116,114,97,108]},{"offsets":[0,7,14,24,28],"values":[72,101,97,108,116,104,121,65,110,120,105,101,116,121,68,101,112,114,101,115,115,105,111,110,66,111,116,104]},{"offsets":[],"values":[]},{"offsets":[0,1,2],"values":[-27,-112]},{"offsets":[0,1,2],"values":[-27,-112]},{"offsets":[],"values":[]},{"offsets":[],"values":[]},{"offsets":[0,6,12,18,24],"values":[83,112,114,105,110,103,83,117,109,109,101,114,65,117,116,117,109,110,87,105,110,116,101,114]},{"offsets":[0,7,14],"values":[87,101,101,107,100,97,121,87,101,101,107,101,110,100]}],"feature_segments":[0,0,3,15,15,30,30,30,30,30,30,30,30,30,30,32,32,32,32,32,35,39,39,41,43,43,43,47,49],"sorted_idx":[1,2,0,2,8,9,11,6,1,4,10,5,7,0,3,9,4,0,10,7,6,5,3,14,12,8,13,11,2,1,1,0,1,0,2,1,3,2,0,1,0,1,0,2,0,1,3,0,1]},"gbtree_model_param":{"num_parallel_tree":"1","num_trees":"130"},"iteration_indptr":[0,1,2,3,4,5,6,7,8,9,10,11,12,13,14,15,16,17,18,19,20,21,22,23,24,25,26,27,28,29,30,31,32,33,34,35,36,37,38,39,40,41,42,43,44,45,46,47,48,49,50,51,52,53,54,55,56,57,58,59,60,61,62,63,64,65,66,67,68,69,70,71,72,73,74,75,76,77,78,79,80,81,82,83,84,85,86,87,88,89,90,91,92,93,94,95,96,97,98,99,100,101,102,103,104,105,106,107,108,109,110,111,112,113,114,115,116,117,118,119,120,121,122,123,124,125,126,127,128,129,130],"tree_info":[0,0,0,0,0,0,0,0,0,0,0,0,0,0,0,0,0,0,0,0,0,0,0,0,0,0,0,0,0,0,0,0,0,0,0,0,0,0,0,0,0,0,0,0,0,0,0,0,0,0,0,0,0,0,0,0,0,0,0,0,0,0,0,0,0,0,0,0,0,0,0,0,0,0,0,0,0,0,0,0,0,0,0,0,0,0,0,0,0,0,0,0,0,0,0,0,0,0,0,0,0,0,0,0,0,0,0,0,0,0,0,0,0,0,0,0,0,0,0,0,0,0,0,0,0,0,0,0,0,0],"trees":[{"base_weights":[9.819712E-8,-8.50151E-1,8.901745E-1,-1.4110379E0,-4.2746332E-1,3.2853082E-1,1.3543665E0,-1.2713422E0,-1.5412663E0,-2.1049297E-1,-1.0115902E0,-7.071607E-1,4.451607E-1,1.0897671E0,2.0362144E0,-1.067329E0,-7.659163E-2,-2.170736E-2,-7.708376E-2,-4.513234E-1,1.935742E-1,-6.610691E-1,-1.2847472E0,-3.7169585E-1,-9.177323E-1,6.0707486E-1,4.6040572E-2,1.3131181E0,7.5488853E-1,2.1210685E0,1.541957E0,-1.5139718E0,-9.994411E-1,-1.07810356E-1,-7.5569326E-1,5.678773E-1,-2.409603E-2,-1.3348925E0,-4.845154E-1,-1.4442306E0,-9.5671976E-1,-2.1206549E-1,-7.9031533E-1,-7.815846E-1,-1.2925256E0,3.935213E-1,8.8752997E-1,-2.1543841E-1,3.6109683E-1,1.3541311E0,7.2120667E-1,1.2368642E0,6.960382E-1,1.1554386E-1,2.0241249E0,1.8446391E0,1.3318849E0,-5.6262064E-1,-1.52563E0,-7.0068413E-1,-1.0998021E0,-8.887032E-1,-5.8060434E-2,-1.3659146E0,-6.465782E-1,3.64403E-1,7.8982884E-1,-2.0281245E-1,1.4200851E-1,1.3578425E-2,-1.3538649E0,-6.9123423E-1,-7.5884685E-2,-1.5704055E0,-1.3652186E0,-1.4457049E0,-8.190801E-1,-1.1454906E-1,-8.49178E-1,-9.6507794E-1,6.498589E-1,-6.441635E-1,-1.4138812E0,-3.8280645E-1,-1.347581E0,3.453689E-1,1.264747E0,8.1324494E-1,1.6491944E0,-1.670209E-1,-1.0424078E0,2.165502E-1,6.247242E-1,1.5612082E0,1.2708716E0,9.009385E-1,4.074891E-1,1.6220663E0,1.0935729E0,6.0048604E-1,9.3877333E-1,2.0313475E0,4.6937257E-1,8.24538E-1,1.9317597E0,-2.7615119E-2,1.3573451E0,1.1274725E-3,-4.454219E-2,-7.6580144E-2,-2.170736E-2,-5.415367E-1,-8.885574E-1,-9.7596604E-1,-1.1930124E0,-6.630782E-1,-1.1818073E0,5.267783E-1,-9.222501E-2,-1.4013442E0,-8.935864E-1,-5.185208E-1,-7.4556434E-1,2.4898273E-1,7.423614E-1,8.3307624E-1,-2.183037E-1,-2.9107127E-1,1.2652415E-1,3.493607E-1,-6.531964E-2,-8.0911636E-1,-1.4361651E0,-2.1197797E-1,-8.397214E-1,-2.8970698E-1,2.4054E-1,-7.895597E-2,-6.33466E-1,-1.3955333E0,-9.3518585E-1,-1.47512E0,-7.0183473E-3,-6.126053E-1,-9.886134E-1,-5.7308082E-3,-8.579346E-1,-1.5031281E-1,-1.1985244E0,-2.4834698E-1,-1.1535002E0,6.680054E-2,-8.055252E-2,7.289163E-1,-6.905401E-1,-1.4590185E0,-6.33466E-1,-5.3746965E-2,3.2514378E-1,-1.3976295E0,-3.3750978E-1,2.2670689E-1,4.7870815E-1,1.6353782E0,8.169782E-1,8.613441E-1,-6.243854E-2,1.8473761E0,9.87669E-1,-1.0432488E-1,-5.254088E-1,-3.6938465E-1,-1.2225447E0,2.566575E-1,-7.109855E-1,1.0544658E0,4.2935464E-1,1.2704159E0,1.6224225E0,1.3793663E0,1.125228E0,9.993959E-1,-7.015565E-2,5.453248E-1,-5.7656324E-1,-1.370994E-2,1.709391E0,-3.3750978E-1,1.1377888E0,6.457548E-1,3.257187E-1,9.8084396E-1,-2.1750214E-2,1.905163E0,2.1507573E0,6.9631964E-2,-1.7677738E-1,-1.9304818E-2,1.2402215E0,1.4502611E0,1.0338105E-1,1.3868788E0,-1.9304818E-2,-1.5278249E-2,-4.0738653E-2,-1.9225137E-2,-4.9657233E-2,-4.267812E-2,-5.89825E-2,-6.002925E-2,1.5137325E-2,-4.1373666E-2,5.4092202E-3,-7.596027E-2,-4.228547E-2,3.0377856E-2,-3.1209558E-2,2.3874346E-2,-5.556702E-3,-4.1031387E-2,-7.118898E-2,1.7100595E-2,-5.8415662E-2,-7.793867E-3,-3.0111123E-2,-3.800195E-2,2.0409402E-2,7.343792E-2,1.0733075E-2,6.315974E-2,1.8226996E-2,1.6103303E-2,4.5114644E-2,-2.6647076E-2,6.9631964E-2,-7.0412145E-3,-2.3206806E-2,1.8026939E-2,-1.4884894E-2,1.5718505E-2,8.854227E-2,-8.427484E-3,1.6415803E-2,-8.8682985E-3,-6.216773E-2,-1.9304818E-2,-7.251398E-2,4.7247256E-3,-2.4523638E-2,-2.9017558E-2,-4.6260055E-2,3.1130468E-2,-1.8797113E-2,4.224815E-2,1.672176E-3,-4.821189E-2,1.1274725E-3,-5.5332195E-2,-7.104679E-2,4.2564843E-2,-5.4476615E-2,-2.8131032E-2,-7.518704E-2,-7.547532E-3,-3.9411303E-2,-4.3239403E-3,-5.226391E-2,9.093384E-3,-2.584215E-2,-5.0629105E-2,1.3578425E-2,-5.931898E-2,4.304006E-2,1.1274725E-3,-6.783397E-2,5.553151E-2,-3.8655203E-2,-6.244728E-2,1.4611158E-3,-4.821189E-2,4.6797138E-2,6.728216E-2,-4.454219E-2,-2.509365E-2,-4.4155292E-2,-7.5620845E-2,-3.16733E-2,-4.821189E-2,1.1274725E-3,4.6797138E-2,-2.170736E-2,1.1274725E-3,-7.132521E-2,-5.588565E-2,4.6797138E-2,1.41729135E-2,-5.435792E-3,3.305361E-2,1.8912185E-2,-2.7615119E-2,8.6228244E-2,4.5924474E-2,-3.652589E-2,5.4808717E-2,3.7535828E-2,2.6754862E-2,-2.0349583E-2,9.4908856E-2,2.3556663E-2,7.3444815E-3,7.5587235E-2,3.4374416E-2,-6.7247204E-3,-3.492695E-2,8.84589E-3,-4.1698866E-2,2.361805E-2,1.3578425E-2,-6.612021E-2,3.4202293E-2,8.490403E-3,-5.041789E-2,1.1340855E-2,5.6051143E-2,-3.24682E-2,2.9544849E-2,-9.550937E-3,7.960984E-2,4.998916E-2,1.4611158E-3,8.151493E-2,6.208098E-2,7.536423E-2,6.4709954E-2,4.694317E-2,5.4252993E-2,5.4092202E-3,3.4451585E-2,-3.3016123E-2,4.0177103E-2,-1.2308477E-2,-5.8076557E-2,4.2564843E-2,9.584537E-2,5.7496876E-2,1.5137325E-2,-4.821189E-2,6.581397E-2,3.6509033E-2,3.3465173E-2,-1.9438606E-3,3.5789657E-2,5.748576E-3,5.6094028E-2,3.320606E-2,-3.040846E-2,2.6050568E-2,1.0004417E-1,8.49672E-2,2.3806581E-2,1.07823744E-1,-4.821189E-2,3.41752E-2,-7.0183473E-3,8.293619E-2,9.8342E-2,4.627276E-2,7.5620495E-2,4.754959E-2],"categories":[2,8,9,10,14,0,1,2,3,4,5,6,7,8,9,2,6,8,12,13,1,2,3,5,9,2,3,0,1,3,6,12,0,1,2,4,5,6,7,8,9,10,11,0,6,7,11,0,2,4,6,8,0,1,2,3,4,6,7,8,10,12,14,0,2,7,9,10,11,13,14,0,1,1,2,3,4,5,6,8,9,11,12,14,1,5,6,13,0,4,5,9,10,11,12,13,0,1,2,6,7,8,0,1,2,3,4,5,6,7,8,9,10,11,12,14,0,1,2,5,8,9,0,1,3,4,5,6,7,9,11,0,1,4,5,6,8,9,10,11,14,0,1,2,3,4,6,7,8,9,1,3,8,11,0,1,2,0,1,3,5,6,8,10,11,0,2,3,4,9,6,8,11,13,7,8,9,11,12,14,0,3,6,9,10,11,0,2,3,6,7,9,0,1,2,4,5,6,2,5,8,9,10,13,14,0,0,5,8,9,11,12,13],"categories_nodes":[23,31,50,61,68,76,78,81,86,90,94,106,111,113,120,121,127,128,131,132,133,134,143,144,145,156,162,166,167,175,176,177,180,182,191,199,201],"categories_segments":[0,5,15,20,25,27,28,32,43,47,52,53,56,63,71,73,84,88,96,102,116,122,131,141,150,154,157,165,170,172,174,180,186,192,198,205,206],"categories_sizes":[5,10,5,5,2,1,4,11,4,5,1,3,7,8,2,11,4,8,6,14,6,9,10,9,4,3,8,5,2,2,6,6,6,6,7,1,7],"default_left":[0,0,0,0,0,0,0,0,0,0,0,0,0,0,0,0,0,0,0,0,0,0,0,1,0,0,0,0,0,0,0,1,0,0,0,0,0,0,0,0,0,0,0,0,0,0,0,0,0,0,1,0,0,0,0,0,0,0,0,0,0,1,0,0,0,0,0,0,1,0,0,0,0,0,0,0,1,0,1,0,0,1,0,0,0,0,1,0,0,0,1,0,0,0,1,0,0,0,0,0,0,0,0,0,0,0,1,0,0,0,0,1,0,1,0,0,0,0,0,0,1,1,0,0,0,0,0,1,1,0,0,1,1,1,1,0,0,0,0,0,0,0,0,1,1,1,0,0,0,0,0,0,0,0,0,0,1,0,0,0,0,0,1,0,0,0,1,1,0,0,0,0,0,0,0,1,1,1,0,0,1,0,1,0,0,0,0,0,0,0,0,1,0,0,0,0,0,0,0,1,0,1,0,0,0,0,0,0,0,0,0,0,0,0,0,0,0,0,0,0,0,0,0,0,0,0,0,0,0,0,0,0,0,0,0,0,0,0,0,0,0,0,0,0,0,0,0,0,0,0,0,0,0,0,0,0,0,0,0,0,0,0,0,0,0,0,0,0,0,0,0,0,0,0,0,0,0,0,0,0,0,0,0,0,0,0,0,0,0,0,0,0,0,0,0,0,0,0,0,0,0,0,0,0,0,0,0,0,0,0,0,0,0,0,0,0,0,0,0,0,0,0,0,0,0,0,0,0,0,0,0,0,0,0,0,0,0,0,0,0,0,0,0,0,0,0,0,0,0,0,0,0,0,0,0,0,0,0,0,0,0,0,0,0,0,0,0,0,0],"id":0,"left_children":[1,3,5,7,9,11,13,15,17,19,21,23,25,27,29,31,-1,-1,-1,33,35,37,39,41,43,45,47,49,51,53,55,57,59,61,63,65,67,69,71,73,75,77,79,81,83,85,87,89,91,93,95,97,99,-1,101,103,105,107,109,111,113,115,117,119,121,123,125,127,129,-1,131,133,135,137,139,141,143,145,147,149,151,153,155,157,159,161,163,165,167,169,171,173,175,177,179,181,183,185,187,189,191,193,195,197,199,-1,201,-1,-1,-1,-1,203,205,207,209,211,213,215,217,219,221,223,225,227,229,231,233,235,237,239,241,243,245,247,249,251,253,-1,255,257,259,261,-1,263,265,267,269,271,273,275,277,-1,279,281,283,285,287,-1,289,291,293,295,297,299,301,303,305,307,309,311,313,315,317,319,321,323,325,327,329,331,333,335,337,339,341,-1,343,345,347,349,351,353,355,357,359,-1,361,-1,363,365,-1,367,-1,-1,-1,-1,-1,-1,-1,-1,-1,-1,-1,-1,-1,-1,-1,-1,-1,-1,-1,-1,-1,-1,-1,-1,-1,-1,-1,-1,-1,-1,-1,-1,-1,-1,-1,-1,-1,-1,-1,-1,-1,-1,-1,-1,-1,-1,-1,-1,-1,-1,-1,-1,-1,-1,-1,-1,-1,-1,-1,-1,-1,-1,-1,-1,-1,-1,-1,-1,-1,-1,-1,-1,-1,-1,-1,-1,-1,-1,-1,-1,-1,-1,-1,-1,-1,-1,-1,-1,-1,-1,-1,-1,-1,-1,-1,-1,-1,-1,-1,-1,-1,-1,-1,-1,-1,-1,-1,-1,-1,-1,-1,-1,-1,-1,-1,-1,-1,-1,-1,-1,-1,-1,-1,-1,-1,-1,-1,-1,-1,-1,-1,-1,-1,-1,-1,-1,-1,-1,-1,-1,-1,-1,-1,-1,-1,-1,-1,-1,-1,-1,-1,-1,-1,-1,-1,-1,-1,-1,-1,-1,-1,-1,-1,-1,-1,-1,-1],"loss_changes":[1.4406267E4,2.3078438E3,2.423957E3,7.415625E1,7.036898E2,5.0875766E2,9.1627637E2,1.0594531E2,3.0859375E-1,3.9429712E2,1.4315344E2,2.9780518E1,2.4449396E2,2.734961E2,5.6374023E1,3.3009033E1,0E0,0E0,0E0,2.6533105E2,1.23325966E2,7.796277E1,4.2783325E1,1.0933376E1,1.232283E1,1.6086377E2,9.012697E1,5.243457E1,4.0854065E1,1.7606934E1,1.1025787E1,7.8619385E-1,2.8950745E1,4.6324066E1,8.8723816E1,2.484726E1,2.8465963E1,4.5315704E0,4.430819E1,3.4993896E0,1.7602814E1,7.4594216E0,1.2077093E1,1.5963188E1,2.8947067E0,6.374594E1,6.445032E1,2.3768097E1,1.8770355E1,3.3471924E1,7.792259E0,6.988312E0,2.9888306E1,0E0,8.139404E0,5.8968506E0,6.92688E0,6.6913307E-1,2.8619385E-1,7.053894E0,7.380066E0,3.9399261E0,2.2493052E1,2.1488342E0,1.4108643E1,1.2563129E1,1.1750351E1,1.3461811E1,2.1392212E1,0E0,4.898987E0,2.4630417E1,1.2081951E1,7.2509766E-1,3.3326416E0,2.0969772E0,7.09993E0,8.621594E0,3.7236023E0,5.2467003E0,2.8744066E0,1.077874E1,2.6759338E-1,2.9380066E0,2.7541885E0,2.285228E1,1.1899666E1,4.4761414E1,1.1594666E1,1.2664667E1,3.534935E0,1.2159856E1,1.425367E1,8.358398E0,2.1709229E1,8.787437E0,7.711232E0,7.253273E0,7.899658E0,1.1542206E1,1.4935516E1,8.041992E0,3.2557378E0,4.693864E0,2.0318909E0,0E0,7.092224E0,0E0,0E0,0E0,0E0,8.713074E0,5.628769E0,7.055786E0,5.0963135E0,5.495577E0,2.093258E0,6.157322E0,1.1495367E1,1.2718201E0,6.150282E0,1.513884E1,1.1043243E1,9.119464E0,1.2892677E1,8.71579E0,6.675914E0,9.413919E0,9.867206E0,1.1812426E1,1.0189563E1,5.2754564E0,1.1616211E0,7.1986547E0,5.3563843E0,8.605105E0,9.001825E0,0E0,8.066449E-1,8.513794E-1,8.223036E0,6.8382263E-1,0E0,8.141155E0,6.005562E0,9.109924E0,2.652337E0,7.8015327E0,2.0616407E0,7.8497E0,3.6678505E0,0E0,4.151666E0,6.9512587E0,5.246376E0,4.1806793E-1,8.066449E-1,0E0,1.9735569E0,2.5123596E0,5.3491726E0,1.4683434E1,1.2252716E1,9.27153E0,6.6586533E0,2.5317871E1,1.1788224E1,4.531952E0,1.1121771E1,1.1631653E1,1.0341936E1,3.669433E0,4.164734E0,1.1366583E1,4.0242653E0,6.8582115E0,1.2349823E1,7.6740875E0,5.9750977E0,1.2915894E1,1.8746216E1,6.20755E0,4.6341257E0,1.0078964E1,6.991027E0,0E0,2.358963E0,2.029799E0,7.437851E0,1.3088013E1,1.107049E1,1.5050446E1,5.5575285E0,4.489624E0,2.8625488E0,0E0,3.27067E0,0E0,3.9724092E0,3.675621E0,0E0,5.4252167E0,0E0,0E0,0E0,0E0,0E0,0E0,0E0,0E0,0E0,0E0,0E0,0E0,0E0,0E0,0E0,0E0,0E0,0E0,0E0,0E0,0E0,0E0,0E0,0E0,0E0,0E0,0E0,0E0,0E0,0E0,0E0,0E0,0E0,0E0,0E0,0E0,0E0,0E0,0E0,0E0,0E0,0E0,0E0,0E0,0E0,0E0,0E0,0E0,0E0,0E0,0E0,0E0,0E0,0E0,0E0,0E0,0E0,0E0,0E0,0E0,0E0,0E0,0E0,0E0,0E0,0E0,0E0,0E0,0E0,0E0,0E0,0E0,0E0,0E0,0E0,0E0,0E0,0E0,0E0,0E0,0E0,0E0,0E0,0E0,0E0,0E0,0E0,0E0,0E0,0E0,0E0,0E0,0E0,0E0,0E0,0E0,0E0,0E0,0E0,0E0,0E0,0E0,0E0,0E0,0E0,0E0,0E0,0E0,0E0,0E0,0E0,0E0,0E0,0E0,0E0,0E0,0E0,0E0,0E0,0E0,0E0,0E0,0E0,0E0,0E0,0E0,0E0,0E0,0E0,0E0,0E0,0E0,0E0,0E0,0E0,0E0,0E0,0E0,0E0,0E0,0E0,0E0,0E0,0E0,0E0,0E0,0E0,0E0,0E0,0E0,0E0,0E0,0E0,0E0,0E0,0E0,0E0,0E0,0E0,0E0,0E0,0E0,0E0,0E0,0E0,0E0,0E0],"parents":[2147483647,0,0,1,1,2,2,3,3,4,4,5,5,6,6,7,7,8,8,9,9,10,10,11,11,12,12,13,13,14,14,15,15,19,19,20,20,21,21,22,22,23,23,24,24,25,25,26,26,27,27,28,28,29,29,30,30,31,31,32,32,33,33,34,34,35,35,36,36,37,37,38,38,39,39,40,40,41,41,42,42,43,43,44,44,45,45,46,46,47,47,48,48,49,49,50,50,51,51,52,52,54,54,55,55,56,56,57,57,58,58,59,59,60,60,61,61,62,62,63,63,64,64,65,65,66,66,67,67,68,68,70,70,71,71,72,72,73,73,74,74,75,75,76,76,77,77,78,78,79,79,80,80,81,81,82,82,83,83,84,84,85,85,86,86,87,87,88,88,89,89,90,90,91,91,92,92,93,93,94,94,95,95,96,96,97,97,98,98,99,99,100,100,101,101,102,102,103,103,104,104,106,106,111,111,112,112,113,113,114,114,115,115,116,116,117,117,118,118,119,119,120,120,121,121,122,122,123,123,124,124,125,125,126,126,127,127,128,128,129,129,130,130,131,131,132,132,133,133,134,134,135,135,136,136,138,138,139,139,140,140,141,141,143,143,144,144,145,145,146,146,147,147,148,148,149,149,150,150,152,152,153,153,154,154,155,155,156,156,158,158,159,159,160,160,161,161,162,162,163,163,164,164,165,165,166,166,167,167,168,168,169,169,170,170,171,171,172,172,173,173,174,174,175,175,176,176,177,177,178,178,179,179,180,180,181,181,182,182,183,183,184,184,186,186,187,187,188,188,189,189,190,190,191,191,192,192,193,193,194,194,196,196,198,198,199,199,201,201],"right_children":[2,4,6,8,10,12,14,16,18,20,22,24,26,28,30,32,-1,-1,-1,34,36,38,40,42,44,46,48,50,52,54,56,58,60,62,64,66,68,70,72,74,76,78,80,82,84,86,88,90,92,94,96,98,100,-1,102,104,106,108,110,112,114,116,118,120,122,124,126,128,130,-1,132,134,136,138,140,142,144,146,148,150,152,154,156,158,160,162,164,166,168,170,172,174,176,178,180,182,184,186,188,190,192,194,196,198,200,-1,202,-1,-1,-1,-1,204,206,208,210,212,214,216,218,220,222,224,226,228,230,232,234,236,238,240,242,244,246,248,250,252,254,-1,256,258,260,262,-1,264,266,268,270,272,274,276,278,-1,280,282,284,286,288,-1,290,292,294,296,298,300,302,304,306,308,310,312,314,316,318,320,322,324,326,328,330,332,334,336,338,340,342,-1,344,346,348,350,352,354,356,358,360,-1,362,-1,364,366,-1,368,-1,-1,-1,-1,-1,-1,-1,-1,-1,-1,-1,-1,-1,-1,-1,-1,-1,-1,-1,-1,-1,-1,-1,-1,-1,-1,-1,-1,-1,-1,-1,-1,-1,-1,-1,-1,-1,-1,-1,-1,-1,-1,-1,-1,-1,-1,-1,-1,-1,-1,-1,-1,-1,-1,-1,-1,-1,-1,-1,-1,-1,-1,-1,-1,-1,-1,-1,-1,-1,-1,-1,-1,-1,-1,-1,-1,-1,-1,-1,-1,-1,-1,-1,-1,-1,-1,-1,-1,-1,-1,-1,-1,-1,-1,-1,-1,-1,-1,-1,-1,-1,-1,-1,-1,-1,-1,-1,-1,-1,-1,-1,-1,-1,-1,-1,-1,-1,-1,-1,-1,-1,-1,-1,-1,-1,-1,-1,-1,-1,-1,-1,-1,-1,-1,-1,-1,-1,-1,-1,-1,-1,-1,-1,-1,-1,-1,-1,-1,-1,-1,-1,-1,-1,-1,-1,-1,-1,-1,-1,-1,-1,-1,-1,-1,-1,-1,-1],"split_conditions":[8.553281E-2,-7.2491074E-1,4.5190996E-1,3.4015363E-1,8.440753E-1,-7.2491074E-1,1.4131048E0,8.440753E-1,-1.8733394E0,5.9636407E-2,3.4015363E-1,-7.0104265E-1,3.4015363E-1,3.4015363E-1,3.4015363E-1,-1.2420391E0,-7.659163E-2,-2.170736E-2,-7.708376E-2,3.4015363E-1,3.4015363E-1,-1.1092819E0,6.7481875E-2,1E-45,3.4015363E-1,5.9636407E-2,5.9636407E-2,7.205565E-1,-1.6880611E0,-1.7498206E0,-1.6263016E0,1E-45,-7.0104265E-1,-1.2420391E0,-1.2420391E0,4.5190996E-1,4.440645E-1,-2.6218367E0,8.317282E-2,-1.2420391E0,-1.1756605E0,1.4918061E0,1.5114403E0,6.587971E-1,-8.42428E-1,1.4131048E0,1.4131048E0,9.675942E-1,6.0270566E-1,-7.0104265E-1,1E-45,-3.325493E-1,6.906477E-1,1.1554386E-1,8.440753E-1,-1.4623569E0,-2.3884256E0,-2.4325474E-1,2.1280797E0,2.2648108E-1,2.1516804E-2,1E-45,-1.2216408E0,1.6779367E0,1.3624723E-1,7.042987E-1,1.2535505E0,6.320197E-1,1E-45,1.3578425E-2,-7.0104265E-1,-7.0104265E-1,2.0258497E-1,1.6576104E0,1.101044E0,1.7975172E0,1E-45,8.440753E-1,1E-45,-1.533392E-1,-5.170991E-1,1E-45,1.3282819E0,1.7563207E-1,2.2005026E0,3.3887947E-1,1E-45,8.440753E-1,4.8171148E-1,8.126243E-1,1E-45,8.440753E-1,-4.9788362E-1,6.402013E-1,1E-45,1.5188941E0,1.3673295E0,-2.1540947E0,-2.0120502E0,4.735188E-1,7.823159E-1,4.8544958E-1,-5.065484E-1,-2.6144526E0,-1.3014488E-1,-2.7615119E-2,1E-45,1.1274725E-3,-4.454219E-2,-7.6580144E-2,-2.170736E-2,1E-45,-6.377394E-1,1E-45,2.6253731E0,1.1718624E0,5.5877186E-2,-1.0511848E-1,-1.1939857E0,-1.0671004E0,1E-45,1E-45,2.245697E0,-1.379264E0,-1.7721991E-1,-1.3879567E0,1.0028129E0,1E-45,1E-45,2.387528E0,4.2682153E-1,1E-45,1E-45,1E-45,1E-45,-1.5651044E0,-7.0104265E-1,-7.895597E-2,-1.2888789E-2,-1.2592863E0,-1.3240094E0,-1.7032275E0,-7.0183473E-3,1E-45,1E-45,1E-45,4.8380437E-1,5.946592E-2,-1.4310031E0,-3.9370394E-1,1.539993E0,6.680054E-2,8.420499E-1,1.5459133E0,1.3902535E-1,1.4616696E0,1E-45,-5.3746965E-2,6.4610136E-1,-1.8077656E0,4.5490038E-1,6.587971E-1,1E-45,-1.1793331E0,1.3194004E0,-7.0104265E-1,1E-45,1E-45,-3.740369E-1,-1.5645423E0,1.159672E0,7.600668E-1,-1.3325886E0,-9.089668E-1,7.3673385E-1,1E-45,1E-45,1E-45,-2.3518054E0,8.8207597E-1,1E-45,1.4565167E0,1E-45,8.3818114E-1,4.1707054E-1,-1.370994E-2,1.6208851E0,1.7307217E0,3.36161E-1,2.1069899E0,-3.9277756E-1,1E-45,8.6075175E-1,3.8068074E-1,-2.4354725E0,6.9631964E-2,1.0293536E0,-1.9304818E-2,-9.66912E-1,1E-45,1.0338105E-1,1E-45,-1.9304818E-2,-1.5278249E-2,-4.0738653E-2,-1.9225137E-2,-4.9657233E-2,-4.267812E-2,-5.89825E-2,-6.002925E-2,1.5137325E-2,-4.1373666E-2,5.4092202E-3,-7.596027E-2,-4.228547E-2,3.0377856E-2,-3.1209558E-2,2.3874346E-2,-5.556702E-3,-4.1031387E-2,-7.118898E-2,1.7100595E-2,-5.8415662E-2,-7.793867E-3,-3.0111123E-2,-3.800195E-2,2.0409402E-2,7.343792E-2,1.0733075E-2,6.315974E-2,1.8226996E-2,1.6103303E-2,4.5114644E-2,-2.6647076E-2,6.9631964E-2,-7.0412145E-3,-2.3206806E-2,1.8026939E-2,-1.4884894E-2,1.5718505E-2,8.854227E-2,-8.427484E-3,1.6415803E-2,-8.8682985E-3,-6.216773E-2,-1.9304818E-2,-7.251398E-2,4.7247256E-3,-2.4523638E-2,-2.9017558E-2,-4.6260055E-2,3.1130468E-2,-1.8797113E-2,4.224815E-2,1.672176E-3,-4.821189E-2,1.1274725E-3,-5.5332195E-2,-7.104679E-2,4.2564843E-2,-5.4476615E-2,-2.8131032E-2,-7.518704E-2,-7.547532E-3,-3.9411303E-2,-4.3239403E-3,-5.226391E-2,9.093384E-3,-2.584215E-2,-5.0629105E-2,1.3578425E-2,-5.931898E-2,4.304006E-2,1.1274725E-3,-6.783397E-2,5.553151E-2,-3.8655203E-2,-6.244728E-2,1.4611158E-3,-4.821189E-2,4.6797138E-2,6.728216E-2,-4.454219E-2,-2.509365E-2,-4.4155292E-2,-7.5620845E-2,-3.16733E-2,-4.821189E-2,1.1274725E-3,4.6797138E-2,-2.170736E-2,1.1274725E-3,-7.132521E-2,-5.588565E-2,4.6797138E-2,1.41729135E-2,-5.435792E-3,3.305361E-2,1.8912185E-2,-2.7615119E-2,8.6228244E-2,4.5924474E-2,-3.652589E-2,5.4808717E-2,3.7535828E-2,2.6754862E-2,-2.0349583E-2,9.4908856E-2,2.3556663E-2,7.3444815E-3,7.5587235E-2,3.4374416E-2,-6.7247204E-3,-3.492695E-2,8.84589E-3,-4.1698866E-2,2.361805E-2,1.3578425E-2,-6.612021E-2,3.4202293E-2,8.490403E-3,-5.041789E-2,1.1340855E-2,5.6051143E-2,-3.24682E-2,2.9544849E-2,-9.550937E-3,7.960984E-2,4.998916E-2,1.4611158E-3,8.151493E-2,6.208098E-2,7.536423E-2,6.4709954E-2,4.694317E-2,5.4252993E-2,5.4092202E-3,3.4451585E-2,-3.3016123E-2,4.0177103E-2,-1.2308477E-2,-5.8076557E-2,4.2564843E-2,9.584537E-2,5.7496876E-2,1.5137325E-2,-4.821189E-2,6.581397E-2,3.6509033E-2,3.3465173E-2,-1.9438606E-3,3.5789657E-2,5.748576E-3,5.6094028E-2,3.320606E-2,-3.040846E-2,2.6050568E-2,1.0004417E-1,8.49672E-2,2.3806581E-2,1.07823744E-1,-4.821189E-2,3.41752E-2,-7.0183473E-3,8.293619E-2,9.8342E-2,4.627276E-2,7.5620495E-2,4.754959E-2],"split_indices":[6,5,5,10,17,5,6,17,17,5,10,10,10,10,10,6,0,0,0,10,10,6,5,4,10,5,5,17,17,17,17,2,10,6,6,5,5,7,5,6,6,13,7,17,18,6,6,17,7,10,4,3,7,0,17,21,8,3,8,17,9,2,10,24,3,16,18,7,20,0,10,10,25,8,7,15,27,17,4,18,0,2,8,8,16,7,2,17,13,9,2,17,18,5,27,5,24,21,8,17,17,7,8,17,7,0,20,0,0,0,0,4,9,4,7,16,24,5,17,13,20,4,8,17,8,18,15,4,4,16,7,2,4,2,2,8,10,0,7,25,21,15,0,4,2,2,6,21,5,13,8,0,0,16,25,17,2,0,8,24,15,17,4,13,3,10,2,2,9,17,7,15,0,21,18,4,4,2,9,6,2,15,2,25,9,0,5,5,21,16,24,4,10,12,8,0,17,0,25,27,0,4,0,0,0,0,0,0,0,0,0,0,0,0,0,0,0,0,0,0,0,0,0,0,0,0,0,0,0,0,0,0,0,0,0,0,0,0,0,0,0,0,0,0,0,0,0,0,0,0,0,0,0,0,0,0,0,0,0,0,0,0,0,0,0,0,0,0,0,0,0,0,0,0,0,0,0,0,0,0,0,0,0,0,0,0,0,0,0,0,0,0,0,0,0,0,0,0,0,0,0,0,0,0,0,0,0,0,0,0,0,0,0,0,0,0,0,0,0,0,0,0,0,0,0,0,0,0,0,0,0,0,0,0,0,0,0,0,0,0,0,0,0,0,0,0,0,0,0,0,0,0,0,0,0,0,0,0,0,0,0,0,0,0,0,0,0,0,0],"split_type":[0,0,0,0,0,0,0,0,0,0,0,0,0,0,0,0,0,0,0,0,0,0,0,1,0,0,0,0,0,0,0,1,0,0,0,0,0,0,0,0,0,0,0,0,0,0,0,0,0,0,1,0,0,0,0,0,0,0,0,0,0,1,0,0,0,0,0,0,1,0,0,0,0,0,0,0,1,0,1,0,0,1,0,0,0,0,1,0,0,0,1,0,0,0,1,0,0,0,0,0,0,0,0,0,0,0,1,0,0,0,0,1,0,1,0,0,0,0,0,0,1,1,0,0,0,0,0,1,1,0,0,1,1,1,1,0,0,0,0,0,0,0,0,1,1,1,0,0,0,0,0,0,0,0,0,0,1,0,0,0,0,0,1,0,0,0,1,1,0,0,0,0,0,0,0,1,1,1,0,0,1,0,1,0,0,0,0,0,0,0,0,1,0,0,0,0,0,0,0,1,0,1,0,0,0,0,0,0,0,0,0,0,0,0,0,0,0,0,0,0,0,0,0,0,0,0,0,0,0,0,0,0,0,0,0,0,0,0,0,0,0,0,0,0,0,0,0,0,0,0,0,0,0,0,0,0,0,0,0,0,0,0,0,0,0,0,0,0,0,0,0,0,0,0,0,0,0,0,0,0,0,0,0,0,0,0,0,0,0,0,0,0,0,0,0,0,0,0,0,0,0,0,0,0,0,0,0,0,0,0,0,0,0,0,0,0,0,0,0,0,0,0,0,0,0,0,0,0,0,0,0,0,0,0,0,0,0,0,0,0,0,0,0,0,0,0,0,0,0,0,0,0,0,0,0,0,0,0,0,0,0,0,0,0,0,0,0,0,0],"sum_hessian":[1.90342E4,9.735992E3,9.298206E3,4.183003E3,5.5529893E3,4.208223E3,5.0899824E3,2.0233353E3,2.1596677E3,4.0500017E3,1.5029879E3,4.2541434E2,3.782809E3,3.6688418E3,1.4211409E3,1.1375312E3,8.85804E2,1.1896374E0,2.158478E3,2.5374966E3,1.512505E3,6.597729E2,8.4321497E2,1.6512167E2,2.6029266E2,2.690722E3,1.0920872E3,2.1991638E3,1.4696781E3,1.2100991E3,2.1104167E2,1.4727711E2,9.9025415E2,1.1927305E3,1.3447661E3,5.5556067E2,9.5694434E2,1.3561867E2,5.2415424E2,5.6507776E2,2.7813724E2,1.20629234E2,4.449244E1,1.9319711E2,6.709555E1,1.528922E3,1.1617999E3,5.9696E2,4.9512708E2,2.0554556E3,1.437082E2,1.5774593E2,1.3119321E3,4.0138367E2,8.087155E2,8.327462E1,1.2776706E2,2.3792748E0,1.4489784E2,2.5101349E2,7.3924066E2,7.042654E1,1.122304E3,2.0223836E2,1.1425277E3,2.9122324E2,2.6433743E2,4.6086554E2,4.960788E2,1.4275649E0,1.341911E2,3.4761206E2,1.7654219E2,2.103279E2,3.5474988E2,5.9006016E1,2.1913121E2,1.056398E2,1.4989431E1,3.9971817E1,4.5206223E0,1.6036313E2,3.2833992E1,4.282695E0,6.2812855E1,1.450168E3,7.8754E1,1.0604427E3,1.0135711E2,5.6507776E2,3.1882282E1,3.2096417E2,1.7416292E2,5.843499E2,1.4711056E3,9.0174515E1,5.3533684E1,3.9971817E1,1.177741E2,9.4385834E2,3.6807382E2,8.046707E2,4.0447674E0,7.375752E0,7.5898865E1,1.4275649E0,1.2633949E2,1.1896374E0,1.1896374E0,1.437082E2,1.1896374E0,1.3799794E2,1.1301556E2,3.2239172E2,4.1684894E2,4.163731E1,2.8789225E1,6.114736E1,1.0611566E3,1.8629721E2,1.5941141E1,5.0083734E2,6.416904E2,2.2436562E2,6.685762E1,2.5363069E2,1.0706737E1,3.635532E2,9.731234E1,2.4768251E2,2.4839629E2,1.9034199E1,1.151569E2,8.279877E1,2.648133E2,1.0540187E2,7.114032E1,2.077107E2,2.6172023E0,3.2929163E2,2.545824E1,5.757845E1,1.4275649E0,1.0088125E2,1.1824996E2,9.302965E1,1.2610156E1,5.472332E0,9.517099E0,8.803317E0,3.11685E1,1.9034199E0,2.6172023E0,4.7585497E0,1.5560457E2,3.021679E1,2.6172023E0,1.9034199E0,2.3792748E0,5.948187E1,3.3309848E0,7.687437E2,6.814243E2,4.163731E1,3.7116688E1,1.0052436E3,5.5199177E1,7.661265E1,2.4744457E1,4.8204108E2,8.303669E1,7.375752E0,2.450653E1,3.08354E2,1.2610156E1,5.3057827E1,1.2110509E2,1.0540187E2,4.7894803E2,8.382185E2,6.328871E2,8.184705E1,8.327462E0,4.734757E1,6.1861143E0,1.6654924E0,3.8306324E1,3.3309848E0,1.14443115E2,8.0919135E2,1.3466696E2,3.5260852E2,1.5465286E1,3.9948026E2,4.051905E2,1.1896374E0,2.8551297E0,1.9034199E0,5.472332E0,1.9272125E1,5.662674E1,1.2443607E2,1.9034199E0,7.518508E1,6.2812855E1,2.0223835E1,9.279172E1,2.0461763E2,1.177741E2,4.1494553E2,1.9034199E0,3.426156E1,7.375752E0,1.2610156E1,1.617907E1,5.757845E1,3.5689123E0,3.330985E1,1.0278467E3,8.327462E0,1.7796976E2,2.8551297E0,1.3086012E1,9.445721E1,4.0638013E2,6.340767E2,7.6136794E0,4.996477E0,2.1936914E2,2.7123734E1,3.973389E1,3.0930573E1,2.2270012E2,9.517099E0,1.1896374E0,1.9557639E2,1.679768E2,6.2812855E1,3.4499485E1,2.4292397E2,4.7585497E0,1.9724188E2,5.1154408E1,8.327462E0,1.0706737E1,1.9034199E0,1.1325348E2,3.973389E1,4.3064873E1,6.75714E1,1.9724188E2,8.56539E0,9.683649E1,1.7368706E1,5.377161E1,1.4275649E0,1.1896374E0,3.021679E1,2.9907483E2,1.6654924E0,2.3792747E1,2.3792748E0,5.5199177E1,2.831337E1,7.256788E1,7.1378245E0,1.1111214E2,6.852312E1,2.450653E1,1.1182591E1,1.4275649E0,2.6172023E0,2.8551297E0,1.1896374E0,8.327462E0,2.1413474E0,6.6619697E0,2.8789225E1,2.3792748E0,1.4275649E0,1.1896374E0,3.5689123E0,1.1896374E0,8.041949E1,7.518508E1,2.7599588E1,2.6172023E0,1.4275649E0,1.1896374E0,1.1896374E0,1.1896374E0,1.1896374E0,5.8292233E1,2.1413474E0,1.1896374E0,6.5763153E2,1.1111214E2,2.4006883E2,4.4135547E2,1.4275649E0,4.0209743E1,3.521327E1,1.9034199E0,3.1906076E2,6.8618286E2,1.9985909E1,3.521327E1,7.351959E1,3.0930572E0,9.992954E0,1.4751504E1,1.689285E1,4.6514822E2,6.66197E1,1.6416996E1,4.7585497E0,2.6172023E0,1.4275649E0,2.3078966E1,5.091648E1,2.5743753E2,9.517099E0,3.0930572E0,5.1392338E1,1.6654924E0,9.61227E1,2.4982386E1,4.5920006E1,5.948187E1,2.3792748E0,4.7656876E2,4.087594E2,4.294591E2,3.2881577E2,3.0407132E2,7.44713E1,7.375752E0,3.5689123E0,4.7585497E0,3.568912E1,1.1658446E1,4.5206223E0,1.6654924E0,2.6172024E1,1.2134301E1,1.9034199E0,1.4275649E0,7.8040215E1,3.6402905E1,7.8230554E2,2.6885805E1,4.639586E1,8.8271095E1,2.4221017E2,1.1039835E2,7.375752E0,8.089535E0,2.667167E2,1.3276353E2,1.6654924E0,4.03525E2,1.4275649E0,1.4275649E0,1.4275649E0,4.0447674E0,8.327462E0,1.0944664E1,9.469514E1,2.9740934E1],"tree_param":{"num_deleted":"0","num_feature":"28","num_nodes":"369","size_leaf_vector":"1"}},{"base_weights":[-3.320426E-4,-8.1624764E-1,8.379717E-1,-1.363782E0,-4.0841562E-1,3.109276E-1,1.2691532E0,-1.2266777E0,-1.4920309E0,-2.0056035E-1,-9.732176E-1,-6.7848665E-1,4.209444E-1,1.0237242E0,1.8961896E0,-1.0272985E0,-1.4827414E0,-2.1175133E-2,-7.4621394E-2,-4.312217E-1,1.8370853E-1,-6.3331556E-1,-1.240068E0,-3.5548338E-1,-8.824914E-1,5.73103E-1,4.3642513E-2,1.2307578E0,7.116126E-1,1.9733738E0,1.4441161E0,-1.4657024E0,-9.610782E-1,-1.350641E0,-7.503363E-2,-1.026835E-1,-7.245001E-1,5.366881E-1,-2.2838969E-2,-1.2896417E0,-4.6305323E-1,-1.3966405E0,-9.199706E-1,-2.5654817E-1,-9.9057925E-1,-7.5034297E-1,-1.2485154E0,3.7231064E-1,8.354886E-1,-2.0532401E-1,3.417645E-1,1.2616304E0,5.4162556E-1,1.1615189E0,6.564034E-1,1.0731172E-1,1.8848705E0,1.7248607E0,1.248571E0,-5.225045E-1,-1.4774729E0,-6.7160463E-1,-1.0587927E0,-1.3658519E0,3.221328E-3,-8.550298E-1,-5.5188864E-2,-1.3198102E0,-6.189636E-1,3.453911E-1,7.4443144E-1,-1.9320075E-1,1.3491048E-1,-1.3193437E0,-1.4385998E-1,-6.623022E-1,-7.189022E-2,-1.521185E0,-1.3188556E0,-1.3990457E0,-7.861193E-1,-5.6663465E-2,-6.105557E-1,3.5659537E-2,-1.1425787E0,-6.1689514E-1,-1.3695933E0,-3.7051928E-1,-1.3022243E0,3.2689032E-1,1.1868267E0,7.6595664E-1,1.543134E0,-1.5899065E-1,-1.0045617E0,2.0522529E-1,5.8975124E-1,1.4518688E0,1.1850253E0,7.128806E-1,8.803867E-2,1.5199999E0,1.0276501E0,5.668238E-1,8.8320756E-1,1.980624E0,1.7473897E0,7.8436065E-1,1.8041033E0,-2.6904223E-2,1.2723757E0,2.7927423E-3,-4.3037232E-2,-1.4832717E0,-2.1175133E-2,-5.180943E-1,-8.535608E-1,-7.6184857E-1,-1.0948035E0,-4.837544E-3,-1.3809384E0,-4.851736E-1,-1.0169108E0,4.9754408E-1,-8.769193E-2,-1.3544984E0,-8.601203E-1,-4.9564764E-1,-7.145394E-1,2.3626725E-1,7.009934E-1,7.84637E-1,-2.0453568E-1,-3.4868568E-1,-1.5858078E-2,3.3105806E-1,-6.2080305E-2,7.5685594E-4,-1.331727E0,-4.972359E-2,3.429341E-2,-2.02125E-1,-8.059138E-1,-2.7605918E-1,2.2852354E-1,-7.648236E-2,-6.175646E-1,-1.3486284E0,-8.9886576E-1,-1.4279308E0,-6.818375E-3,-7.2591656E-1,-1.3735806E0,7.224672E-2,-9.1279966E-1,-8.1544495E-1,5.151634E-1,-1.2900436E0,-1.6721527E-1,6.9162256E-1,-6.617295E-1,-1.413554E0,-6.138159E-1,-5.242272E-2,3.156618E-1,-1.3512613E0,-3.2417265E-1,3.619371E-1,-9.413093E-2,1.5295936E0,7.6962966E-1,8.108437E-1,-5.930778E-2,1.7244726E0,9.3237656E-1,8.626272E-2,-2.4584739E-1,-3.5456252E-1,-1.1802301E0,2.4326995E-1,-6.8368155E-1,9.9112165E-1,4.0613505E-1,1.1750613E0,1.5110564E0,1.2847778E0,1.0506887E0,7.8411824E-1,-5.604799E-1,1.1562824E0,-1.7074417E-1,-1.3307655E-2,1.6008999E0,-3.2909715E-1,1.0690563E0,8.4132504E-1,5.2185005E-1,5.2161336E-1,9.8986375E-1,1.9885197E0,7.583289E-3,1.804185E0,1.3019056E0,-1.8726438E-2,1.1775932E0,1.366259E0,9.632077E-2,1.2998606E0,-1.8726438E-2,-2.5655627E-2,-7.446445E-2,1.7187685E-2,-2.938635E-2,-1.8386533E-2,-4.7754735E-2,-3.087297E-2,-5.7478964E-2,-5.5585332E-2,-2.428439E-2,-4.837544E-3,-6.9820456E-2,-3.991767E-2,2.1118244E-2,-6.9582865E-2,-3.4037735E-2,9.164127E-3,3.992426E-2,7.3188083E-4,-9.282756E-3,-3.9539073E-2,-6.88214E-2,1.6421234E-2,-5.6430794E-2,-7.421266E-3,-2.881001E-2,-3.642778E-2,1.9429917E-2,6.9488734E-2,1.0174594E-2,5.934911E-2,1.7269978E-2,1.5270463E-2,4.2457797E-2,-2.5584057E-2,6.720654E-2,-1.334354E-2,-3.910267E-2,4.2041647E-3,-1.9933162E-2,1.48840565E-2,8.362484E-2,-8.023529E-3,1.5555154E-2,-6.902984E-2,-3.972724E-2,4.0674653E-2,-1.3842136E-2,-4.7817763E-2,-3.2854643E-2,2.9556477E-2,-1.7943501E-2,3.990599E-2,1.5894994E-3,-4.7675453E-2,1.9035152E-3,-5.3331953E-2,-6.8675965E-2,4.0999427E-2,-5.2513547E-2,-4.6304327E-2,-7.502132E-2,-2.4978818E-2,-4.560339E-2,-1.8018194E-2,-7.3164955E-2,1.18858125E-2,-2.16073E-2,-6.5409474E-2,2.3980574E-3,-3.7695733E-3,-5.376787E-2,-2.8015897E-2,6.4681664E-2,-6.893617E-2,-1.779083E-2,2.4290647E-2,-3.2060485E-2,6.39466E-2,-4.357994E-2,-2.5432209E-2,-4.4349562E-2,-7.3262975E-2,-3.087823E-2,-4.7484186E-2,1.9925905E-3,-2.1853551E-2,4.616713E-2,1.0966943E-3,-6.898285E-2,-5.4473367E-2,4.5278255E-2,1.27744945E-2,2.3884399E-2,6.8165734E-3,-2.3443444E-2,-2.6904223E-2,8.062161E-2,4.867155E-2,-7.764281E-4,5.147645E-2,3.537364E-2,2.5339032E-2,-1.944868E-2,8.853273E-2,2.2578036E-2,7.0001977E-3,7.099854E-2,1.6604993E-2,-1.3208191E-2,-8.667369E-3,-3.1951856E-2,-4.030147E-2,2.267824E-2,1.3155806E-2,-6.392172E-2,3.2288954E-2,8.052289E-3,-4.453205E-2,2.4942204E-2,5.268454E-2,-3.1602826E-2,2.9181406E-2,-5.3228145E-3,6.016418E-2,-2.8933832E-2,1.4093467E-3,7.590647E-2,5.7599027E-2,7.0557036E-2,4.548079E-2,6.2045425E-2,-4.9040142E-2,4.188067E-2,1.3175455E-2,-5.2990455E-2,-7.6671294E-3,8.246099E-2,2.7953489E-2,-2.578902E-2,8.236184E-2,1.1006296E-2,2.3888042E-2,-3.9416995E-2,5.503297E-2,-3.413568E-2,2.356459E-2,5.2212186E-2,1.970713E-2,3.171728E-2,1.591492E-2,5.0953295E-2,5.4788608E-2,2.3845991E-2,9.304189E-2,1.05245054E-1,9.1239914E-2,5.3302325E-2,-1.1097295E-2,6.944787E-2,-6.818375E-3,7.853017E-2,9.2302345E-2,4.3753322E-2,6.788148E-2,2.700435E-2],"categories":[0,1,2,3,4,5,6,8,9,10,12,2,4,8,9,10,13,14,0,0,1,2,3,4,6,7,9,10,11,13,14,0,1,2,3,4,5,9,2,3,0,1,2,4,5,6,7,8,9,10,11,0,6,7,11,0,3,4,5,6,7,9,11,0,2,4,6,8,0,1,2,3,4,5,6,7,10,11,1,2,3,0,1,3,4,5,6,7,8,9,10,11,12,13,14,1,2,3,5,8,9,11,0,1,1,2,3,4,5,6,8,9,11,12,14,2,3,0,0,1,2,3,4,6,7,8,10,12,14,0,1,8,9,11,0,1,2,3,0,4,5,8,13,14,0,2,3,4,9,6,8,11,13,7,8,9,10,11,12,14,6,8,9,10,14,0],"categories_nodes":[16,43,56,62,65,72,85,90,93,94,98,100,110,115,124,126,127,133,134,149,151,153,158,170,172,173,181,182,183,198,205],"categories_segments":[0,11,18,19,31,38,40,51,55,63,68,69,78,81,95,102,104,115,117,118,129,130,134,138,144,149,151,153,160,161,165],"categories_sizes":[11,7,1,12,7,2,11,4,8,5,1,9,3,14,7,2,11,2,1,11,1,4,4,6,5,2,2,7,1,4,1],"default_left":[0,0,0,0,0,0,0,0,0,0,0,0,0,0,0,0,1,0,0,0,0,0,0,0,0,0,0,0,0,0,0,0,0,0,0,0,0,0,0,0,0,0,0,1,0,0,0,0,0,0,0,0,0,0,0,0,1,0,0,0,0,0,1,0,0,1,0,0,0,0,0,0,1,0,0,0,0,0,0,0,0,0,0,0,0,1,0,0,0,0,1,0,0,1,1,0,0,0,1,0,1,0,0,0,0,0,0,0,0,0,1,0,0,0,0,1,0,0,0,0,0,0,0,0,1,0,1,1,0,0,0,0,0,1,1,0,0,0,0,0,0,0,0,0,0,0,0,0,0,1,0,1,0,1,0,0,0,0,1,0,0,0,0,0,0,0,0,0,0,0,1,0,1,1,0,0,0,0,0,0,0,1,1,1,0,0,0,0,0,0,0,0,0,0,0,0,0,0,1,0,0,0,0,0,0,1,0,0,0,0,0,0,0,0,0,0,0,0,0,0,0,0,0,0,0,0,0,0,0,0,0,0,0,0,0,0,0,0,0,0,0,0,0,0,0,0,0,0,0,0,0,0,0,0,0,0,0,0,0,0,0,0,0,0,0,0,0,0,0,0,0,0,0,0,0,0,0,0,0,0,0,0,0,0,0,0,0,0,0,0,0,0,0,0,0,0,0,0,0,0,0,0,0,0,0,0,0,0,0,0,0,0,0,0,0,0,0,0,0,0,0,0,0,0,0,0,0,0,0,0,0,0,0,0,0,0,0,0,0,0,0,0,0,0,0,0,0,0,0,0,0,0,0,0,0,0,0,0,0,0,0,0,0,0,0,0,0,0,0,0,0,0,0,0,0],"id":1,"left_children":[1,3,5,7,9,11,13,15,17,19,21,23,25,27,29,31,33,-1,-1,35,37,39,41,43,45,47,49,51,53,55,57,59,61,63,-1,65,67,69,71,73,75,77,79,81,83,85,87,89,91,93,95,97,99,101,103,-1,105,107,109,111,113,115,117,119,-1,121,123,125,127,129,131,133,135,137,139,141,143,145,147,149,151,153,155,-1,157,159,161,163,165,167,169,171,173,175,177,179,181,183,185,187,189,191,193,195,197,199,201,203,205,-1,207,-1,-1,209,-1,211,213,215,217,-1,219,221,223,225,227,229,231,233,235,237,239,241,243,245,247,249,251,-1,253,-1,-1,255,257,259,261,-1,263,265,267,269,-1,271,273,275,277,279,281,283,285,287,289,291,293,-1,295,297,299,301,303,305,307,309,311,313,315,317,319,321,323,325,327,329,331,333,335,337,339,341,343,345,347,-1,349,351,353,355,357,359,361,363,-1,365,367,-1,369,371,-1,373,-1,-1,-1,-1,-1,-1,-1,-1,-1,-1,-1,-1,-1,-1,-1,-1,-1,-1,-1,-1,-1,-1,-1,-1,-1,-1,-1,-1,-1,-1,-1,-1,-1,-1,-1,-1,-1,-1,-1,-1,-1,-1,-1,-1,-1,-1,-1,-1,-1,-1,-1,-1,-1,-1,-1,-1,-1,-1,-1,-1,-1,-1,-1,-1,-1,-1,-1,-1,-1,-1,-1,-1,-1,-1,-1,-1,-1,-1,-1,-1,-1,-1,-1,-1,-1,-1,-1,-1,-1,-1,-1,-1,-1,-1,-1,-1,-1,-1,-1,-1,-1,-1,-1,-1,-1,-1,-1,-1,-1,-1,-1,-1,-1,-1,-1,-1,-1,-1,-1,-1,-1,-1,-1,-1,-1,-1,-1,-1,-1,-1,-1,-1,-1,-1,-1,-1,-1,-1,-1,-1,-1,-1,-1,-1,-1,-1,-1,-1,-1,-1,-1,-1,-1,-1,-1,-1,-1,-1,-1,-1,-1,-1,-1,-1,-1,-1,-1],"loss_changes":[1.3011236E4,2.1520908E3,2.1318218E3,7.052197E1,6.485755E2,4.6000195E2,7.9219434E2,1.002959E2,2.6757812E-1,3.5824872E2,1.3403442E2,2.7559326E1,2.1820721E2,2.3891138E2,4.7760742E1,3.123816E1,3.57666E-2,0E0,0E0,2.4326108E2,1.10572235E2,7.268234E1,4.039514E1,1.0139549E1,1.1570587E1,1.424018E2,8.1233795E1,4.6752197E1,3.6055054E1,1.4866699E1,9.663452E0,8.451843E-1,2.7005432E1,2.543457E0,0E0,4.2556202E1,8.300458E1,2.1991043E1,2.576154E1,4.38797E0,4.0655502E1,3.385376E0,1.6604828E1,1.0188249E1,6.498253E0,1.506234E1,2.6810455E0,5.644861E1,5.6558105E1,2.1929876E1,1.674152E1,2.9367676E1,7.4996223E0,6.1503906E0,2.6369507E1,0E0,7.4104004E0,4.975937E0,6.2349396E0,7.019605E-1,2.4777222E-1,6.5415115E0,6.981018E0,2.028183E0,0E0,3.7413712E0,2.0211008E1,2.0244446E0,1.3024658E1,1.1216541E1,1.0367157E1,1.2701035E1,1.9255283E1,2.1848602E0,3.8730812E0,2.269513E1,1.0941856E1,6.4151E-1,3.1654053E0,1.9575958E0,6.715866E0,1.0378139E1,1.2421444E1,0E0,2.737545E0,9.855202E0,2.3898315E-1,2.7801313E0,2.5749283E0,2.1526001E1,1.0372261E1,3.970276E1,9.910904E0,1.2057047E1,3.2922935E0,1.1079688E1,1.2590561E1,8.185303E0,1.9103027E1,6.837406E0,7.889039E0,6.438675E0,7.098816E0,1.1299805E1,1.3856018E1,6.619629E0,6.4439697E0,4.2840376E0,1.5623322E0,0E0,6.329773E0,0E0,0E0,6.561279E-2,0E0,8.493252E0,5.2163544E0,3.8995323E0,6.147461E0,0E0,2.0802612E0,7.000829E0,5.1351433E0,5.7640724E0,1.06394E1,1.1892395E0,5.7236786E0,1.3868736E1,1.0135925E1,8.259692E0,1.14048E1,7.6822357E0,6.2371316E0,8.495417E0,8.309647E0,1.0677191E1,9.200307E0,0E0,2.3105469E0,0E0,0E0,6.569338E0,5.266037E0,7.8279724E0,8.078106E0,0E0,8.295938E-1,8.1555176E-1,7.6726933E0,7.0555115E-1,0E0,7.9682617E0,1.2135849E0,6.957948E0,4.735672E0,8.460815E0,7.9459543E0,9.7475433E-1,1.5018289E0,6.4356704E0,4.9073486E0,3.5902405E-1,8.278674E-1,0E0,1.9520059E0,2.3505936E0,5.0474358E0,1.6447937E1,9.798963E0,8.2884445E0,6.1661644E0,2.2223816E1,1.0676403E1,3.8454132E0,9.841467E0,1.2881366E1,1.1790714E1,3.4097137E0,3.9018135E0,1.016238E1,3.7499857E0,6.2156334E0,1.1221743E1,6.219635E0,5.173828E0,1.299707E1,1.6471863E1,7.167221E0,2.056665E0,3.8386822E0,6.147769E0,0E0,2.1933746E0,1.9779054E0,7.216522E0,9.436165E0,1.1525482E1,8.474638E0,1.505069E1,3.1733398E0,0E0,2.704956E0,5.9975586E0,0E0,3.5902634E0,3.2253456E0,0E0,4.849182E0,0E0,0E0,0E0,0E0,0E0,0E0,0E0,0E0,0E0,0E0,0E0,0E0,0E0,0E0,0E0,0E0,0E0,0E0,0E0,0E0,0E0,0E0,0E0,0E0,0E0,0E0,0E0,0E0,0E0,0E0,0E0,0E0,0E0,0E0,0E0,0E0,0E0,0E0,0E0,0E0,0E0,0E0,0E0,0E0,0E0,0E0,0E0,0E0,0E0,0E0,0E0,0E0,0E0,0E0,0E0,0E0,0E0,0E0,0E0,0E0,0E0,0E0,0E0,0E0,0E0,0E0,0E0,0E0,0E0,0E0,0E0,0E0,0E0,0E0,0E0,0E0,0E0,0E0,0E0,0E0,0E0,0E0,0E0,0E0,0E0,0E0,0E0,0E0,0E0,0E0,0E0,0E0,0E0,0E0,0E0,0E0,0E0,0E0,0E0,0E0,0E0,0E0,0E0,0E0,0E0,0E0,0E0,0E0,0E0,0E0,0E0,0E0,0E0,0E0,0E0,0E0,0E0,0E0,0E0,0E0,0E0,0E0,0E0,0E0,0E0,0E0,0E0,0E0,0E0,0E0,0E0,0E0,0E0,0E0,0E0,0E0,0E0,0E0,0E0,0E0,0E0,0E0,0E0,0E0,0E0,0E0,0E0,0E0,0E0,0E0,0E0,0E0,0E0,0E0,0E0,0E0,0E0,0E0,0E0,0E0,0E0,0E0,0E0,0E0,0E0,0E0,0E0],"parents":[2147483647,0,0,1,1,2,2,3,3,4,4,5,5,6,6,7,7,8,8,9,9,10,10,11,11,12,12,13,13,14,14,15,15,16,16,19,19,20,20,21,21,22,22,23,23,24,24,25,25,26,26,27,27,28,28,29,29,30,30,31,31,32,32,33,33,35,35,36,36,37,37,38,38,39,39,40,40,41,41,42,42,43,43,44,44,45,45,46,46,47,47,48,48,49,49,50,50,51,51,52,52,53,53,54,54,56,56,57,57,58,58,59,59,60,60,61,61,62,62,63,63,65,65,66,66,67,67,68,68,69,69,70,70,71,71,72,72,73,73,74,74,75,75,76,76,77,77,78,78,79,79,80,80,81,81,82,82,84,84,85,85,86,86,87,87,88,88,89,89,90,90,91,91,92,92,93,93,94,94,95,95,96,96,97,97,98,98,99,99,100,100,101,101,102,102,103,103,104,104,105,105,106,106,107,107,108,108,110,110,113,113,115,115,116,116,117,117,118,118,120,120,121,121,122,122,123,123,124,124,125,125,126,126,127,127,128,128,129,129,130,130,131,131,132,132,133,133,134,134,135,135,136,136,138,138,141,141,142,142,143,143,144,144,146,146,147,147,148,148,149,149,151,151,152,152,153,153,154,154,155,155,156,156,157,157,158,158,159,159,160,160,161,161,162,162,164,164,165,165,166,166,167,167,168,168,169,169,170,170,171,171,172,172,173,173,174,174,175,175,176,176,177,177,178,178,179,179,180,180,181,181,182,182,183,183,184,184,185,185,186,186,187,187,188,188,189,189,190,190,192,192,193,193,194,194,195,195,196,196,197,197,198,198,199,199,201,201,202,202,204,204,205,205,207,207],"right_children":[2,4,6,8,10,12,14,16,18,20,22,24,26,28,30,32,34,-1,-1,36,38,40,42,44,46,48,50,52,54,56,58,60,62,64,-1,66,68,70,72,74,76,78,80,82,84,86,88,90,92,94,96,98,100,102,104,-1,106,108,110,112,114,116,118,120,-1,122,124,126,128,130,132,134,136,138,140,142,144,146,148,150,152,154,156,-1,158,160,162,164,166,168,170,172,174,176,178,180,182,184,186,188,190,192,194,196,198,200,202,204,206,-1,208,-1,-1,210,-1,212,214,216,218,-1,220,222,224,226,228,230,232,234,236,238,240,242,244,246,248,250,252,-1,254,-1,-1,256,258,260,262,-1,264,266,268,270,-1,272,274,276,278,280,282,284,286,288,290,292,294,-1,296,298,300,302,304,306,308,310,312,314,316,318,320,322,324,326,328,330,332,334,336,338,340,342,344,346,348,-1,350,352,354,356,358,360,362,364,-1,366,368,-1,370,372,-1,374,-1,-1,-1,-1,-1,-1,-1,-1,-1,-1,-1,-1,-1,-1,-1,-1,-1,-1,-1,-1,-1,-1,-1,-1,-1,-1,-1,-1,-1,-1,-1,-1,-1,-1,-1,-1,-1,-1,-1,-1,-1,-1,-1,-1,-1,-1,-1,-1,-1,-1,-1,-1,-1,-1,-1,-1,-1,-1,-1,-1,-1,-1,-1,-1,-1,-1,-1,-1,-1,-1,-1,-1,-1,-1,-1,-1,-1,-1,-1,-1,-1,-1,-1,-1,-1,-1,-1,-1,-1,-1,-1,-1,-1,-1,-1,-1,-1,-1,-1,-1,-1,-1,-1,-1,-1,-1,-1,-1,-1,-1,-1,-1,-1,-1,-1,-1,-1,-1,-1,-1,-1,-1,-1,-1,-1,-1,-1,-1,-1,-1,-1,-1,-1,-1,-1,-1,-1,-1,-1,-1,-1,-1,-1,-1,-1,-1,-1,-1,-1,-1,-1,-1,-1,-1,-1,-1,-1,-1,-1,-1,-1,-1,-1,-1,-1,-1,-1],"split_conditions":[8.553281E-2,-7.2491074E-1,4.5190996E-1,3.4015363E-1,8.440753E-1,-7.2491074E-1,1.4131048E0,8.440753E-1,-1.8733394E0,5.9636407E-2,3.4015363E-1,-7.0104265E-1,3.4015363E-1,3.4015363E-1,3.4015363E-1,-1.2420391E0,1E-45,-2.1175133E-2,-7.4621394E-2,3.4015363E-1,3.4015363E-1,-1.1092819E0,6.7481875E-2,8.440753E-1,3.4015363E-1,5.9636407E-2,5.9636407E-2,8.440753E-1,-1.6880611E0,-1.7498206E0,-1.6263016E0,-1.9909095E0,-7.0104265E-1,2.299151E0,-7.503363E-2,-1.2420391E0,-1.2420391E0,4.5190996E-1,4.440645E-1,2.0839496E0,8.317282E-2,-1.2420391E0,-1.1756605E0,1E-45,-1.8546586E0,6.587971E-1,-8.42428E-1,1.4131048E0,1.4131048E0,9.675942E-1,6.0270566E-1,-7.0104265E-1,3.6381978E-1,-3.325493E-1,6.906477E-1,1.0731172E-1,1E-45,-1.4623569E0,-2.3884256E0,6.9276296E-2,2.1280797E0,2.2648108E-1,1E-45,-1.6925493E0,3.221328E-3,1E-45,-1.2216408E0,1.6779367E0,1.3624723E-1,7.042987E-1,1.2535505E0,-7.1516834E-2,1E-45,-2.6218367E0,-1.4411749E0,-7.0104265E-1,2.0258497E-1,1.6576104E0,1.101044E0,1.7975172E0,1.6037318E0,1.4918061E0,1.4528123E0,3.5659537E-2,4.8380437E-1,1E-45,1.4616696E0,1.7563207E-1,2.2005026E0,8.440753E-1,1E-45,8.440753E-1,4.8171148E-1,1E-45,1E-45,8.440753E-1,-4.9788362E-1,6.402013E-1,1E-45,1.5744009E0,1E-45,-2.1540947E0,-2.0120502E0,-1.1651443E0,-7.635212E-1,8.440753E-1,1.3248295E0,-2.6144526E0,-1.3014488E-1,-2.6904223E-2,1E-45,2.7927423E-3,-4.3037232E-2,-2.4307897E0,-2.1175133E-2,1E-45,-6.377394E-1,8.126243E-1,2.110589E0,-4.837544E-3,-1.2017797E0,6.1639076E-1,5.5877186E-2,-2.8790203E-1,1E-45,-1.0671004E0,1E-45,1E-45,2.245697E0,-1.379264E0,-1.7721991E-1,-1.3879567E0,1.0028129E0,1E-45,1E-45,2.387528E0,4.2682153E-1,7.5685594E-4,5.733916E-1,-4.972359E-2,3.429341E-2,-1.7042298E0,-2.1808694E-1,-1.5651044E0,-7.0104265E-1,-7.648236E-2,2.1235287E-1,-1.2592863E0,-1.3240094E0,1E-45,-6.818375E-3,1E-45,-1.3482697E0,1E-45,5.585188E-1,-1.533392E-1,-5.557858E-1,1.5693829E0,1E-45,1.5459133E0,3.5512805E-1,1.3282819E0,6.5059775E-1,-5.242272E-2,-4.838589E-1,-1.8077656E0,4.5490038E-1,3.3887947E-1,4.7450852E-1,-1.1793331E0,1E-45,-7.0104265E-1,1E-45,1E-45,-3.740369E-1,7.3673385E-1,8.126243E-1,7.600668E-1,-1.3325886E0,-9.089668E-1,1.0278987E0,1E-45,1E-45,1E-45,-2.3518054E0,8.8207597E-1,2.2162338E-1,-2.0474255E0,4.1742578E-1,6.4610136E-1,-3.817065E-1,-1.3307655E-2,2.0920794E0,-1.0671004E0,2.0183005E0,-3.889311E-1,-6.4049445E-2,7.4648464E-1,1E-45,4.8544958E-1,7.583289E-3,1.6779367E0,-1.8058989E0,-1.8726438E-2,-9.66912E-1,1E-45,9.632077E-2,1.6472165E-1,-1.8726438E-2,-2.5655627E-2,-7.446445E-2,1.7187685E-2,-2.938635E-2,-1.8386533E-2,-4.7754735E-2,-3.087297E-2,-5.7478964E-2,-5.5585332E-2,-2.428439E-2,-4.837544E-3,-6.9820456E-2,-3.991767E-2,2.1118244E-2,-6.9582865E-2,-3.4037735E-2,9.164127E-3,3.992426E-2,7.3188083E-4,-9.282756E-3,-3.9539073E-2,-6.88214E-2,1.6421234E-2,-5.6430794E-2,-7.421266E-3,-2.881001E-2,-3.642778E-2,1.9429917E-2,6.9488734E-2,1.0174594E-2,5.934911E-2,1.7269978E-2,1.5270463E-2,4.2457797E-2,-2.5584057E-2,6.720654E-2,-1.334354E-2,-3.910267E-2,4.2041647E-3,-1.9933162E-2,1.48840565E-2,8.362484E-2,-8.023529E-3,1.5555154E-2,-6.902984E-2,-3.972724E-2,4.0674653E-2,-1.3842136E-2,-4.7817763E-2,-3.2854643E-2,2.9556477E-2,-1.7943501E-2,3.990599E-2,1.5894994E-3,-4.7675453E-2,1.9035152E-3,-5.3331953E-2,-6.8675965E-2,4.0999427E-2,-5.2513547E-2,-4.6304327E-2,-7.502132E-2,-2.4978818E-2,-4.560339E-2,-1.8018194E-2,-7.3164955E-2,1.18858125E-2,-2.16073E-2,-6.5409474E-2,2.3980574E-3,-3.7695733E-3,-5.376787E-2,-2.8015897E-2,6.4681664E-2,-6.893617E-2,-1.779083E-2,2.4290647E-2,-3.2060485E-2,6.39466E-2,-4.357994E-2,-2.5432209E-2,-4.4349562E-2,-7.3262975E-2,-3.087823E-2,-4.7484186E-2,1.9925905E-3,-2.1853551E-2,4.616713E-2,1.0966943E-3,-6.898285E-2,-5.4473367E-2,4.5278255E-2,1.27744945E-2,2.3884399E-2,6.8165734E-3,-2.3443444E-2,-2.6904223E-2,8.062161E-2,4.867155E-2,-7.764281E-4,5.147645E-2,3.537364E-2,2.5339032E-2,-1.944868E-2,8.853273E-2,2.2578036E-2,7.0001977E-3,7.099854E-2,1.6604993E-2,-1.3208191E-2,-8.667369E-3,-3.1951856E-2,-4.030147E-2,2.267824E-2,1.3155806E-2,-6.392172E-2,3.2288954E-2,8.052289E-3,-4.453205E-2,2.4942204E-2,5.268454E-2,-3.1602826E-2,2.9181406E-2,-5.3228145E-3,6.016418E-2,-2.8933832E-2,1.4093467E-3,7.590647E-2,5.7599027E-2,7.0557036E-2,4.548079E-2,6.2045425E-2,-4.9040142E-2,4.188067E-2,1.3175455E-2,-5.2990455E-2,-7.6671294E-3,8.246099E-2,2.7953489E-2,-2.578902E-2,8.236184E-2,1.1006296E-2,2.3888042E-2,-3.9416995E-2,5.503297E-2,-3.413568E-2,2.356459E-2,5.2212186E-2,1.970713E-2,3.171728E-2,1.591492E-2,5.0953295E-2,5.4788608E-2,2.3845991E-2,9.304189E-2,1.05245054E-1,9.1239914E-2,5.3302325E-2,-1.1097295E-2,6.944787E-2,-6.818375E-3,7.853017E-2,9.2302345E-2,4.3753322E-2,6.788148E-2,2.700435E-2],"split_indices":[6,5,5,10,17,5,6,17,17,5,10,10,10,10,10,6,4,0,0,10,10,6,5,17,10,5,5,17,17,17,17,18,10,24,0,6,6,5,5,25,5,6,6,4,5,17,18,6,6,17,7,10,8,3,7,0,27,21,8,3,8,17,4,9,0,2,10,24,3,16,18,7,20,7,6,10,25,8,7,15,9,13,7,0,6,2,17,8,16,17,2,17,13,2,2,17,18,5,27,24,2,21,8,9,25,17,12,17,7,0,20,0,0,21,0,4,9,9,0,0,13,13,24,3,2,13,20,4,8,17,8,18,15,20,19,16,7,0,7,0,0,24,7,8,10,0,13,25,21,4,0,27,25,2,25,18,3,18,4,16,25,8,18,0,25,24,15,7,21,13,4,10,2,2,9,18,9,15,0,21,21,4,4,2,9,6,7,25,6,8,15,0,24,13,15,8,0,15,4,7,0,24,25,0,25,27,0,17,0,0,0,0,0,0,0,0,0,0,0,0,0,0,0,0,0,0,0,0,0,0,0,0,0,0,0,0,0,0,0,0,0,0,0,0,0,0,0,0,0,0,0,0,0,0,0,0,0,0,0,0,0,0,0,0,0,0,0,0,0,0,0,0,0,0,0,0,0,0,0,0,0,0,0,0,0,0,0,0,0,0,0,0,0,0,0,0,0,0,0,0,0,0,0,0,0,0,0,0,0,0,0,0,0,0,0,0,0,0,0,0,0,0,0,0,0,0,0,0,0,0,0,0,0,0,0,0,0,0,0,0,0,0,0,0,0,0,0,0,0,0,0,0,0,0,0,0,0,0,0,0,0,0,0,0,0,0,0,0,0,0,0,0,0,0,0],"split_type":[0,0,0,0,0,0,0,0,0,0,0,0,0,0,0,0,1,0,0,0,0,0,0,0,0,0,0,0,0,0,0,0,0,0,0,0,0,0,0,0,0,0,0,1,0,0,0,0,0,0,0,0,0,0,0,0,1,0,0,0,0,0,1,0,0,1,0,0,0,0,0,0,1,0,0,0,0,0,0,0,0,0,0,0,0,1,0,0,0,0,1,0,0,1,1,0,0,0,1,0,1,0,0,0,0,0,0,0,0,0,1,0,0,0,0,1,0,0,0,0,0,0,0,0,1,0,1,1,0,0,0,0,0,1,1,0,0,0,0,0,0,0,0,0,0,0,0,0,0,1,0,1,0,1,0,0,0,0,1,0,0,0,0,0,0,0,0,0,0,0,1,0,1,1,0,0,0,0,0,0,0,1,1,1,0,0,0,0,0,0,0,0,0,0,0,0,0,0,1,0,0,0,0,0,0,1,0,0,0,0,0,0,0,0,0,0,0,0,0,0,0,0,0,0,0,0,0,0,0,0,0,0,0,0,0,0,0,0,0,0,0,0,0,0,0,0,0,0,0,0,0,0,0,0,0,0,0,0,0,0,0,0,0,0,0,0,0,0,0,0,0,0,0,0,0,0,0,0,0,0,0,0,0,0,0,0,0,0,0,0,0,0,0,0,0,0,0,0,0,0,0,0,0,0,0,0,0,0,0,0,0,0,0,0,0,0,0,0,0,0,0,0,0,0,0,0,0,0,0,0,0,0,0,0,0,0,0,0,0,0,0,0,0,0,0,0,0,0,0,0,0,0,0,0,0,0,0,0,0,0,0,0,0,0,0,0,0,0,0,0,0,0,0,0,0],"sum_hessian":[1.9020691E4,9.639072E3,9.38162E3,4.113779E3,5.525293E3,4.2223076E3,5.159312E3,1.9933525E3,2.1204263E3,4.0399048E3,1.4853881E3,4.219968E2,3.800311E3,3.7098628E3,1.4494492E3,1.1235405E3,8.69812E2,1.1838437E0,2.1192424E3,2.5244536E3,1.5154514E3,6.54759E2,8.306291E2,1.644166E2,2.5758023E2,2.7077917E3,1.0925193E3,2.228611E3,1.4812516E3,1.2351947E3,2.1425449E2,1.4466542E2,9.7887506E2,1.130779E2,7.5673413E2,1.1912897E3,1.3331638E3,5.588337E2,9.566177E2,1.3351436E2,5.212446E2,5.5553253E2,2.7509653E2,1.4347069E2,2.0945908E1,1.9149374E2,6.608648E1,1.5353066E3,1.172485E3,5.955103E2,4.9700906E2,2.1322568E3,9.6354195E1,1.5971068E2,1.321541E3,4.103895E2,8.248053E2,8.475323E1,1.2950127E2,2.3425472E0,1.4232288E2,2.490253E2,7.298498E2,1.11909744E2,1.1681602E0,6.972929E1,1.1215604E3,1.9902106E2,1.1341427E3,2.9231915E2,2.6651453E2,4.59815E2,4.968027E2,1.2999309E2,3.5212667E0,3.4487866E2,1.7636598E2,2.064388E2,3.4909375E2,5.8011604E1,2.1708493E2,9.243742E1,5.1033257E1,1.4132012E0,1.9532707E1,1.591856E2,3.2308144E1,4.2649336E0,6.1821545E1,1.4555417E3,7.976488E1,1.0694819E3,1.0300301E2,5.640123E2,3.1497963E1,3.2170743E2,1.753016E2,6.0697156E2,1.5252854E3,6.9530716E1,2.682348E1,4.0609653E1,1.1910101E2,9.498736E2,3.716674E2,4.7828214E2,3.4652313E2,7.432927E0,7.73203E1,1.4186713E0,1.280826E2,1.1725172E0,1.17003E0,1.4113904E2,1.1838437E0,1.3715747E2,1.11867836E2,8.1333176E1,6.485166E2,1.4017922E0,1.1050795E2,2.2445116E1,4.728417E1,6.149505E1,1.0600654E3,1.8324672E2,1.57743435E1,4.9790735E2,6.362354E2,2.2495233E2,6.7366806E1,2.55848E2,1.0666518E1,2.4449136E2,2.1532364E2,2.4859311E2,2.4820958E2,1.19314E0,1.2879996E2,1.6407099E0,1.8805568E0,8.260226E1,2.622764E2,1.0505141E2,7.1314575E1,2.0383713E2,2.6016738E0,3.2392026E2,2.517351E1,5.6586254E1,1.4253482E0,1.9893396E2,1.8150957E1,8.113619E1,1.130123E1,4.3408253E1,7.625002E0,1.6687153E1,2.845554E0,4.7956495E0,1.5438995E2,2.9709713E1,2.5984306E0,1.8797839E0,2.3851497E0,5.850659E1,3.314952E0,1.3438195E3,1.1172235E2,4.2324734E1,3.744014E1,1.0143289E3,5.5153034E1,7.801595E1,2.498706E1,1.475079E2,4.1650443E2,7.343672E0,2.4154291E1,3.092002E2,1.2507249E1,5.3643467E1,1.2165814E2,1.1059529E2,4.9637628E2,8.7040027E2,6.548851E2,6.621079E1,3.3199208E0,4.554511E0,2.226897E1,1.660408E0,3.8949245E1,3.3213997E0,1.1577962E2,1.3122467E2,8.186489E2,8.599864E1,2.8566876E2,4.7613937E2,2.1427567E0,3.046349E2,4.188823E1,1.8951945E0,5.5377326E0,1.9540562E1,5.7779736E1,1.261874E2,1.8951945E0,1.4017962E0,1.3973723E2,9.958908E0,1.2719856E2,2.0136806E1,9.1731026E1,6.115269E1,2.0180487E1,6.302032E2,1.831343E1,1.4017922E0,1.09106155E2,1.6776184E1,5.6689334E0,2.0873978E1,2.641019E1,3.086887E1,3.0626179E1,5.1889404E2,5.411713E2,8.249418E0,1.749973E2,2.8656797E0,1.2908664E1,9.429421E1,4.0361313E2,6.2858826E2,7.6471443E0,5.071219E0,2.1988112E2,2.7476608E1,3.9890198E1,3.1038305E1,2.2480971E2,9.459937E0,1.2065812E0,2.070235E2,3.7467865E1,1.713647E2,4.3958923E1,2.4375015E2,4.842946E0,1.968736E2,5.1335983E1,1.1662043E2,1.21795225E1,4.9829397E0,7.7619316E1,1.27729706E2,1.3454669E2,8.622192E0,9.6429214E1,1.7523243E1,5.3791336E1,1.4198301E0,1.1818438E0,2.9829954E1,2.940903E2,1.6804172E0,2.3493092E1,8.881204E0,4.770505E1,9.143833E1,1.07495636E2,1.8845699E0,1.6266388E1,6.149202E1,1.9644176E1,7.750135E0,3.5510955E0,1.1618047E1,3.1790207E1,3.3193893E0,4.3056126E0,1.4805936E1,1.881217E0,1.1862745E0,1.6592796E0,3.6181538E0,1.1774958E0,9.386103E1,6.0528915E1,2.710804E1,2.6016738E0,1.4173257E0,1.1811048E0,1.1908287E0,1.1943212E0,1.1899318E0,5.7316658E1,2.1136458E0,1.2013061E0,7.017139E2,6.4210547E2,6.957202E1,4.2150333E1,1.4186713E0,4.0906063E1,2.9534231E1,7.9059086E0,3.2269522E2,6.916337E2,2.010033E1,3.5052704E1,7.490726E1,3.108699E0,1.0008966E1,1.4978094E1,8.672172E1,6.0786182E1,3.528783E2,6.3626137E1,4.7132006E0,2.6304712E0,1.431768E0,2.2722525E1,5.1286297E1,2.5791388E2,1.08544E1,1.6528488E0,5.199023E1,1.6532378E0,9.026414E1,3.1394009E1,1.0915262E2,1.4426721E0,2.3800378E0,4.9399625E2,4.2932767E2,4.410726E2,3.793381E2,2.7554697E2,1.4378718E0,6.477292E1,1.4309133E0,1.8890073E0,1.433894E0,3.1206172E0,6.9494042E0,1.5319566E1,3.749789E1,1.4513562E0,1.1901193E0,2.1312807E0,1.1409299E2,1.6866302E0,4.7651733E1,8.3572945E1,3.855115E2,4.331374E2,6.2211773E1,2.3786865E1,2.3583855E2,4.983021E1,2.3514778E2,2.4099161E2,2.9492667E2,9.708236E0,2.1798608E0,3.970837E1,1.4253482E0,4.112385E0,8.489691E0,1.1050872E1,1.1653949E2,9.647904E0],"tree_param":{"num_deleted":"0","num_feature":"28","num_nodes":"375","size_leaf_vector":"1"}},{"base_weights":[-6.2593503E-4,-7.8447247E-1,7.9050714E-1,-1.3204529E0,-3.9039448E-1,2.9446888E-1,1.1932104E0,-1.185277E0,-1.4474205E0,-1.9114345E-1,-9.3725115E-1,-6.5148467E-1,3.9834782E-1,9.637554E-1,1.7766569E0,-9.8965865E-1,-1.4382727E0,-2.0658208E-2,-1.447808E0,-4.1208702E-1,1.7438386E-1,-6.069342E-1,-1.1987422E0,-3.403442E-1,-8.493074E-1,5.415641E-1,4.136322E-2,1.1567961E0,6.716206E-1,1.8480194E0,1.3575103E0,-1.421935E0,-9.248502E-1,-1.3299024E0,-7.3012166E-2,-8.9510965E-1,-7.244819E-2,-9.776476E-2,-6.948723E-1,5.076532E-1,-2.1691708E-2,-1.2476453E0,-4.4257507E-1,-1.3530873E0,-8.8547915E-1,-2.4532104E-1,-9.5576733E-1,-7.2075975E-1,-1.20793E0,3.5241988E-1,7.877663E-1,-1.9575754E-1,3.2368526E-1,1.1855078E0,5.121537E-1,1.0927566E0,6.197555E-1,1.0042359E-1,1.7658069E0,1.6210737E0,1.1737026E0,-5.103894E-1,-1.4334204E0,-6.4377475E-1,-1.0202435E0,-1.1036869E-2,-1.3402399E0,5.2824505E-3,-1.1105448E0,-8.228575E-1,-5.2437145E-2,-1.2773201E0,-5.9264207E-1,3.2752764E-1,7.0255303E-1,1.5710616E-1,-1.6374145E-1,-7.307578E-1,-1.325615E0,-6.3466454E-1,-6.8112776E-2,-1.476768E0,-1.2761003E0,-1.3565723E0,-7.550111E-1,-5.471805E-2,-5.852714E-1,3.4443535E-2,-1.1054806E0,-5.9097594E-1,-1.3289773E0,-3.5887527E-1,-1.2604892E0,3.0948517E-1,1.1175021E0,7.223854E-1,1.4501834E0,-1.5141071E-1,-9.6918476E-1,1.9459976E-1,5.5732757E-1,1.282391E0,1.0548156E0,5.842081E-1,-4.06806E-1,1.2267687E0,7.747652E-1,5.35529E-1,8.3247644E-1,1.8886586E0,1.6648141E0,7.474552E-1,1.693948E0,-2.6216343E-2,1.1960655E0,3.4649693E-3,-4.2711962E-2,-1.4390813E0,-2.0658208E-2,-9.9508536E-1,-5.6425977E-1,-8.984915E-1,-1.1122746E0,-1.3506012E0,-1.59617E-2,-6.086264E-2,-1.8033843E-2,-6.05841E-1,-1.1080298E0,4.7110528E-1,-8.340212E-2,-1.3114113E0,-8.286399E-1,-5.330423E-1,-7.8421736E-1,2.2425547E-1,6.627512E-1,7.400011E-1,-1.9156183E-1,3.3438623E-1,-5.8356762E-2,-3.001553E-1,3.1563524E-2,-1.15505114E-1,-1.1633303E0,1.2958375E-2,-1.348164E0,-1.9218999E-1,-7.738025E-1,-2.6305994E-1,2.1717706E-1,-7.4252054E-2,-6.021375E-1,-1.3054539E0,-8.646886E-1,-1.3850529E0,-6.624131E-3,-6.9635886E-1,-1.3317802E0,6.844495E-2,-8.818831E-1,-7.83986E-1,4.915845E-1,-1.2501842E0,-1.612024E-1,6.5719575E-1,-6.342903E-1,-1.8439602E-2,-1.3522522E0,-5.1170822E-2,3.0648863E-1,-1.3086475E0,-3.1173638E-1,3.4255582E-1,-8.969158E-2,1.4298058E0,7.030972E-1,7.643771E-1,-5.634514E-2,1.725872E0,1.0684257E0,3.438255E-2,-2.5699842E-1,-3.4050035E-1,-1.1409038E0,2.9032868E-1,-1.5293187E-1,9.334472E-1,3.8443026E-1,1.4665122E0,1.2070123E0,1.3992807E0,9.981802E-1,7.620297E-1,1.2505269E-1,-5.2468013E-2,3.2928622E-1,1.260565E0,-1.2633704E-1,1.036885E0,-1.2108284E-1,5.901523E-1,3.1697917E-1,8.7143534E-1,-6.256086E-2,1.8967667E0,3.46546E-3,1.5279945E0,1.779186E0,-1.8166708E-2,1.1207672E0,1.3977208E0,1.8580331E0,1.221774E0,-1.8166708E-2,-2.5007144E-2,-7.22467E-2,4.8254784E-2,-5.353585E-2,-2.3056779E-2,-4.7807045E-2,-3.9497506E-2,-5.603361E-2,-5.600238E-2,1.8979069E-2,-1.6358783E-2,-6.805578E-2,-3.8284507E-2,6.5484503E-3,-7.1747914E-2,-3.9390292E-2,4.6256285E-2,1.3023833E-2,2.0953035E-2,-5.136133E-3,-5.9985857E-2,-7.277936E-2,1.5771586E-2,-5.4570135E-2,-2.0453623E-2,-3.164377E-2,-4.2383604E-2,-1.7631259E-2,4.352811E-2,8.528839E-3,4.1691255E-2,-1.255583E-2,1.4484857E-2,4.0016502E-2,-2.4565754E-2,6.4949885E-2,-8.722472E-3,2.1067334E-2,1.752577E-2,-1.3141072E-2,-2.3353053E-2,-5.9245317E-3,4.7484646E-3,-3.258803E-2,3.903101E-2,-3.4282457E-2,3.985865E-3,-6.560819E-2,-7.133862E-2,-5.095029E-2,5.031967E-3,-2.3011507E-2,-2.6033942E-2,-4.2887952E-2,6.790833E-3,-2.1597845E-2,3.8762602E-3,5.0452173E-2,-4.696709E-2,2.3907335E-3,-5.145056E-2,-6.6498846E-2,3.9515894E-2,-5.0665226E-2,-2.4980847E-2,-7.068699E-2,-2.3888338E-2,-4.385702E-2,-1.7481059E-2,-7.098987E-2,7.576128E-3,-4.630668E-2,-6.348796E-2,2.3034906E-3,-3.5989422E-3,-5.1858343E-2,-2.707767E-2,6.1419535E-2,-6.685137E-2,-1.7260892E-2,-3.1551316E-2,2.409491E-2,6.089961E-2,-4.2658985E-2,-1.557445E-2,-3.663709E-2,-7.001314E-2,-2.6466405E-2,-2.1317145E-2,4.4680078E-2,1.0667519E-3,-6.683324E-2,-5.314243E-2,4.3834634E-2,2.451314E-2,1.3128336E-2,6.470977E-3,-2.241571E-2,-2.6216343E-2,7.520544E-2,4.4716414E-2,-2.0990249E-2,4.844598E-2,3.3372715E-2,2.904596E-2,-1.6938958E-2,8.983789E-2,1.7773574E-2,6.377722E-2,2.0392554E-2,4.183057E-2,-1.733795E-3,-8.981462E-3,-3.381496E-2,-3.294787E-2,3.5514127E-2,1.2747198E-2,-6.188462E-2,-2.7299797E-2,1.6912712E-2,2.0950703E-2,-2.063057E-2,3.4525316E-2,7.355091E-2,2.7465736E-2,-7.811437E-3,7.63543E-2,5.522681E-2,5.4158427E-2,6.623379E-2,7.646725E-2,4.9068645E-2,4.405315E-2,5.8502007E-2,-8.472176E-3,4.297161E-2,5.513994E-2,-6.4502927E-3,6.78707E-2,-2.470298E-2,5.450469E-2,8.592409E-2,-4.512775E-2,3.0988196E-2,4.1888837E-2,8.9789964E-2,2.66994E-2,-3.6658723E-2,3.6078617E-2,2.2304606E-2,2.1452896E-2,-2.4382133E-2,4.9816918E-2,2.945899E-2,4.973024E-2,-1.6662963E-2,9.516765E-2,7.6880404E-3,2.4299573E-2,7.808624E-2,8.9526735E-2,3.463785E-3,-6.624131E-3,7.458812E-2,8.679294E-2,5.2183338E-2,6.87243E-2,9.952336E-2,6.681463E-2,4.1227397E-2],"categories":[1,2,3,4,5,6,8,9,10,12,0,2,4,8,9,10,13,14,0,0,6,9,13,4,1,2,3,5,9,1,2,3,1,3,7,9,10,13,0,1,2,6,7,8,0,1,2,4,5,6,7,8,9,10,11,0,7,11,0,3,4,6,7,9,11,0,2,4,6,8,2,4,11,1,2,3,1,2,3,5,8,10,11,12,14,0,2,7,9,10,11,13,0,2,0,1,4,8,10,0,1,3,4,7,10,11,1,8,0,1,2,3,4,5,6,7,8,9,10,0,1,2,5,8,9,0,1,3,4,5,6,7,9,11,0,1,2,3,4,9,10,12,14,0,0,1,2,4,6,7,8,9,12,13,0,2,3,4,8,9,8,11,1,3,6,7,10,11,12,14,1,1,2,3,4,5,6,7,10,11,2,6,7,9,10,11,13,14,2,5,8,9,10,13,14,0,0,5,8,9,11,12,13],"categories_nodes":[16,40,45,53,55,68,69,72,75,77,89,94,97,98,99,107,114,120,121,129,132,136,140,142,144,147,148,149,157,166,178,179,186,188,194,201,203,211,213],"categories_segments":[0,10,11,18,19,23,24,29,32,38,44,55,58,65,70,73,76,79,85,92,94,96,99,106,108,119,125,134,143,144,154,160,162,170,171,180,188,195,196],"categories_sizes":[10,1,7,1,4,1,5,3,6,6,11,3,7,5,3,3,3,6,7,2,2,3,7,2,11,6,9,9,1,10,6,2,8,1,9,8,7,1,7],"default_left":[0,0,0,0,0,0,0,0,0,0,0,0,0,0,0,0,1,0,0,0,0,0,0,0,0,0,0,0,0,0,0,0,0,0,0,0,0,0,0,0,1,0,0,0,0,1,0,0,0,0,0,0,0,1,0,1,0,0,0,0,0,0,0,0,0,0,0,0,1,1,0,0,1,0,0,1,0,1,0,0,0,0,0,0,0,0,0,0,0,1,0,0,0,0,1,0,0,1,1,1,0,0,0,0,0,0,0,1,0,0,0,0,0,0,1,0,0,0,0,0,1,1,0,0,0,0,0,0,0,1,0,0,1,0,0,0,1,0,0,0,1,0,1,0,1,0,0,1,1,1,0,0,0,0,0,0,0,1,0,0,0,0,0,0,0,0,1,0,0,0,0,0,0,0,0,0,0,0,1,1,0,0,0,0,0,0,1,0,1,0,0,0,0,0,1,0,0,0,0,0,0,1,0,1,0,0,0,0,0,0,0,1,0,1,0,0,0,0,0,0,0,0,0,0,0,0,0,0,0,0,0,0,0,0,0,0,0,0,0,0,0,0,0,0,0,0,0,0,0,0,0,0,0,0,0,0,0,0,0,0,0,0,0,0,0,0,0,0,0,0,0,0,0,0,0,0,0,0,0,0,0,0,0,0,0,0,0,0,0,0,0,0,0,0,0,0,0,0,0,0,0,0,0,0,0,0,0,0,0,0,0,0,0,0,0,0,0,0,0,0,0,0,0,0,0,0,0,0,0,0,0,0,0,0,0,0,0,0,0,0,0,0,0,0,0,0,0,0,0,0,0,0,0,0,0,0,0,0,0,0,0,0,0,0,0,0,0,0,0,0,0,0,0,0,0,0,0,0,0,0,0,0,0,0,0],"id":2,"left_children":[1,3,5,7,9,11,13,15,17,19,21,23,25,27,29,31,33,-1,35,37,39,41,43,45,47,49,51,53,55,57,59,61,63,65,-1,67,-1,69,71,73,75,77,79,81,83,85,87,89,91,93,95,97,99,101,103,105,107,-1,109,111,113,115,117,119,121,-1,123,-1,125,127,129,131,133,135,137,139,141,143,145,147,149,151,153,155,157,159,161,-1,163,165,167,169,171,173,175,177,179,181,183,185,187,189,191,193,195,197,199,201,203,205,207,209,211,-1,213,-1,-1,215,-1,217,219,221,223,225,-1,-1,-1,227,229,231,233,235,237,239,241,243,245,247,249,251,253,255,257,259,261,-1,263,265,267,269,271,-1,273,275,277,279,-1,281,283,285,287,289,291,293,295,297,299,-1,301,-1,303,305,307,309,311,313,315,317,319,321,323,325,327,329,331,333,335,337,339,341,343,345,347,349,351,-1,353,355,357,359,361,363,365,367,369,371,-1,373,375,-1,377,379,381,383,-1,-1,-1,-1,-1,-1,-1,-1,-1,-1,-1,-1,-1,-1,-1,-1,-1,-1,-1,-1,-1,-1,-1,-1,-1,-1,-1,-1,-1,-1,-1,-1,-1,-1,-1,-1,-1,-1,-1,-1,-1,-1,-1,-1,-1,-1,-1,-1,-1,-1,-1,-1,-1,-1,-1,-1,-1,-1,-1,-1,-1,-1,-1,-1,-1,-1,-1,-1,-1,-1,-1,-1,-1,-1,-1,-1,-1,-1,-1,-1,-1,-1,-1,-1,-1,-1,-1,-1,-1,-1,-1,-1,-1,-1,-1,-1,-1,-1,-1,-1,-1,-1,-1,-1,-1,-1,-1,-1,-1,-1,-1,-1,-1,-1,-1,-1,-1,-1,-1,-1,-1,-1,-1,-1,-1,-1,-1,-1,-1,-1,-1,-1,-1,-1,-1,-1,-1,-1,-1,-1,-1,-1,-1,-1,-1,-1,-1,-1,-1,-1,-1,-1,-1,-1,-1,-1,-1,-1,-1,-1,-1,-1,-1,-1,-1,-1,-1,-1,-1,-1,-1],"loss_changes":[1.1771652E4,2.0134985E3,1.8868281E3,6.761963E1,5.987237E2,4.163587E2,6.9630225E2,9.56853E1,2.3486328E-1,3.2552686E2,1.26035645E2,2.552362E1,1.9507953E2,2.1038452E2,4.147754E1,2.9775146E1,8.984375E-2,0E0,2.9785156E-2,2.2321042E2,9.926419E1,6.7948044E1,3.8358032E1,9.395315E0,1.0917313E1,1.26545044E2,7.328041E1,4.109668E1,3.1915771E1,1.2993164E1,8.644348E0,7.637634E-1,2.5296265E1,1.4819946E0,0E0,1.615953E0,0E0,3.9094967E1,7.796924E1,1.9522705E1,2.4337702E1,4.3611603E0,3.730535E1,3.31604E0,1.5750778E1,9.2978945E0,6.0995426E0,1.4268738E1,2.492569E0,5.0305984E1,5.0162415E1,2.0263203E1,1.4960609E1,2.5950684E1,6.71591E0,5.9664E0,2.3399445E1,0E0,7.244385E0,4.2615356E0,5.6352234E0,7.2299254E-1,2.1685791E-1,6.365593E0,7.0791016E0,0E0,1.1918945E0,0E0,2.5589943E-2,3.660389E0,1.8225643E1,1.9197083E0,1.2445404E1,1.0039255E1,9.1610565E0,1.6226948E1,1.4234444E1,5.072109E0,4.412018E0,2.0972214E1,9.910496E0,5.760498E-1,3.0254517E0,1.8364182E0,6.3793335E0,9.571959E0,1.1432634E1,0E0,2.566059E0,9.011566E0,2.3292542E-1,2.6328075E0,2.413269E0,1.932309E1,9.549118E0,3.5300232E1,9.230988E0,1.1072604E1,3.0752296E0,1.0802462E1,1.1169205E1,1.5352539E1,1.6622559E1,7.34556E0,3.9888868E0,5.302704E0,1.2063034E1,1.1227936E1,1.3154755E1,5.331543E0,4.604492E0,3.9214516E0,1.2599335E0,0E0,5.674637E0,0E0,0E0,4.2938232E-2,0E0,7.624302E0,7.824173E0,6.7249146E0,5.1376953E0,1.18573E0,0E0,0E0,0E0,5.0414066E0,1.9098053E0,5.7641315E0,1.0333603E1,1.1676636E0,5.3332605E0,1.04144745E1,6.9641266E0,7.708995E0,1.0964991E1,6.797394E0,5.831312E0,1.0380272E1,1.6175064E1,9.479115E0,9.614231E0,5.2287188E0,2.2093353E0,0E0,1.4506073E0,6.592515E0,5.0928802E0,7.1795597E0,7.9355364E0,0E0,8.3082545E-1,7.949219E-1,7.1640015E0,7.2919464E-1,0E0,7.411331E0,1.1323624E0,6.9316463E0,4.4396067E0,7.8514233E0,7.2552385E0,9.070854E-1,1.4641567E0,5.971202E0,4.670719E0,0E0,5.068016E-1,0E0,1.8397266E0,2.2065659E0,4.7661743E0,1.5819366E1,8.906266E0,7.4005356E0,8.323671E0,1.9636047E1,1.029333E1,5.139099E0,5.8761253E0,1.1399973E1,1.1548349E1,3.2483993E0,3.6627426E0,1.0360382E1,1.06424265E1,6.1837044E0,1.1063812E1,6.069031E0,1.1403198E1,5.452774E0,1.5005188E1,6.0879326E0,6.759179E0,0E0,4.3540606E0,6.6997986E0,2.673051E0,4.45422E0,5.3646398E0,1.4139404E1,1.7646666E1,1.2107697E1,5.083044E0,3.9394531E0,0E0,6.979126E0,4.7042236E0,0E0,3.260643E0,2.0579338E0,3.3979797E-1,4.747635E0,0E0,0E0,0E0,0E0,0E0,0E0,0E0,0E0,0E0,0E0,0E0,0E0,0E0,0E0,0E0,0E0,0E0,0E0,0E0,0E0,0E0,0E0,0E0,0E0,0E0,0E0,0E0,0E0,0E0,0E0,0E0,0E0,0E0,0E0,0E0,0E0,0E0,0E0,0E0,0E0,0E0,0E0,0E0,0E0,0E0,0E0,0E0,0E0,0E0,0E0,0E0,0E0,0E0,0E0,0E0,0E0,0E0,0E0,0E0,0E0,0E0,0E0,0E0,0E0,0E0,0E0,0E0,0E0,0E0,0E0,0E0,0E0,0E0,0E0,0E0,0E0,0E0,0E0,0E0,0E0,0E0,0E0,0E0,0E0,0E0,0E0,0E0,0E0,0E0,0E0,0E0,0E0,0E0,0E0,0E0,0E0,0E0,0E0,0E0,0E0,0E0,0E0,0E0,0E0,0E0,0E0,0E0,0E0,0E0,0E0,0E0,0E0,0E0,0E0,0E0,0E0,0E0,0E0,0E0,0E0,0E0,0E0,0E0,0E0,0E0,0E0,0E0,0E0,0E0,0E0,0E0,0E0,0E0,0E0,0E0,0E0,0E0,0E0,0E0,0E0,0E0,0E0,0E0,0E0,0E0,0E0,0E0,0E0,0E0,0E0,0E0,0E0,0E0,0E0,0E0,0E0,0E0,0E0,0E0,0E0,0E0,0E0,0E0,0E0,0E0,0E0,0E0,0E0,0E0,0E0,0E0],"parents":[2147483647,0,0,1,1,2,2,3,3,4,4,5,5,6,6,7,7,8,8,9,9,10,10,11,11,12,12,13,13,14,14,15,15,16,16,18,18,19,19,20,20,21,21,22,22,23,23,24,24,25,25,26,26,27,27,28,28,29,29,30,30,31,31,32,32,33,33,35,35,37,37,38,38,39,39,40,40,41,41,42,42,43,43,44,44,45,45,46,46,47,47,48,48,49,49,50,50,51,51,52,52,53,53,54,54,55,55,56,56,58,58,59,59,60,60,61,61,62,62,63,63,64,64,66,66,68,68,69,69,70,70,71,71,72,72,73,73,74,74,75,75,76,76,77,77,78,78,79,79,80,80,81,81,82,82,83,83,84,84,85,85,86,86,88,88,89,89,90,90,91,91,92,92,93,93,94,94,95,95,96,96,97,97,98,98,99,99,100,100,101,101,102,102,103,103,104,104,105,105,106,106,107,107,108,108,109,109,110,110,111,111,112,112,114,114,117,117,119,119,120,120,121,121,122,122,123,123,127,127,128,128,129,129,130,130,131,131,132,132,133,133,134,134,135,135,136,136,137,137,138,138,139,139,140,140,141,141,142,142,143,143,144,144,146,146,147,147,148,148,149,149,150,150,152,152,153,153,154,154,155,155,157,157,158,158,159,159,160,160,161,161,162,162,163,163,164,164,165,165,166,166,168,168,170,170,171,171,172,172,173,173,174,174,175,175,176,176,177,177,178,178,179,179,180,180,181,181,182,182,183,183,184,184,185,185,186,186,187,187,188,188,189,189,190,190,191,191,192,192,193,193,194,194,196,196,197,197,198,198,199,199,200,200,201,201,202,202,203,203,204,204,205,205,207,207,208,208,210,210,211,211,212,212,213,213],"right_children":[2,4,6,8,10,12,14,16,18,20,22,24,26,28,30,32,34,-1,36,38,40,42,44,46,48,50,52,54,56,58,60,62,64,66,-1,68,-1,70,72,74,76,78,80,82,84,86,88,90,92,94,96,98,100,102,104,106,108,-1,110,112,114,116,118,120,122,-1,124,-1,126,128,130,132,134,136,138,140,142,144,146,148,150,152,154,156,158,160,162,-1,164,166,168,170,172,174,176,178,180,182,184,186,188,190,192,194,196,198,200,202,204,206,208,210,212,-1,214,-1,-1,216,-1,218,220,222,224,226,-1,-1,-1,228,230,232,234,236,238,240,242,244,246,248,250,252,254,256,258,260,262,-1,264,266,268,270,272,-1,274,276,278,280,-1,282,284,286,288,290,292,294,296,298,300,-1,302,-1,304,306,308,310,312,314,316,318,320,322,324,326,328,330,332,334,336,338,340,342,344,346,348,350,352,-1,354,356,358,360,362,364,366,368,370,372,-1,374,376,-1,378,380,382,384,-1,-1,-1,-1,-1,-1,-1,-1,-1,-1,-1,-1,-1,-1,-1,-1,-1,-1,-1,-1,-1,-1,-1,-1,-1,-1,-1,-1,-1,-1,-1,-1,-1,-1,-1,-1,-1,-1,-1,-1,-1,-1,-1,-1,-1,-1,-1,-1,-1,-1,-1,-1,-1,-1,-1,-1,-1,-1,-1,-1,-1,-1,-1,-1,-1,-1,-1,-1,-1,-1,-1,-1,-1,-1,-1,-1,-1,-1,-1,-1,-1,-1,-1,-1,-1,-1,-1,-1,-1,-1,-1,-1,-1,-1,-1,-1,-1,-1,-1,-1,-1,-1,-1,-1,-1,-1,-1,-1,-1,-1,-1,-1,-1,-1,-1,-1,-1,-1,-1,-1,-1,-1,-1,-1,-1,-1,-1,-1,-1,-1,-1,-1,-1,-1,-1,-1,-1,-1,-1,-1,-1,-1,-1,-1,-1,-1,-1,-1,-1,-1,-1,-1,-1,-1,-1,-1,-1,-1,-1,-1,-1,-1,-1,-1,-1,-1,-1,-1,-1,-1,-1],"split_conditions":[8.553281E-2,-7.2491074E-1,4.5190996E-1,3.4015363E-1,8.440753E-1,-7.2491074E-1,1.4131048E0,8.440753E-1,-1.8733394E0,5.9636407E-2,3.4015363E-1,-7.0104265E-1,3.4015363E-1,3.4015363E-1,3.4015363E-1,-1.2420391E0,1E-45,-2.0658208E-2,-2.2199543E0,3.4015363E-1,3.4015363E-1,-1.1092819E0,6.7481875E-2,8.440753E-1,3.4015363E-1,5.9636407E-2,5.9636407E-2,8.440753E-1,-1.6880611E0,-1.7498206E0,-1.6263016E0,-1.9909095E0,-7.0104265E-1,-1.2017797E0,-7.3012166E-2,-9.701488E-1,-7.244819E-2,-1.2420391E0,-1.2420391E0,4.5190996E-1,1E-45,-7.0104265E-1,8.317282E-2,-1.2420391E0,-1.1756605E0,1E-45,-1.8546586E0,6.587971E-1,-8.42428E-1,1.4131048E0,1.4131048E0,9.675942E-1,6.0270566E-1,1E-45,1.5188941E0,1E-45,6.906477E-1,1.0042359E-1,-7.0104265E-1,-1.4623569E0,-2.3884256E0,-1.2191753E0,2.1280797E0,-8.437675E-1,2.1516804E-2,-1.1036869E-2,2.3336627E0,5.2824505E-3,1E-45,1E-45,-1.2216408E0,1.6779367E0,1E-45,7.042987E-1,1.2535505E0,1E-45,4.989828E-1,1E-45,-2.6218367E0,-7.0104265E-1,2.0258497E-1,1.6576104E0,1.101044E0,1.7975172E0,1.6037318E0,1.4918061E0,1.4528123E0,3.4443535E-2,4.8380437E-1,1E-45,-1.4264079E0,1.7563207E-1,2.2005026E0,8.440753E-1,1E-45,8.440753E-1,-7.0104265E-1,1E-45,1E-45,1E-45,-4.9788362E-1,-7.0104265E-1,-1.6263016E0,3.6381978E-1,1.0293536E0,1.7975172E0,8.9132416E-1,1E-45,7.823159E-1,8.440753E-1,4.5613554E-1,-2.6144526E0,2.802514E-1,-2.6216343E-2,1E-45,3.4649693E-3,-4.2711962E-2,-2.4307897E0,-2.0658208E-2,-1.1651443E0,1E-45,1E-45,3.2758992E0,-1.6925493E0,-1.59617E-2,-6.086264E-2,-1.8033843E-2,1.1718624E0,5.5877186E-2,1E-45,-1.1322263E0,4.735188E-1,1E-45,1.5857087E-1,1.159672E0,-8.851886E-1,1E-45,-1.3879567E0,1.0028129E0,-7.7738893E-1,1E-45,-7.1516834E-2,1E-45,-6.67404E-1,1E-45,1.2958375E-2,-1.2420391E0,1E-45,1E-45,1E-45,1.2992208E0,-7.4252054E-2,-1.0177597E0,-1.2592863E0,-1.3240094E0,-1.7032275E0,-6.624131E-3,1E-45,-1.3482697E0,-7.484471E-1,5.585188E-1,-1.533392E-1,-5.557858E-1,1.5693829E0,-1.0387295E0,1.5459133E0,1E-45,-1.8439602E-2,1.3282819E0,-5.1170822E-2,-4.838589E-1,-1.8077656E0,4.5490038E-1,-7.0104265E-1,4.7450852E-1,-1.1793331E0,4.7181095E-3,-7.0104265E-1,1E-45,1E-45,4.592649E-1,-8.998521E-1,8.126243E-1,3.0605334E-1,-1.3325886E0,-1.6350274E0,1E-45,8.156974E-1,1E-45,1.0669957E0,8.8207597E-1,1.1718624E0,2.802514E-1,-1.4281347E0,1E-45,-5.2468013E-2,-7.0104265E-1,6.467853E-1,-6.947361E-1,2.1622226E0,-5.0588816E-1,1E-45,1.3045937E0,1E-45,-9.014419E-1,2.688069E0,3.46546E-3,-1.8058989E0,8.440753E-1,-1.8166708E-2,-9.66912E-1,1E-45,-2.8790203E-1,1E-45,-1.8166708E-2,-2.5007144E-2,-7.22467E-2,4.8254784E-2,-5.353585E-2,-2.3056779E-2,-4.7807045E-2,-3.9497506E-2,-5.603361E-2,-5.600238E-2,1.8979069E-2,-1.6358783E-2,-6.805578E-2,-3.8284507E-2,6.5484503E-3,-7.1747914E-2,-3.9390292E-2,4.6256285E-2,1.3023833E-2,2.0953035E-2,-5.136133E-3,-5.9985857E-2,-7.277936E-2,1.5771586E-2,-5.4570135E-2,-2.0453623E-2,-3.164377E-2,-4.2383604E-2,-1.7631259E-2,4.352811E-2,8.528839E-3,4.1691255E-2,-1.255583E-2,1.4484857E-2,4.0016502E-2,-2.4565754E-2,6.4949885E-2,-8.722472E-3,2.1067334E-2,1.752577E-2,-1.3141072E-2,-2.3353053E-2,-5.9245317E-3,4.7484646E-3,-3.258803E-2,3.903101E-2,-3.4282457E-2,3.985865E-3,-6.560819E-2,-7.133862E-2,-5.095029E-2,5.031967E-3,-2.3011507E-2,-2.6033942E-2,-4.2887952E-2,6.790833E-3,-2.1597845E-2,3.8762602E-3,5.0452173E-2,-4.696709E-2,2.3907335E-3,-5.145056E-2,-6.6498846E-2,3.9515894E-2,-5.0665226E-2,-2.4980847E-2,-7.068699E-2,-2.3888338E-2,-4.385702E-2,-1.7481059E-2,-7.098987E-2,7.576128E-3,-4.630668E-2,-6.348796E-2,2.3034906E-3,-3.5989422E-3,-5.1858343E-2,-2.707767E-2,6.1419535E-2,-6.685137E-2,-1.7260892E-2,-3.1551316E-2,2.409491E-2,6.089961E-2,-4.2658985E-2,-1.557445E-2,-3.663709E-2,-7.001314E-2,-2.6466405E-2,-2.1317145E-2,4.4680078E-2,1.0667519E-3,-6.683324E-2,-5.314243E-2,4.3834634E-2,2.451314E-2,1.3128336E-2,6.470977E-3,-2.241571E-2,-2.6216343E-2,7.520544E-2,4.4716414E-2,-2.0990249E-2,4.844598E-2,3.3372715E-2,2.904596E-2,-1.6938958E-2,8.983789E-2,1.7773574E-2,6.377722E-2,2.0392554E-2,4.183057E-2,-1.733795E-3,-8.981462E-3,-3.381496E-2,-3.294787E-2,3.5514127E-2,1.2747198E-2,-6.188462E-2,-2.7299797E-2,1.6912712E-2,2.0950703E-2,-2.063057E-2,3.4525316E-2,7.355091E-2,2.7465736E-2,-7.811437E-3,7.63543E-2,5.522681E-2,5.4158427E-2,6.623379E-2,7.646725E-2,4.9068645E-2,4.405315E-2,5.8502007E-2,-8.472176E-3,4.297161E-2,5.513994E-2,-6.4502927E-3,6.78707E-2,-2.470298E-2,5.450469E-2,8.592409E-2,-4.512775E-2,3.0988196E-2,4.1888837E-2,8.9789964E-2,2.66994E-2,-3.6658723E-2,3.6078617E-2,2.2304606E-2,2.1452896E-2,-2.4382133E-2,4.9816918E-2,2.945899E-2,4.973024E-2,-1.6662963E-2,9.516765E-2,7.6880404E-3,2.4299573E-2,7.808624E-2,8.9526735E-2,3.463785E-3,-6.624131E-3,7.458812E-2,8.679294E-2,5.2183338E-2,6.87243E-2,9.952336E-2,6.681463E-2,4.1227397E-2],"split_indices":[6,5,5,10,17,5,6,17,17,5,10,10,10,10,10,6,4,0,9,10,10,6,5,17,10,5,5,17,17,17,17,18,10,13,0,0,0,6,6,5,27,10,5,6,6,4,5,17,18,6,6,17,7,27,5,4,7,0,10,21,8,5,8,6,9,0,24,0,2,2,10,24,20,16,18,4,5,2,7,10,25,8,7,15,9,13,7,0,6,2,3,8,16,17,2,17,10,2,2,2,18,10,17,8,17,15,16,20,17,17,7,17,7,0,20,0,0,21,0,9,4,4,16,9,0,0,0,16,24,20,17,17,20,3,7,17,4,18,15,6,2,7,2,3,4,0,6,2,2,4,5,0,25,25,21,15,0,27,25,5,25,18,3,18,5,16,4,0,8,0,25,24,15,10,21,13,5,10,2,4,13,18,9,18,0,15,4,6,19,25,6,16,7,24,2,0,10,15,8,5,9,4,21,4,9,21,0,25,17,0,25,27,3,4,0,0,0,0,0,0,0,0,0,0,0,0,0,0,0,0,0,0,0,0,0,0,0,0,0,0,0,0,0,0,0,0,0,0,0,0,0,0,0,0,0,0,0,0,0,0,0,0,0,0,0,0,0,0,0,0,0,0,0,0,0,0,0,0,0,0,0,0,0,0,0,0,0,0,0,0,0,0,0,0,0,0,0,0,0,0,0,0,0,0,0,0,0,0,0,0,0,0,0,0,0,0,0,0,0,0,0,0,0,0,0,0,0,0,0,0,0,0,0,0,0,0,0,0,0,0,0,0,0,0,0,0,0,0,0,0,0,0,0,0,0,0,0,0,0,0,0,0,0,0,0,0,0,0,0,0,0,0,0,0,0,0,0,0,0,0,0,0,0,0,0],"split_type":[0,0,0,0,0,0,0,0,0,0,0,0,0,0,0,0,1,0,0,0,0,0,0,0,0,0,0,0,0,0,0,0,0,0,0,0,0,0,0,0,1,0,0,0,0,1,0,0,0,0,0,0,0,1,0,1,0,0,0,0,0,0,0,0,0,0,0,0,1,1,0,0,1,0,0,1,0,1,0,0,0,0,0,0,0,0,0,0,0,1,0,0,0,0,1,0,0,1,1,1,0,0,0,0,0,0,0,1,0,0,0,0,0,0,1,0,0,0,0,0,1,1,0,0,0,0,0,0,0,1,0,0,1,0,0,0,1,0,0,0,1,0,1,0,1,0,0,1,1,1,0,0,0,0,0,0,0,1,0,0,0,0,0,0,0,0,1,0,0,0,0,0,0,0,0,0,0,0,1,1,0,0,0,0,0,0,1,0,1,0,0,0,0,0,1,0,0,0,0,0,0,1,0,1,0,0,0,0,0,0,0,1,0,1,0,0,0,0,0,0,0,0,0,0,0,0,0,0,0,0,0,0,0,0,0,0,0,0,0,0,0,0,0,0,0,0,0,0,0,0,0,0,0,0,0,0,0,0,0,0,0,0,0,0,0,0,0,0,0,0,0,0,0,0,0,0,0,0,0,0,0,0,0,0,0,0,0,0,0,0,0,0,0,0,0,0,0,0,0,0,0,0,0,0,0,0,0,0,0,0,0,0,0,0,0,0,0,0,0,0,0,0,0,0,0,0,0,0,0,0,0,0,0,0,0,0,0,0,0,0,0,0,0,0,0,0,0,0,0,0,0,0,0,0,0,0,0,0,0,0,0,0,0,0,0,0,0,0,0,0,0,0,0,0,0,0,0,0,0,0,0,0,0,0,0],"sum_hessian":[1.898065E4,9.534235E3,9.446414E3,4.0387847E3,5.4954507E3,4.2334736E3,5.2129404E3,1.9611653E3,2.0776194E3,4.028858E3,1.4665928E3,4.183727E2,3.815101E3,3.7434043E3,1.4695361E3,1.1087686E3,8.523968E2,1.1779656E0,2.0764414E3,2.5109707E3,1.5178873E3,6.49483E2,8.1710974E2,1.6366959E2,2.5470311E2,2.7224019E3,1.0926991E3,2.2522034E3,1.4912008E3,1.2528252E3,2.1671086E2,1.4182779E2,9.6694073E2,1.5405353E2,6.9834326E2,5.9510007E0,2.0704905E3,1.1898127E3,1.3211578E3,5.616547E2,9.562326E2,1.3124965E2,5.1823334E2,5.451795E2,2.7193027E2,1.4299011E2,2.0679474E1,1.8971123E2,6.4991875E1,1.5409796E3,1.1814222E3,5.940589E2,4.9864023E2,2.1553667E3,9.6836555E1,1.6131123E2,1.3298896E3,4.1650668E2,8.3631854E2,8.582552E1,1.3088533E2,2.3301961E0,1.3949759E2,2.4697624E2,7.1996454E2,1.6289403E0,1.5242459E2,1.1444232E0,4.806577E0,6.89933E1,1.1208195E3,1.9554771E2,1.1256101E3,2.9328375E2,2.68371E2,4.2330856E2,5.329241E2,1.8562834E1,1.1268681E2,3.4206696E2,1.7616638E2,2.021849E2,3.429946E2,5.6938686E1,2.1499158E2,9.236435E1,5.0625774E1,1.4249355E0,1.925454E1,1.5797382E2,3.1737408E1,4.245009E0,6.074687E1,1.4604282E3,8.055147E1,1.0771932E3,1.0422896E2,5.629748E2,3.1084114E1,3.2236758E2,1.7627264E2,1.2327245E3,9.2264233E2,9.013358E1,6.7029753E0,1.1147439E2,4.9836845E1,9.5519806E2,3.7469156E2,3.6933875E2,4.669798E2,7.4747615E0,7.835076E1,1.4095707E0,1.2947575E2,1.1648543E0,1.1653417E0,1.3831963E2,1.1779656E0,4.3457817E1,2.0351842E2,3.1456946E2,4.0539505E2,1.5057373E2,1.8508563E0,3.6621542E0,1.1444232E0,4.095271E1,2.8040594E1,6.1795403E1,1.059024E3,1.79952E2,1.5595729E1,8.6140594E2,2.642042E2,2.2548705E2,6.7796715E1,2.5774814E2,1.0622861E1,2.3192873E2,1.9137985E2,3.134518E2,2.1947226E2,8.1863365E0,1.0376498E1,1.4336445E0,1.1125317E2,8.240166E1,2.596653E2,1.04699776E2,7.1466606E1,1.99599E2,2.5859065E0,3.1812387E2,2.4870718E1,5.551552E1,1.423166E0,1.9715048E2,1.7841093E1,8.119225E1,1.117209E1,4.2968647E1,7.6571283E0,1.641509E1,2.8394477E0,4.822857E0,1.5315097E2,1.1497703E0,3.0587637E1,1.8545859E0,2.390423E0,5.7451332E1,3.2955363E0,1.3488239E3,1.1160431E2,4.4537148E1,3.601432E1,1.0220968E3,5.509645E1,5.8477924E1,4.5751034E1,2.0424951E2,3.5872525E2,7.3087583E0,2.3775356E1,2.528764E2,6.949118E1,5.4126766E1,1.22145874E2,3.5271713E2,8.800073E2,1.2692995E2,7.957124E2,6.449596E1,2.5637625E1,3.3516493E0,3.351326E0,1.08824684E2,2.6497066E0,3.8433884E1,1.1402962E1,7.6283765E2,1.9236041E2,3.5908768E2,1.5603878E1,3.676577E2,1.6810266E0,2.1916235E2,2.4781744E2,1.8869311E0,5.5878305E0,3.1322208E1,4.7028557E1,1.2758883E2,1.8869311E0,1.3924106E0,1.3692722E2,1.1775761E0,4.228024E1,1.6284277E2,4.067565E1,2.1438965E2,1.0017981E2,4.0354175E2,1.8533074E0,1.8578303E0,1.487159E2,3.361978E1,7.3329277E0,1.2152524E1,1.5888069E1,1.8508091E1,4.328731E1,3.844733E1,1.0205767E3,1.066504E2,7.33016E1,2.8754687E0,1.272026E1,3.865263E2,4.7487967E2,2.2949823E2,3.470597E1,1.6124577E1,2.0936247E2,5.7180286E1,1.0616426E1,3.1137249E1,2.2661089E2,9.402408E0,1.220453E0,3.3704723E1,1.98224E2,6.356111E1,1.2781874E2,1.6254312E2,1.5090869E2,2.016245E2,1.7847752E1,3.0396287E0,5.1467075E0,1.1592125E0,9.217285E0,8.711425E1,2.4138918E1,3.967831E1,4.2723347E1,6.64685E1,1.9319681E2,3.1203554E1,7.349622E1,6.168574E1,9.780864E0,1.409428E0,1.1764785E0,2.9421711E1,2.8870215E2,1.6935261E0,2.317719E1,2.3201141E0,5.3195404E1,9.0891624E1,1.0625885E2,1.8762912E0,1.5964802E1,7.571537E1,5.476888E0,7.61905E0,3.5530398E0,1.1608099E1,3.1360546E1,3.297885E0,4.3592434E0,1.4542152E1,1.872939E0,1.6516167E0,1.1878309E0,3.6581745E0,1.1646825E0,3.676623E1,1.16384735E2,2.8238588E1,2.3490486E0,1.1850638E0,1.2053593E0,1.1902176E0,5.6261116E1,2.084045E0,1.2114911E0,4.7203683E2,8.7678705E2,6.967403E1,4.1930286E1,1.4095707E0,4.312758E1,3.0947495E1,5.066826E0,3.2571738E2,6.9637946E2,1.6595253E1,3.8501198E1,5.5306034E1,3.1718886E0,3.4121502E1,1.1629535E1,1.5307925E1,1.8894157E2,3.040504E2,5.4674854E1,5.895054E0,1.4137042E0,1.4357316E0,2.2339624E1,1.3142398E1,2.3973401E2,2.15074E1,4.7983776E1,3.8852776E1,1.5273988E1,9.3588295E1,2.8557577E1,2.9939667E2,5.3320454E1,4.3371616E2,4.4629114E2,9.47741E1,3.215584E1,4.7686807E2,3.1884433E2,6.035742E0,5.8460217E1,4.598714E0,2.103891E1,1.2018709E0,2.149455E0,8.17658E1,2.705888E1,1.1958693E0,1.4538373E0,3.211272E1,6.3211613E0,5.5697365E0,5.8332253E0,3.9682355E2,3.660141E2,1.692515E2,2.3108913E1,2.4717741E2,1.1191027E2,2.635841E0,1.2968038E1,3.6618204E2,1.4756905E0,7.3551183E0,2.1180724E2,2.461367E2,1.6807448E0,1.423166E0,4.1646643E0,1.4024937E1,1.729727E1,1.25573635E1,3.447119E1,9.720186E1,3.0386969E1],"tree_param":{"num_deleted":"0","num_feature":"28","num_nodes":"385","size_leaf_vector":"1"}},{"base_weights":[-8.762372E-4,-7.5458133E-1,7.471352E-1,-1.2804968E0,-3.7334684E-1,2.7908012E-1,1.125006E0,-1.1466706E0,-1.4067975E0,-1.8225242E-1,-9.034357E-1,-6.258696E-1,3.7723446E-1,9.0908325E-1,1.673147E0,-9.5409685E-1,-1.3977423E0,-2.0155968E-2,-1.407178E0,-3.955282E-1,1.6301756E-1,-5.820025E-1,-1.160255E0,-3.2615578E-1,-8.177606E-1,5.1218575E-1,3.9306764E-2,1.0900224E0,6.3458526E-1,1.7399001E0,1.280785E0,-1.3819634E0,-8.905018E-1,-1.23256E0,-7.05719E-2,-8.7020177E-1,-7.041534E-2,-9.4518445E-2,-6.6936755E-1,4.7862375E-1,-2.3298267E-2,-1.2090108E0,-4.2313984E-1,-1.313004E0,-8.5276645E-1,-2.3485726E-1,-9.232165E-1,-6.924158E-1,-1.1703259E0,3.3372188E-1,7.437891E-1,-1.8656029E-1,3.067717E-1,1.1236777E0,5.982946E-1,1.031415E0,5.856051E-1,9.456623E-2,1.6623636E0,1.5311064E0,1.1063209E0,-4.7366822E-1,-1.3936481E0,-6.1717796E-1,-9.838278E-1,-1.2762581E0,-3.1513315E-1,6.355736E-3,-1.0885255E0,-7.925923E-1,-5.1137835E-2,-1.2376277E0,-5.70045E-1,3.097599E-1,6.6378015E-1,-1.794703E-1,1.23335525E-1,-1.2386118E0,-1.0009851E-1,-6.084298E-1,-6.458825E-2,-1.4364735E0,-1.2364546E0,-1.3173016E0,-7.254117E-1,-5.3158645E-2,-5.6141675E-1,3.3282213E-2,-1.0708479E0,-5.66165E-1,-1.2907683E0,-4.4314077E-1,-1.2314087E0,2.931012E-1,1.054443E0,6.8209237E-1,1.3673204E0,-1.4413469E-1,-9.3529654E-1,9.9244565E-1,2.6412383E-1,1.2953107E0,1.0543971E0,8.048814E-1,3.655159E-1,1.3636323E0,9.0767056E-1,5.062326E-1,7.8571635E-1,1.8787031E0,1.604948E0,7.1340805E-1,1.598843E0,1.4182848E0,9.490477E-1,5.0079115E-3,-4.135448E-2,-1.3992063E0,-2.0155968E-2,-4.6841323E-1,-7.947054E-1,-8.6482745E-1,-1.0740918E0,-7.450055E-3,-1.3006088E0,-5.0715078E-2,3.1432856E-2,-1.6904352E-2,-5.9927594E-2,-5.8101845E-1,-1.0726666E0,4.4652373E-1,-8.0857724E-2,-1.2712555E0,-7.989232E-1,-5.114844E-1,-7.595339E-1,2.079288E-1,6.3749045E-1,6.987159E-1,-1.7932105E-1,-2.6358846E-1,1.327319E-1,3.0697733E-1,-6.1948463E-2,-9.0976936E-1,-1.3194826E0,-4.7111627E-2,3.4646325E-2,-1.8325317E-1,-7.432017E-1,-2.5086713E-1,2.06605E-1,-7.223045E-2,-5.872242E-1,-1.2654916E0,-8.3241296E-1,-1.3454815E0,-6.4354534E-3,-6.6817963E-1,-1.2933244E0,6.447774E-2,-8.528001E-1,7.5813144E-1,-7.1146935E-1,1.6236118E-3,-1.1851047E0,6.2528527E-1,-6.079778E-1,-1.3349597E0,-5.558053E-1,-9.11923E-1,4.5479096E-2,-1.2805092E0,-3.0011868E-1,1.8740872E-1,4.1132733E-1,1.4642289E0,7.7276826E-1,7.214535E-1,-5.3420413E-2,1.6241974E0,1.0101804E0,6.7392394E-2,-2.3277178E-1,-1.8923295E-1,-1.0769097E0,1.1698967E0,-4.5895338E-1,1.4811476E-1,4.741565E-1,1.3690989E0,1.0979627E0,1.1437242E0,9.340087E-1,9.342121E-1,1.7310463E-2,2.1647951E-1,1.2089393E0,-1.4132869E-2,1.4380772E0,-2.8115174E-1,9.484971E-1,5.652447E-1,3.1948036E-1,4.5029283E-1,8.844122E-1,9.656945E-2,1.2920479E0,1.7038085E0,1.456381E0,-1.7624848E-2,1.0689178E0,1.2164482E0,1.705351E0,1.5030884E0,2.0621556E-1,1.3315978E0,7.103743E-1,-2.437864E-2,-7.0246756E-2,-9.996863E-3,-3.436878E-2,-1.6418524E-2,-4.4671215E-2,-3.739502E-2,-5.3082377E-2,-4.0111396E-2,-5.6398608E-2,-6.8608634E-2,-3.5676796E-2,-3.679648E-2,6.2518055E-3,-6.986183E-2,-3.7917245E-2,2.613881E-2,-3.1989507E-2,1.0613142E-2,-5.6034685E-3,-3.4760978E-2,-6.468319E-2,1.5150057E-2,-5.281877E-2,-1.9453999E-2,-3.0380229E-2,-4.0960815E-2,-1.7854204E-2,3.9005272E-2,7.5141527E-3,1.2580742E-2,5.1715504E-2,2.8951094E-2,4.650797E-2,-2.358958E-2,6.284596E-2,-4.3891678E-3,-2.1051086E-2,1.5195632E-2,-1.4877784E-2,1.2312035E-2,4.7944456E-2,1.4593705E-2,-8.093184E-3,2.2371292E-2,-5.2331727E-2,-6.874416E-2,-3.4737032E-2,-4.0004753E-2,-2.76939E-3,-4.4571143E-2,-2.9870167E-2,2.8684754E-2,-1.6528018E-2,3.736077E-2,9.52096E-4,-4.6285048E-2,2.8592783E-3,-6.616449E-2,-5.654033E-2,3.8107824E-2,-4.8918333E-2,-4.5644067E-2,-7.177751E-2,-2.2845825E-2,-4.2197835E-2,-1.69609E-2,-6.900226E-2,7.190337E-3,-4.47572E-2,-6.170408E-2,2.2126874E-3,-2.4850147E-2,6.383771E-2,-4.40447E-2,1.4606796E-2,-6.568731E-2,-1.1169393E-2,5.810247E-2,-4.1776415E-2,-9.126044E-3,-3.4096994E-2,-6.924069E-2,-2.9137248E-2,4.6669706E-3,-4.5427833E-2,-5.8575876E-2,-5.05476E-3,-6.556028E-2,-1.1195758E-3,-5.1885035E-2,4.2460807E-2,1.1844466E-2,-5.3886985E-3,2.9072208E-2,1.5872762E-2,-1.973944E-2,7.7322885E-2,4.3783996E-2,-1.3223441E-2,4.56744E-2,3.1515326E-2,2.2931231E-2,-1.7836846E-2,8.449461E-2,1.7063199E-2,6.0224798E-2,1.9390885E-2,-6.428569E-3,2.7008343E-2,2.8874764E-2,-1.3425635E-2,5.7803996E-2,-4.0655315E-2,-5.963377E-2,4.9191987E-4,-1.554468E-2,6.424235E-2,2.3085922E-2,-5.2140277E-2,1.2221015E-2,-9.347006E-3,2.728569E-2,-2.0226412E-2,2.9206896E-2,6.9380485E-2,5.6073803E-2,-3.7983615E-2,5.1645793E-2,6.230661E-2,5.404343E-2,3.7723456E-2,6.979104E-2,3.453591E-2,-4.033563E-2,4.0227372E-2,1.711657E-2,-3.5187192E-2,7.770744E-2,-2.8468654E-2,8.14264E-2,4.6792146E-2,2.1515919E-2,-5.109681E-2,4.8858833E-2,-3.29597E-2,2.9532915E-2,-8.604451E-3,2.5064293E-2,-2.3642448E-3,4.3943767E-2,1.1684581E-2,4.8972595E-2,2.1061571E-2,6.9953464E-2,5.0116344E-3,8.564166E-2,-1.3985856E-2,7.7916615E-2,5.5918135E-2,-6.4354534E-3,7.103672E-2,8.2467996E-2,3.8716726E-2,7.131606E-2,9.4716795E-2,8.0354884E-2,2.5069429E-2,5.5243094E-2,-4.894308E-2,1.1662661E-2,7.766204E-2,4.1134756E-2,-3.069911E-2],"categories":[0,1,2,3,4,5,6,8,9,10,11,12,14,0,1,2,3,4,5,6,7,8,9,2,4,8,9,10,13,14,0,2,6,8,12,13,14,1,2,3,5,9,1,2,3,2,3,0,0,1,2,3,5,6,7,8,9,10,11,12,13,14,0,1,2,4,5,6,7,8,9,10,11,0,1,3,6,7,11,7,13,0,5,11,0,0,0,2,3,4,5,6,8,9,11,12,13,3,4,6,7,8,10,12,14,0,2,7,9,10,11,13,14,0,1,2,3,4,6,8,10,11,13,14,0,1,1,3,5,6,13,0,4,5,9,11,12,0,1,2,3,5,6,9,10,11,13,14,0,1,2,3,5,6,7,8,9,10,11,12,14,0,1,2,3,4,6,7,8,10,14,0,0,1,3,5,6,8,10,11,0,5,0,2,3,4,9,8,11,0,1,2,3,4,5,6,7,8,9,10,11,14,2,4,11,11,12,14,0,3,7,9,1,2,3,5,6,7,8,9,10,11,2,3,2,3,10,11,12,13,14,0,1,2,6,7,8,10,11,13,8,9,10,14,0,2,6,8],"categories_nodes":[16,31,45,54,69,72,76,77,88,89,94,99,101,102,110,114,119,121,122,134,141,142,144,145,157,159,176,178,180,181,184,189,190,194,195,198,204,205,206,213,215],"categories_segments":[0,13,23,30,37,42,45,47,48,62,73,79,81,84,85,86,97,105,113,124,126,131,137,148,161,171,172,180,182,187,189,202,205,208,212,222,224,231,240,244,245],"categories_sizes":[13,10,7,7,5,3,2,1,14,11,6,2,3,1,1,11,8,8,11,2,5,6,11,13,10,1,8,2,5,2,13,3,3,4,10,2,7,9,4,1,3],"default_left":[0,0,0,0,0,0,0,0,0,0,0,0,0,0,0,0,1,0,0,0,0,0,0,0,0,0,0,0,0,0,0,1,0,0,0,0,0,0,0,0,0,0,0,0,0,1,0,0,0,0,0,0,0,0,1,0,0,0,0,0,0,0,0,0,0,0,0,0,0,1,0,0,1,0,0,0,1,1,0,0,0,0,0,0,0,0,0,0,1,1,0,0,0,0,1,0,0,0,0,1,0,1,1,0,0,0,0,0,0,0,1,0,0,0,1,0,0,0,0,1,0,1,1,0,0,0,0,0,0,0,0,0,0,0,1,0,0,0,0,0,0,1,1,0,1,1,0,0,0,0,0,0,0,0,0,0,0,1,0,1,0,0,0,0,0,0,0,0,0,0,0,0,0,0,0,0,1,0,1,0,1,1,0,0,1,0,0,0,0,1,1,0,0,0,1,1,0,0,1,0,0,0,0,0,1,1,1,0,0,0,0,0,0,1,0,1,0,0,0,0,0,0,0,0,0,0,0,0,0,0,0,0,0,0,0,0,0,0,0,0,0,0,0,0,0,0,0,0,0,0,0,0,0,0,0,0,0,0,0,0,0,0,0,0,0,0,0,0,0,0,0,0,0,0,0,0,0,0,0,0,0,0,0,0,0,0,0,0,0,0,0,0,0,0,0,0,0,0,0,0,0,0,0,0,0,0,0,0,0,0,0,0,0,0,0,0,0,0,0,0,0,0,0,0,0,0,0,0,0,0,0,0,0,0,0,0,0,0,0,0,0,0,0,0,0,0,0,0,0,0,0,0,0,0,0,0,0,0,0,0,0,0,0,0,0,0,0,0,0,0,0,0,0,0,0,0,0,0,0,0,0,0,0,0,0,0,0,0,0,0,0,0,0],"id":3,"left_children":[1,3,5,7,9,11,13,15,17,19,21,23,25,27,29,31,33,-1,35,37,39,41,43,45,47,49,51,53,55,57,59,61,63,65,-1,67,-1,69,71,73,75,77,79,81,83,85,87,89,91,93,95,97,99,101,103,105,107,-1,109,111,113,115,117,119,121,123,125,-1,127,129,131,133,135,137,139,141,143,145,147,149,151,153,155,157,159,161,163,-1,165,167,169,171,173,175,177,179,181,183,185,187,189,191,193,195,197,199,201,203,205,207,209,211,213,215,217,-1,-1,219,-1,221,223,225,227,-1,229,-1,-1,-1,-1,231,233,235,237,239,241,243,245,247,249,251,253,255,257,259,261,263,265,-1,-1,267,269,271,273,-1,275,277,279,281,-1,283,285,287,289,291,293,-1,295,297,299,301,303,305,-1,307,309,311,313,315,317,319,321,323,325,327,329,331,333,335,337,339,341,343,345,347,349,351,353,355,357,-1,359,361,363,365,367,369,371,-1,373,375,377,-1,379,381,383,385,387,389,391,-1,-1,-1,-1,-1,-1,-1,-1,-1,-1,-1,-1,-1,-1,-1,-1,-1,-1,-1,-1,-1,-1,-1,-1,-1,-1,-1,-1,-1,-1,-1,-1,-1,-1,-1,-1,-1,-1,-1,-1,-1,-1,-1,-1,-1,-1,-1,-1,-1,-1,-1,-1,-1,-1,-1,-1,-1,-1,-1,-1,-1,-1,-1,-1,-1,-1,-1,-1,-1,-1,-1,-1,-1,-1,-1,-1,-1,-1,-1,-1,-1,-1,-1,-1,-1,-1,-1,-1,-1,-1,-1,-1,-1,-1,-1,-1,-1,-1,-1,-1,-1,-1,-1,-1,-1,-1,-1,-1,-1,-1,-1,-1,-1,-1,-1,-1,-1,-1,-1,-1,-1,-1,-1,-1,-1,-1,-1,-1,-1,-1,-1,-1,-1,-1,-1,-1,-1,-1,-1,-1,-1,-1,-1,-1,-1,-1,-1,-1,-1,-1,-1,-1,-1,-1,-1,-1,-1,-1,-1,-1,-1,-1,-1,-1,-1,-1,-1,-1,-1,-1,-1,-1,-1,-1],"loss_changes":[1.066696E4,1.8890767E3,1.6792046E3,6.532373E1,5.5343646E2,3.7713553E2,6.2031006E2,9.1895996E1,2.0947266E-1,2.9596048E2,1.1884595E2,2.3633926E1,1.7457886E2,1.8662158E2,3.662744E1,2.8547913E1,1.4904785E-1,0E0,6.1035156E-3,2.0470673E2,9.027571E1,6.374019E1,3.66344E1,8.716227E0,1.0356903E1,1.12834595E2,6.612929E1,3.692163E1,2.856488E1,1.17092285E1,7.891754E0,8.236389E-1,2.376825E1,2.4766464E0,0E0,1.6362834E0,0E0,3.5831497E1,7.270477E1,1.7611862E1,2.2147854E1,4.1385193E0,3.4254204E1,3.2821655E0,1.4996094E1,8.483761E0,5.7311363E0,1.3536873E1,2.3338623E0,4.498227E1,4.484143E1,1.872068E1,1.4391819E1,2.39021E1,6.806492E0,5.486435E0,2.0856262E1,0E0,7.479492E0,3.7082214E0,5.17688E0,7.5016457E-1,1.9299316E-1,6.122368E0,6.704773E0,1.6787186E0,3.6682515E0,0E0,6.942701E-2,3.4794922E0,1.6547096E1,1.8265381E0,1.1917572E1,9.876717E0,8.105782E0,1.2332959E1,1.6994604E1,2.1608276E0,3.6342008E0,1.9357956E1,8.992792E0,5.241089E-1,2.9066772E0,1.728981E0,6.0863266E0,8.830797E0,1.0674984E1,0E0,2.5544987E0,8.23859E0,3.01445E-1,5.0056567E0,2.3246536E0,1.823999E1,8.351425E0,3.14422E1,8.096497E0,1.0570219E1,3.1399364E0,8.0010395E0,1.1458073E1,7.331726E0,1.5269897E1,7.8673477E0,8.695648E0,5.6028976E0,6.1960373E0,1.0409378E1,1.2122528E1,2.8005981E0,7.4262695E0,3.5988507E0,1.1854248E0,4.062355E0,7.400261E0,0E0,0E0,2.7069092E-2,0E0,7.8711567E0,4.8020706E0,6.3787384E0,4.9543457E0,0E0,1.8208847E0,0E0,0E0,0E0,0E0,4.6446266E0,1.8595314E0,5.558193E0,9.669024E0,1.3885498E0,4.974825E0,9.767166E0,5.946579E0,7.4790516E0,1.0552437E1,6.6742325E0,5.4556866E0,1.0182306E1,7.4603257E0,9.691488E0,8.856064E0,5.700634E0,2.479065E0,0E0,0E0,6.5186076E0,5.0427704E0,7.1137853E0,7.348936E0,0E0,8.3155286E-1,9.40094E-1,6.6928577E0,8.4690857E-1,0E0,6.905281E0,1.0632706E0,6.390728E0,4.170842E0,4.351939E0,8.160358E0,0E0,1.9473286E0,5.551037E0,4.6870003E0,3.026924E-1,8.943747E-1,1.0161166E0,0E0,2.132141E0,4.5036826E0,1.135677E1,1.0851387E1,5.5556183E0,5.6548367E0,1.744751E1,8.866035E0,4.487808E0,5.222698E0,1.5542118E1,1.1649933E1,6.1958346E0,3.331337E0,4.8430557E0,2.5647008E0,9.92746E0,1.07772255E1,5.54718E0,8.284531E0,8.559204E0,1.6391235E1,6.5061264E0,8.391932E0,7.395374E0,7.320183E0,0E0,2.3717651E0,2.98406E0,6.100456E0,1.3759796E1,1.5562323E1,7.9659557E0,1.2405838E1,0E0,2.0460758E0,7.6243896E0,7.782837E0,0E0,2.9739285E0,2.7277966E0,4.680786E-1,3.3196487E0,5.278066E0,7.9089317E0,9.19738E0,0E0,0E0,0E0,0E0,0E0,0E0,0E0,0E0,0E0,0E0,0E0,0E0,0E0,0E0,0E0,0E0,0E0,0E0,0E0,0E0,0E0,0E0,0E0,0E0,0E0,0E0,0E0,0E0,0E0,0E0,0E0,0E0,0E0,0E0,0E0,0E0,0E0,0E0,0E0,0E0,0E0,0E0,0E0,0E0,0E0,0E0,0E0,0E0,0E0,0E0,0E0,0E0,0E0,0E0,0E0,0E0,0E0,0E0,0E0,0E0,0E0,0E0,0E0,0E0,0E0,0E0,0E0,0E0,0E0,0E0,0E0,0E0,0E0,0E0,0E0,0E0,0E0,0E0,0E0,0E0,0E0,0E0,0E0,0E0,0E0,0E0,0E0,0E0,0E0,0E0,0E0,0E0,0E0,0E0,0E0,0E0,0E0,0E0,0E0,0E0,0E0,0E0,0E0,0E0,0E0,0E0,0E0,0E0,0E0,0E0,0E0,0E0,0E0,0E0,0E0,0E0,0E0,0E0,0E0,0E0,0E0,0E0,0E0,0E0,0E0,0E0,0E0,0E0,0E0,0E0,0E0,0E0,0E0,0E0,0E0,0E0,0E0,0E0,0E0,0E0,0E0,0E0,0E0,0E0,0E0,0E0,0E0,0E0,0E0,0E0,0E0,0E0,0E0,0E0,0E0,0E0,0E0,0E0,0E0,0E0,0E0,0E0,0E0,0E0,0E0,0E0,0E0,0E0,0E0,0E0,0E0,0E0,0E0,0E0],"parents":[2147483647,0,0,1,1,2,2,3,3,4,4,5,5,6,6,7,7,8,8,9,9,10,10,11,11,12,12,13,13,14,14,15,15,16,16,18,18,19,19,20,20,21,21,22,22,23,23,24,24,25,25,26,26,27,27,28,28,29,29,30,30,31,31,32,32,33,33,35,35,37,37,38,38,39,39,40,40,41,41,42,42,43,43,44,44,45,45,46,46,47,47,48,48,49,49,50,50,51,51,52,52,53,53,54,54,55,55,56,56,58,58,59,59,60,60,61,61,62,62,63,63,64,64,65,65,66,66,68,68,69,69,70,70,71,71,72,72,73,73,74,74,75,75,76,76,77,77,78,78,79,79,80,80,81,81,82,82,83,83,84,84,85,85,86,86,88,88,89,89,90,90,91,91,92,92,93,93,94,94,95,95,96,96,97,97,98,98,99,99,100,100,101,101,102,102,103,103,104,104,105,105,106,106,107,107,108,108,109,109,110,110,111,111,112,112,113,113,114,114,117,117,119,119,120,120,121,121,122,122,124,124,129,129,130,130,131,131,132,132,133,133,134,134,135,135,136,136,137,137,138,138,139,139,140,140,141,141,142,142,143,143,144,144,145,145,146,146,149,149,150,150,151,151,152,152,154,154,155,155,156,156,157,157,159,159,160,160,161,161,162,162,163,163,164,164,166,166,167,167,168,168,169,169,170,170,171,171,173,173,174,174,175,175,176,176,177,177,178,178,179,179,180,180,181,181,182,182,183,183,184,184,185,185,186,186,187,187,188,188,189,189,190,190,191,191,192,192,193,193,194,194,195,195,196,196,197,197,198,198,200,200,201,201,202,202,203,203,204,204,205,205,206,206,208,208,209,209,210,210,212,212,213,213,214,214,215,215,216,216,217,217,218,218],"right_children":[2,4,6,8,10,12,14,16,18,20,22,24,26,28,30,32,34,-1,36,38,40,42,44,46,48,50,52,54,56,58,60,62,64,66,-1,68,-1,70,72,74,76,78,80,82,84,86,88,90,92,94,96,98,100,102,104,106,108,-1,110,112,114,116,118,120,122,124,126,-1,128,130,132,134,136,138,140,142,144,146,148,150,152,154,156,158,160,162,164,-1,166,168,170,172,174,176,178,180,182,184,186,188,190,192,194,196,198,200,202,204,206,208,210,212,214,216,218,-1,-1,220,-1,222,224,226,228,-1,230,-1,-1,-1,-1,232,234,236,238,240,242,244,246,248,250,252,254,256,258,260,262,264,266,-1,-1,268,270,272,274,-1,276,278,280,282,-1,284,286,288,290,292,294,-1,296,298,300,302,304,306,-1,308,310,312,314,316,318,320,322,324,326,328,330,332,334,336,338,340,342,344,346,348,350,352,354,356,358,-1,360,362,364,366,368,370,372,-1,374,376,378,-1,380,382,384,386,388,390,392,-1,-1,-1,-1,-1,-1,-1,-1,-1,-1,-1,-1,-1,-1,-1,-1,-1,-1,-1,-1,-1,-1,-1,-1,-1,-1,-1,-1,-1,-1,-1,-1,-1,-1,-1,-1,-1,-1,-1,-1,-1,-1,-1,-1,-1,-1,-1,-1,-1,-1,-1,-1,-1,-1,-1,-1,-1,-1,-1,-1,-1,-1,-1,-1,-1,-1,-1,-1,-1,-1,-1,-1,-1,-1,-1,-1,-1,-1,-1,-1,-1,-1,-1,-1,-1,-1,-1,-1,-1,-1,-1,-1,-1,-1,-1,-1,-1,-1,-1,-1,-1,-1,-1,-1,-1,-1,-1,-1,-1,-1,-1,-1,-1,-1,-1,-1,-1,-1,-1,-1,-1,-1,-1,-1,-1,-1,-1,-1,-1,-1,-1,-1,-1,-1,-1,-1,-1,-1,-1,-1,-1,-1,-1,-1,-1,-1,-1,-1,-1,-1,-1,-1,-1,-1,-1,-1,-1,-1,-1,-1,-1,-1,-1,-1,-1,-1,-1,-1,-1,-1,-1,-1,-1,-1],"split_conditions":[8.553281E-2,-7.2491074E-1,4.5190996E-1,3.4015363E-1,8.440753E-1,-7.2491074E-1,1.4131048E0,8.440753E-1,-1.8733394E0,5.1790938E-2,3.4015363E-1,-7.0104265E-1,3.4015363E-1,3.4015363E-1,3.4015363E-1,-1.2420391E0,1E-45,-2.0155968E-2,-2.2199543E0,3.4015363E-1,3.4015363E-1,-1.1092819E0,6.7481875E-2,8.440753E-1,3.4015363E-1,5.9636407E-2,5.9636407E-2,7.205565E-1,-1.6880611E0,-1.7498206E0,-1.6263016E0,1E-45,-7.0104265E-1,1.3863714E0,-7.05719E-2,-1.7628379E-1,-7.041534E-2,-1.2420391E0,-1.2420391E0,4.5190996E-1,4.440645E-1,2.0839496E0,8.317282E-2,-1.2420391E0,-1.1756605E0,1E-45,-1.8546586E0,6.587971E-1,-7.8500396E-1,1.4131048E0,1.4131048E0,9.675942E-1,-1.6263016E0,-7.0104265E-1,1E-45,-3.325493E-1,6.906477E-1,9.456623E-2,-1.1651443E0,-1.4623569E0,-7.079556E-1,-4.3597803E-1,2.1280797E0,2.2648108E-1,2.1516804E-2,-2.3873246E0,1.2763913E0,6.355736E-3,-1.4310031E0,1E-45,-1.2216408E0,1.6779367E0,1E-45,7.042987E-1,1.2535505E0,6.320197E-1,1E-45,1E-45,-1.4411749E0,-7.0104265E-1,2.0258497E-1,1.6576104E0,1.101044E0,1.7975172E0,1.6037318E0,1.4918061E0,-1.0704669E0,3.3282213E-2,1E-45,1E-45,1.4616696E0,7.873334E-1,2.2005026E0,3.3887947E-1,1E-45,8.440753E-1,-7.0104265E-1,-7.695906E-1,-2.934098E-1,1E-45,6.0270566E-1,1E-45,1E-45,7.3898566E-1,8.958459E-1,-2.1540947E0,-1.9650033E0,5.929854E-1,-7.635212E-1,1.3212342E0,1E-45,-2.6144526E0,-1.3014488E-1,1.6989024E0,1E-45,5.0079115E-3,-4.135448E-2,-2.4307897E0,-2.0155968E-2,1E-45,-6.377394E-1,1E-45,1E-45,-7.450055E-3,1.4429412E0,-5.0715078E-2,3.1432856E-2,-1.6904352E-2,-5.9927594E-2,1.1718624E0,5.5877186E-2,-1.0511848E-1,-1.0332931E0,-1.0671004E0,1E-45,-2.814712E-1,1.159672E0,-8.2342917E-1,-1.3146619E-2,8.49651E-1,1.0028129E0,1E-45,1E-45,1.5459133E0,1E-45,1E-45,5.733916E-1,-4.7111627E-2,3.4646325E-2,-8.87528E-1,-2.1808694E-1,-1.5651044E0,-7.0104265E-1,-7.223045E-2,-4.6461058E-1,1.0238543E0,-1.3240094E0,1E-45,-6.4354534E-3,1E-45,-1.3482697E0,-7.484471E-1,5.585188E-1,-4.939242E-1,1.4528123E0,1.6236118E-3,1.5693829E0,1.5459133E0,-1.0607587E0,1.3282819E0,-4.939242E-1,3.36161E-1,4.5479096E-2,1.3328176E0,4.5490038E-1,6.587971E-1,1E-45,-1.1793331E0,1E-45,-7.0104265E-1,1E-45,1E-45,4.592649E-1,6.613337E-1,1E-45,-6.0770905E-1,1.2563581E-2,-1.6925493E0,-1.5119423E-1,1E-45,1E-45,4.7544637E-1,6.587971E-1,8.8207597E-1,1E-45,1E-45,-8.217043E-2,4.8544958E-1,1E-45,-1.4132869E-2,1.6208851E0,1.7307217E0,2.0183005E0,2.1069899E0,1E-45,1E-45,1E-45,9.656945E-2,1.1400942E0,8.440753E-1,3.8068074E-1,-1.7624848E-2,-9.66912E-1,1E-45,-2.243896E0,1E-45,-3.6079116E-2,-1.379264E0,1.6472165E-1,-2.437864E-2,-7.0246756E-2,-9.996863E-3,-3.436878E-2,-1.6418524E-2,-4.4671215E-2,-3.739502E-2,-5.3082377E-2,-4.0111396E-2,-5.6398608E-2,-6.8608634E-2,-3.5676796E-2,-3.679648E-2,6.2518055E-3,-6.986183E-2,-3.7917245E-2,2.613881E-2,-3.1989507E-2,1.0613142E-2,-5.6034685E-3,-3.4760978E-2,-6.468319E-2,1.5150057E-2,-5.281877E-2,-1.9453999E-2,-3.0380229E-2,-4.0960815E-2,-1.7854204E-2,3.9005272E-2,7.5141527E-3,1.2580742E-2,5.1715504E-2,2.8951094E-2,4.650797E-2,-2.358958E-2,6.284596E-2,-4.3891678E-3,-2.1051086E-2,1.5195632E-2,-1.4877784E-2,1.2312035E-2,4.7944456E-2,1.4593705E-2,-8.093184E-3,2.2371292E-2,-5.2331727E-2,-6.874416E-2,-3.4737032E-2,-4.0004753E-2,-2.76939E-3,-4.4571143E-2,-2.9870167E-2,2.8684754E-2,-1.6528018E-2,3.736077E-2,9.52096E-4,-4.6285048E-2,2.8592783E-3,-6.616449E-2,-5.654033E-2,3.8107824E-2,-4.8918333E-2,-4.5644067E-2,-7.177751E-2,-2.2845825E-2,-4.2197835E-2,-1.69609E-2,-6.900226E-2,7.190337E-3,-4.47572E-2,-6.170408E-2,2.2126874E-3,-2.4850147E-2,6.383771E-2,-4.40447E-2,1.4606796E-2,-6.568731E-2,-1.1169393E-2,5.810247E-2,-4.1776415E-2,-9.126044E-3,-3.4096994E-2,-6.924069E-2,-2.9137248E-2,4.6669706E-3,-4.5427833E-2,-5.8575876E-2,-5.05476E-3,-6.556028E-2,-1.1195758E-3,-5.1885035E-2,4.2460807E-2,1.1844466E-2,-5.3886985E-3,2.9072208E-2,1.5872762E-2,-1.973944E-2,7.7322885E-2,4.3783996E-2,-1.3223441E-2,4.56744E-2,3.1515326E-2,2.2931231E-2,-1.7836846E-2,8.449461E-2,1.7063199E-2,6.0224798E-2,1.9390885E-2,-6.428569E-3,2.7008343E-2,2.8874764E-2,-1.3425635E-2,5.7803996E-2,-4.0655315E-2,-5.963377E-2,4.9191987E-4,-1.554468E-2,6.424235E-2,2.3085922E-2,-5.2140277E-2,1.2221015E-2,-9.347006E-3,2.728569E-2,-2.0226412E-2,2.9206896E-2,6.9380485E-2,5.6073803E-2,-3.7983615E-2,5.1645793E-2,6.230661E-2,5.404343E-2,3.7723456E-2,6.979104E-2,3.453591E-2,-4.033563E-2,4.0227372E-2,1.711657E-2,-3.5187192E-2,7.770744E-2,-2.8468654E-2,8.14264E-2,4.6792146E-2,2.1515919E-2,-5.109681E-2,4.8858833E-2,-3.29597E-2,2.9532915E-2,-8.604451E-3,2.5064293E-2,-2.3642448E-3,4.3943767E-2,1.1684581E-2,4.8972595E-2,2.1061571E-2,6.9953464E-2,5.0116344E-3,8.564166E-2,-1.3985856E-2,7.7916615E-2,5.5918135E-2,-6.4354534E-3,7.103672E-2,8.2467996E-2,3.8716726E-2,7.131606E-2,9.4716795E-2,8.0354884E-2,2.5069429E-2,5.5243094E-2,-4.894308E-2,1.1662661E-2,7.766204E-2,4.1134756E-2,-3.069911E-2],"split_indices":[6,5,5,10,17,5,6,17,17,5,10,10,10,10,10,6,4,0,9,10,10,6,5,17,10,5,5,17,17,17,17,2,10,3,0,3,0,6,6,5,5,25,5,6,6,4,5,17,18,6,6,17,17,10,4,3,7,0,9,21,13,8,8,17,9,7,17,0,5,2,10,24,20,16,18,7,20,27,6,10,25,8,7,15,9,13,17,0,4,2,17,25,16,7,2,17,10,9,5,4,7,2,27,3,7,21,8,11,25,25,27,17,7,3,4,0,0,21,0,4,9,4,4,0,21,0,0,0,0,16,24,5,9,13,20,13,7,17,24,24,15,4,4,16,4,4,7,0,0,13,7,8,10,0,16,18,21,4,0,27,25,5,25,21,7,0,18,16,0,8,21,21,0,24,15,17,4,13,4,10,2,4,13,7,4,0,5,9,24,2,4,5,17,6,2,2,24,7,20,0,5,5,15,16,4,4,4,0,8,17,12,0,25,27,17,2,8,17,17,0,0,0,0,0,0,0,0,0,0,0,0,0,0,0,0,0,0,0,0,0,0,0,0,0,0,0,0,0,0,0,0,0,0,0,0,0,0,0,0,0,0,0,0,0,0,0,0,0,0,0,0,0,0,0,0,0,0,0,0,0,0,0,0,0,0,0,0,0,0,0,0,0,0,0,0,0,0,0,0,0,0,0,0,0,0,0,0,0,0,0,0,0,0,0,0,0,0,0,0,0,0,0,0,0,0,0,0,0,0,0,0,0,0,0,0,0,0,0,0,0,0,0,0,0,0,0,0,0,0,0,0,0,0,0,0,0,0,0,0,0,0,0,0,0,0,0,0,0,0,0,0,0,0,0,0,0,0,0,0,0,0,0,0,0,0,0,0,0,0,0,0,0,0],"split_type":[0,0,0,0,0,0,0,0,0,0,0,0,0,0,0,0,1,0,0,0,0,0,0,0,0,0,0,0,0,0,0,1,0,0,0,0,0,0,0,0,0,0,0,0,0,1,0,0,0,0,0,0,0,0,1,0,0,0,0,0,0,0,0,0,0,0,0,0,0,1,0,0,1,0,0,0,1,1,0,0,0,0,0,0,0,0,0,0,1,1,0,0,0,0,1,0,0,0,0,1,0,1,1,0,0,0,0,0,0,0,1,0,0,0,1,0,0,0,0,1,0,1,1,0,0,0,0,0,0,0,0,0,0,0,1,0,0,0,0,0,0,1,1,0,1,1,0,0,0,0,0,0,0,0,0,0,0,1,0,1,0,0,0,0,0,0,0,0,0,0,0,0,0,0,0,0,1,0,1,0,1,1,0,0,1,0,0,0,0,1,1,0,0,0,1,1,0,0,1,0,0,0,0,0,1,1,1,0,0,0,0,0,0,1,0,1,0,0,0,0,0,0,0,0,0,0,0,0,0,0,0,0,0,0,0,0,0,0,0,0,0,0,0,0,0,0,0,0,0,0,0,0,0,0,0,0,0,0,0,0,0,0,0,0,0,0,0,0,0,0,0,0,0,0,0,0,0,0,0,0,0,0,0,0,0,0,0,0,0,0,0,0,0,0,0,0,0,0,0,0,0,0,0,0,0,0,0,0,0,0,0,0,0,0,0,0,0,0,0,0,0,0,0,0,0,0,0,0,0,0,0,0,0,0,0,0,0,0,0,0,0,0,0,0,0,0,0,0,0,0,0,0,0,0,0,0,0,0,0,0,0,0,0,0,0,0,0,0,0,0,0,0,0,0,0,0,0,0,0,0,0,0,0,0,0,0,0,0,0,0,0,0,0],"sum_hessian":[1.8918428E4,9.423347E3,9.495082E3,3.9592188E3,5.4641274E3,4.2421807E3,5.2529014E3,1.9272319E3,2.0319867E3,4.0172666E3,1.446861E3,4.145739E2,3.827607E3,3.7703506E3,1.4825509E3,1.0933922E3,8.338397E2,1.1720209E0,2.0308147E3,2.4832188E3,1.534048E3,6.4404486E2,8.0281616E2,1.6287685E2,2.5169705E2,2.7349072E3,1.0926998E3,2.2706492E3,1.4997014E3,1.26406E3,2.1849086E2,1.3880226E2,9.5458997E2,7.080962E1,7.630301E2,5.8794475E0,2.0249352E3,1.1835651E3,1.2996537E3,5.6886346E2,9.6518445E2,1.2885643E2,5.151884E2,5.341832E2,2.686329E2,1.4248271E2,2.0394144E1,1.8786928E2,6.382778E1,1.5460366E3,1.1888705E3,5.925823E2,5.0011755E2,2.123992E3,1.4665723E2,1.6256532E2,1.337136E3,4.2014575E2,8.439143E2,8.65429E1,1.3194795E2,2.2905142E0,1.3651175E2,2.4491653E2,7.0967346E2,6.721688E1,3.5927405E0,1.1309531E0,4.7484946E0,6.8236916E1,1.1153281E3,1.9165656E2,1.1079971E3,2.9891974E2,2.6994376E2,4.6728235E2,4.979021E2,1.2539229E2,3.4641423E0,3.3920126E2,1.7598714E2,1.9763863E2,3.3654462E2,5.5790333E1,2.1284259E2,9.229326E1,5.018945E1,1.435539E0,1.8958605E1,1.567431E2,3.1126165E1,5.585673E0,5.824211E1,1.4648809E3,8.115575E1,1.083732E3,1.0513843E2,5.6193396E2,3.0648327E1,2.798097E1,4.721366E2,6.05717E2,1.518275E3,7.639785E1,7.025938E1,4.1399647E1,1.2116568E2,9.5992126E2,3.7721475E2,1.7034431E2,6.7357E2,7.502835E0,7.904007E1,4.1537334E1,9.041062E1,1.1461661E0,1.1443483E0,1.3533974E2,1.1720209E0,1.3523262E2,1.096839E2,3.106741E2,3.9899936E2,1.571824E0,6.564506E1,2.0209165E0,1.571824E0,1.127964E0,3.6205304E0,4.062357E1,2.7613348E1,6.2062523E1,1.0532656E3,1.7624889E2,1.5407678E1,8.492424E2,2.5875476E2,2.2930536E2,6.961438E1,2.5936752E2,1.0576218E1,3.682253E2,9.905702E1,2.4972934E2,2.4817278E2,2.7168297E1,9.822399E1,1.588802E0,1.8753403E0,8.220903E1,2.5699225E2,1.04371056E2,7.161607E1,1.9506891E2,2.569705E0,3.1199094E2,2.4553679E1,5.4369312E1,1.4210192E0,1.953341E2,1.7508476E1,8.125857E1,1.1034697E1,4.7107897E0,4.547866E1,1.8462362E0,1.711237E1,4.8411417E0,1.5190196E2,2.8590717E1,2.5354483E0,4.3901424E0,1.1955305E0,5.4968987E1,3.273125E0,7.7480316E2,6.9007776E2,3.1349533E1,4.9806213E1,1.0287001E3,5.503201E1,5.908971E1,4.6048717E1,1.6600728E2,3.9592667E2,5.2621098E0,2.5386217E1,2.5105476E1,2.875494E0,3.0524393E2,1.6689265E2,4.3655307E2,1.6916391E2,8.6669476E2,6.5158026E2,6.546186E1,1.093599E1,6.0776573E1,9.482802E0,1.6700896E0,3.9729557E1,3.8274763E0,1.173382E2,7.2788837E2,2.3203291E2,8.702337E1,2.9019138E2,1.5420349E2,1.6140816E1,3.9815717E2,2.7541284E2,1.8786519E0,5.6241827E0,1.9924927E1,5.911514E1,3.8596775E1,2.9405603E0,3.2976353E1,5.7434273E1,1.382916E0,1.3395682E2,6.160728E1,7.362534E1,1.9918386E1,8.976552E1,1.9790335E2,1.12770744E2,6.862543E1,3.3037393E2,5.7320404E1,8.324654E0,3.3279583E1,7.343985E0,1.1890216E1,1.5723132E1,5.8476593E1,3.5859308E0,1.0080128E2,9.5246436E2,7.798653E0,1.6845023E2,2.8845513E0,1.2523127E1,3.7576782E2,4.7347452E2,2.2443584E2,3.43189E1,1.9840544E1,2.0946481E2,3.6122345E1,3.3492035E1,1.7326367E2,8.610386E1,9.3447895E0,1.2314285E0,1.7469815E2,1.9352716E2,7.1075035E1,2.7981989E1,2.2970605E2,2.0023285E1,5.4225758E1,1.93947E2,2.2809222E0,2.4887375E1,8.912031E1,9.103685E0,1.3212519E1,6.8996506E1,1.249013E2,