{"learner":{"attributes":{"best_iteration":"91","best_score":"4.966473409832974","scikit_learn":"{\"_estimator_type\": \"regressor\"}"},"feature_names":["age","gender","occupation","bmi","country","sleep_quality_score","wake_episodes_per_night","caffeine_mg_before_bed","alcohol_units_before_bed","screen_time_before_bed_mins","exercise_day","steps_that_day","nap_duration_mins","stress_score","work_hours_that_day","chronotype","mental_health_condition","heart_rate_resting_bpm","sleep_aid_used","shift_work","room_temperature_celsius","weekend_sleep_diff_hrs","season","day_type","felt_rested"],"feature_types":["float","c","c","float","c","float","float","float","float","float","c","float","float","float","float","c","c","float","c","c","float","float","c","c","c"],"gradient_booster":{"model":{"cats":{"enc":[{"offsets":[],"values":[]},{"offsets":[0,1,2,4],"values":[-25,-108,-73,-27]},{"offsets":[0,7,14,20,27,32,37,43,60,66,76,83,92],"values":[83,116,117,100,101,110,116,77,97,110,97,103,101,114,68,111,99,116,111,114,84,101,97,99,104,101,114,78,117,114,115,101,83,97,108,101,115,76,97,119,121,101,114,83,111,102,116,119,97,114,101,32,69,110,103,105,110,101,101,114,68,114,105,118,101,114,70,114,101,101,108,97,110,99,101,114,82,101,116,105,114,101,100,72,111,109,101,109,97,107,101,114]},{"offsets":[],"values":[]},{"offsets":[0,6,9,11,16,22,27,32,39,50,59,65,71,82,87,93],"values":[67,97,110,97,100,97,85,83,65,85,75,74,97,112,97,110,66,114,97,122,105,108,73,116,97,108,121,73,110,100,105,97,71,101,114,109,97,110,121,83,111,117,116,104,32,75,111,114,101,97,65,117,115,116,114,97,108,105,97,70,114,97,110,99,101,83,119,101,100,101,110,78,101,116,104,101,114,108,97,110,100,115,83,112,97,105,110,77,101,120,105,99,111]},{"offsets":[],"values":[]},{"offsets":[],"values":[]},{"offsets":[],"values":[]},{"offsets":[],"values":[]},{"offsets":[],"values":[]},{"offsets":[0,1,2],"values":[-27,-112]},{"offsets":[],"values":[]},{"offsets":[],"values":[]},{"offsets":[],"values":[]},{"offsets":[],"values":[]},{"offsets":[0,7,14,21],"values":[77,111,114,110,105,110,103,69,118,101,110,105,110,103,78,101,117,116,114,97,108]},{"offsets":[0,7,14,24,28],"values":[72,101,97,108,116,104,121,65,110,120,105,101,116,121,68,101,112,114,101,115,115,105,111,110,66,111,116,104]},{"offsets":[],"values":[]},{"offsets":[0,1,2],"values":[-27,-112]},{"offsets":[0,1,2],"values":[-27,-112]},{"offsets":[],"values":[]},{"offsets":[],"values":[]},{"offsets":[0,6,12,18,24],"values":[83,112,114,105,110,103,83,117,109,109,101,114,65,117,116,117,109,110,87,105,110,116,101,114]},{"offsets":[0,7,14],"values":[87,101,101,107,100,97,121,87,101,101,107,101,110,100]},{"offsets":[0,3,7],"values":[-26,-100,-86,-26,-127,-94,-27]}],"feature_segments":[0,0,3,15,15,30,30,30,30,30,30,32,32,32,32,32,35,39,39,41,43,43,43,47,49,51],"sorted_idx":[1,2,0,2,8,9,11,6,1,4,10,5,7,0,3,9,4,0,10,7,6,5,3,14,12,8,13,11,2,1,1,0,1,0,2,1,3,2,0,1,0,1,0,2,0,1,3,0,1,1,0]},"gbtree_model_param":{"num_parallel_tree":"1","num_trees":"112"},"iteration_indptr":[0,1,2,3,4,5,6,7,8,9,10,11,12,13,14,15,16,17,18,19,20,21,22,23,24,25,26,27,28,29,30,31,32,33,34,35,36,37,38,39,40,41,42,43,44,45,46,47,48,49,50,51,52,53,54,55,56,57,58,59,60,61,62,63,64,65,66,67,68,69,70,71,72,73,74,75,76,77,78,79,80,81,82,83,84,85,86,87,88,89,90,91,92,93,94,95,96,97,98,99,100,101,102,103,104,105,106,107,108,109,110,111,112],"tree_info":[0,0,0,0,0,0,0,0,0,0,0,0,0,0,0,0,0,0,0,0,0,0,0,0,0,0,0,0,0,0,0,0,0,0,0,0,0,0,0,0,0,0,0,0,0,0,0,0,0,0,0,0,0,0,0,0,0,0,0,0,0,0,0,0,0,0,0,0,0,0,0,0,0,0,0,0,0,0,0,0,0,0,0,0,0,0,0,0,0,0,0,0,0,0,0,0,0,0,0,0,0,0,0,0,0,0,0,0,0,0,0,0],"trees":[{"base_weights":[7.751368E-7,-2.64013E0,6.2968144E0,-3.8479362E0,7.502578E-1,5.6051984E0,1.2371265E1,-4.908229E0,-5.9497756E-1,5.9853025E-2,7.5435743E0,4.482182E0,8.708135E0,1.1102412E1,1.6440136E1,-1.8266598E0,-5.689022E0,2.5452971E0,-1.4022822E0,-1.0293001E0,3.2084498E0,6.1945558E0,1.1310335E1,7.5280385E0,3.725178E0,1.2104647E1,7.917226E0,9.948303E0,1.4014001E1,1.5547331E1,2.2620724E1,-7.866789E-1,-3.7474213E0,-4.616846E0,-7.642963E0,1.4322132E0,4.1482334E0,-2.568134E0,6.5518373E-1,1.8914363E0,-1.7489688E0,6.4810557E0,2.3701055E0,8.195455E0,4.6674037E0,1.2989784E1,8.323785E0,9.058019E0,6.5508842E0,3.1907418E0,6.160977E0,1.1018364E1,1.4780537E1,6.7597313E0,9.671088E0,1.3183032E1,9.0602255E0,1.7173079E1,1.3066775E1,1.4553303E1,1.7948008E1,1.1393367E0,2.791488E-1,2.9935783E-1,-2.1231847E0,-4.6366773E0,-2.356079E0,-3.678172E0,-5.5343757E0,-6.476001E0,-8.56658E0,2.309853E0,-1.7004454E-1,5.2959957E0,2.2091823E0,-1.4588369E0,-4.567796E0,1.7155985E0,-1.2505568E0,2.9142318E0,8.890336E-2,-7.223534E-1,-3.6730614E0,5.3153896E0,8.844886E0,3.5141973E0,2.846332E-1,1.0096597E1,7.05262E0,3.7242467E0,7.332622E0,1.7049612E1,1.1693417E1,6.755564E0,1.1761802E1,8.580711E0,1.1387901E1,6.097793E0,8.849286E0,3.8500462E0,1.8075697E0,7.751324E0,5.503786E0,1.0424943E1,1.3571908E1,1.6100008E1,1.35866375E1,6.0881343E0,8.496895E0,9.02546E0,1.1353619E1,1.4402302E1,1.1042905E1,1.0107535E1,7.6100187E0,1.9986227E1,1.4775414E1,1.1902761E1,1.5028768E1,1.6191511E1,1.3325545E1,1.8038021E1,1.2914877E-1,-4.2189467E-1,1.4264858E0,-2.9503832E0,-1.3262553E0,-5.678892E0,-3.5371654E0,-2.981289E0,-1.021024E0,-4.4291887E0,-2.9695468E0,-6.1664605E0,-4.1488347E0,-6.995805E0,-5.1968713E0,-9.418327E0,-7.826945E0,3.8789914E0,1.5994064E0,-6.718251E-1,2.7727327E0,6.604644E0,3.85523E0,3.412518E0,3.5362044E-1,1.9623283E-1,-1.8876563E0,-3.3207712E0,-5.147176E0,2.6052144E0,6.2639034E-1,-6.2796867E-1,-3.1641498E0,4.4310412E0,1.959285E0,3.140824E0,-5.619104E-1,-1.7464029E0,1.3132845E0,-4.5613136E0,-1.8849294E0,6.614253E0,3.9087076E0,8.031989E0,1.0461005E1,2.5054152E0,5.444824E0,-6.9845086E-1,2.6706316E0,7.225114E0,1.0699035E1,8.394351E0,5.717965E0,4.879058E0,1.8679754E0,4.383563E0,8.199583E0,1.7258913E1,1.5414877E-1,1.0529005E1,1.457916E1,5.5921516E0,9.86737E0,1.2578008E1,3.5327606E0,1.08315325E1,8.166928E0,1.2737139E1,1.0070942E1,6.589971E0,3.9289036E0,1.0344674E1,8.2661E0,3.1555927E0,4.5151553E0,9.0310645E-1,2.4049432E0,6.824771E0,8.862665E0,4.9466534E0,6.556159E0,1.1184175E1,9.230056E0,1.4716306E1,1.082893E1,1.6330116E1,9.427958E0,1.3725915E1,1.4439672E0,8.22178E0,5.534068E0,1.1366382E1,8.15555E0,9.620725E0,7.8675714E0,1.0409874E1,1.2131749E1,1.49387865E1,1.1504515E1,1.1437002E1,5.480845E0,1.0626606E1,8.528509E0,8.7039175E0,6.8294396E0,2.051666E1,4.3122315E-1,7.474007E-1,6.110634E0,1.2615869E1,9.670937E0,1.5116869E1,5.414877E-2,6.624463E0,8.170846E-1,1.4223554E1,1.1566393E1,1.0663543E0,1.700519E1,1.184481E-2,-6.433735E-2,2.8219221E-2,1.2410583E-1,-1.730247E-1,-8.730503E-2,-2.5085822E-2,-1.12601556E-1,-2.4049723E-1,-3.2123968E-1,-1.3005672E-1,-2.1910389E-1,-2.0110987E-1,-1.0908613E-1,1.519271E-1,-6.397735E-2,-2.4461578E-1,-1.5526582E-1,-1.9126917E-1,-1.243424E-1,-2.8899297E-1,-3.5408697E-1,-1.9070983E-1,-2.470635E-1,-3.8873556E-1,-3.1650877E-1,-2.829958E-1,-1.9751692E-1,-4.586886E-1,-5.2119976E-1,-3.6318982E-1,-4.3373314E-1,9.544504E-2,2.2351705E-1,3.571608E-2,1.2725131E-1,-5.5741627E-2,7.913145E-2,4.866324E-2,2.2168246E-1,3.86913E-1,2.7479205E-1,3.0018446E-1,1.7341837E-1,2.2971268E-1,1.22441605E-1,4.9256995E-2,-1.3526145E-1,-7.580032E-3,1.3004124E-1,-7.7148974E-2,-1.4957277E-1,-1.2348457E-1,-2.0229648E-1,-2.8596285E-1,-2.0737913E-1,4.5095976E-2,1.491221E-1,4.8370775E-2,-5.1348336E-2,-5.0971117E-2,9.094938E-2,-8.930937E-2,-2.0124865E-1,1.7892395E-1,3.033988E-1,6.0334295E-2,1.8159631E-1,2.0068145E-1,3.3053495E-2,-7.263961E-2,6.0014635E-2,-1.268328E-1,-1.826781E-2,2.453629E-2,1.3034417E-1,-2.6540726E-1,-1.6454683E-1,-1.5653923E-1,-5.1263005E-2,2.8497398E-1,4.3665454E-1,-5.5715986E-2,2.2093725E-1,4.2099896E-1,1.7199057E-1,5.598259E-1,3.4107772E-1,6.6876024E-2,1.9702217E-1,2.230397E-1,3.7956965E-1,-8.2472995E-2,6.2208515E-2,7.9720065E-2,2.4031547E-1,6.735813E-1,2.752861E-1,5.8288646E-1,4.4833094E-1,4.6130475E-1,3.0552068E-1,2.3298636E-1,4.3948904E-1,6.4738564E-2,2.5930044E-1,-1.2163941E-1,1.3449684E-1,3.383921E-1,9.470293E-2,4.208354E-1,6.2231543E-3,7.0576286E-1,9.546876E-1,4.677549E-1,6.4102197E-1,7.432274E-1,2.914877E-2,4.0302095E-1,1.824854E-1,5.4733455E-1,2.4024795E-1,6.656219E-1,1.6872315E-1,2.3122315E-1,-2.085123E-2,3.2382947E-1,5.73765E-1,2.546432E-1,4.1882664E-1,2.9024795E-1,6.5271187E-1,-2.085123E-2,5.08691E-1,2.830151E-1,3.7583125E-1,1.23137034E-1,2.4103908E-1,5.4239887E-1,2.1351035E-1,4.1688916E-1,5.5316924E-3,1.1683953E-1,1.8634644E-1,1.8628322E-1,2.6198268E-1,3.6723573E-2,1.21211305E-1,1.2598155E-1,-4.6303917E-2,3.7850097E-1,2.904103E-1,4.5107546E-1,1.7246778E-1,2.6968807E-1,2.001849E-1,3.5027802E-1,2.4814998E-1,5.63876E-1,3.324678E-1,4.953188E-1,3.75753E-1,8.146389E-1,6.502917E-1,5.6405234E-1,1.6872315E-1,8.199771E-1,1.7914878E-1,7.914877E-2,5.2358127E-1,7.1988934E-1,5.2522576E-1,-4.585123E-2,1.5414877E-1,4.201014E-1,2.2456908E-1,2.9530117E-1,1.9113566E-1,6.066054E-1,3.7965393E-1,4.209775E-1,3.352498E-1,4.4305092E-1,5.0680774E-1,3.0082867E-1,4.313123E-1,4.3996462E-1,5.629398E-1,7.217453E-1,5.813718E-1,7.499645E-1,1.5414877E-1,6.578608E-1,4.219906E-1,4.8313162E-1,6.491316E-1,3.9024794E-1,3.1223154E-2,5.1366085E-1,6.3732594E-1,-2.7801642E-2,4.3258506E-1,4.4027337E-1,-1.1134974E-2,4.2167932E-1,2.8686172E-1,2.5414878E-1,1.0368445E0,5.414877E-2,4.041488E-1,6.8183184E-1,5.5936384E-1,5.1160276E-1,2.724678E-1,7.620594E-1,2.055317E-1,-2.085123E-2,4.555317E-1,5.077049E-1,7.285553E-1,6.551937E-1,4.116939E-1,8.5465205E-1,1.7914878E-1],"categories":[1,0,2,0,2,0,2,0,2,0,0,0,2,0,2,0,0,2,13,0,0,0,0,0,0,0,0,2,0,2,0,2,0,1,2,3,9,10,11,12,0,1,4,5,7,8,10,1,3,6,7,9,10,11,12,13,14,2,7,11,13,4,8,5,7,8,10,1,2,5,6,7,9,10,0,4,7,9,10,11,1,3,4,5,8,0,1,2,3,4,5,6,7,8,9,10,12,13,1,2,8,9,10,11,12,13,14,3,4,8,0,1,5,7,0,2,4,6,8,9,10,11,12,13,14,0,4,7,10,0,1,2,3,6,7,8,9,10,11,0,2,4,5,10,11,12,13,14,0,2,5,6,8,10,11,12,14,3,5,7,8,9,10,11,2,4,6,8,10,11,0,5,8,10,11,13,14,1,8,0,1,2,3,10,11,0,8,9,11,12,14,9,11,7,8,11,12,13,14,2,3,1,2,4,6,8,9,11,0,1,3,4,10,2,9,1,4,7,12],"categories_nodes":[0,7,8,11,12,15,16,19,20,22,27,30,35,36,37,38,39,40,42,43,45,57,88,89,96,98,111,112,113,114,117,120,130,143,146,149,154,166,171,172,173,177,183,184,185,193,205,209,211,213,222,226,231,232,238],"categories_segments":[0,1,3,5,7,9,10,11,13,15,16,18,19,20,21,22,23,24,25,26,28,30,32,40,41,47,57,61,63,67,74,80,85,98,107,110,114,125,129,139,148,149,157,164,170,177,179,185,191,193,199,201,208,213,215],"categories_sizes":[1,2,2,2,2,1,1,2,2,1,2,1,1,1,1,1,1,1,1,2,2,2,8,1,6,10,4,2,4,7,6,5,13,9,3,4,11,4,10,9,1,8,7,6,7,2,6,6,2,6,2,7,5,2,4],"default_left":[1,0,0,0,0,0,0,1,1,0,0,1,1,0,0,1,1,0,0,1,1,0,1,0,0,0,0,1,0,0,1,0,0,0,0,1,1,1,1,1,1,0,1,1,0,1,0,0,0,0,0,0,0,0,0,0,0,1,0,0,0,0,0,0,0,0,0,0,0,0,0,0,0,0,0,0,0,0,0,0,0,0,0,0,0,0,0,0,1,1,0,0,0,0,0,0,1,0,1,0,0,0,0,0,0,0,0,0,0,0,0,1,1,1,1,0,0,1,0,0,1,0,0,0,0,0,0,0,0,0,1,0,0,0,0,0,0,0,0,0,0,0,0,1,0,0,1,0,0,1,0,0,0,0,1,0,0,0,0,0,0,0,0,0,0,0,1,0,0,0,0,1,1,1,0,0,0,1,0,0,0,0,0,1,1,1,0,0,0,0,0,0,0,1,0,0,0,0,0,0,0,0,0,0,0,1,0,0,0,1,0,1,0,1,0,0,0,0,0,0,0,0,1,0,0,0,1,0,0,0,0,1,1,0,0,0,0,0,1,0,0,0,0,0,0,0,0,0,0,0,0,0,0,0,0,0,0,0,0,0,0,0,0,0,0,0,0,0,0,0,0,0,0,0,0,0,0,0,0,0,0,0,0,0,0,0,0,0,0,0,0,0,0,0,0,0,0,0,0,0,0,0,0,0,0,0,0,0,0,0,0,0,0,0,0,0,0,0,0,0,0,0,0,0,0,0,0,0,0,0,0,0,0,0,0,0,0,0,0,0,0,0,0,0,0,0,0,0,0,0,0,0,0,0,0,0,0,0,0,0,0,0,0,0,0,0,0,0,0,0,0,0,0,0,0,0,0,0,0,0,0,0,0,0,0,0,0,0,0,0,0,0,0,0,0,0,0,0,0,0,0,0,0,0,0,0,0,0,0,0,0,0,0,0,0,0,0,0,0,0,0,0,0,0,0,0,0,0,0,0,0,0,0,0,0,0,0,0,0,0,0,0,0,0,0,0,0,0,0,0,0,0,0,0,0,0,0,0,0,0,0,0,0,0,0],"id":0,"left_children":[1,3,5,7,9,11,13,15,17,19,21,23,25,27,29,31,33,35,37,39,41,43,45,47,49,51,53,55,57,59,61,63,65,67,69,71,73,75,77,79,81,83,85,87,89,91,93,95,97,99,101,103,105,107,109,111,113,115,117,119,121,-1,-1,123,125,127,129,131,133,135,137,139,141,143,145,147,149,151,153,155,157,159,161,163,165,167,169,171,173,175,177,179,181,183,185,187,189,191,193,195,197,199,201,203,205,207,209,211,213,215,217,219,221,223,225,227,229,231,233,235,237,239,-1,241,243,245,247,249,251,253,255,257,259,261,263,265,267,269,271,273,275,277,279,281,283,285,287,289,291,293,295,297,299,301,303,305,307,309,311,313,315,317,319,321,323,325,327,329,331,333,335,337,339,341,343,345,347,349,351,353,-1,355,357,359,361,363,365,367,369,371,373,375,377,379,381,383,385,387,389,391,393,395,397,399,401,403,405,407,409,411,413,415,417,419,421,423,425,427,429,431,433,435,437,439,441,443,445,447,-1,-1,449,451,453,455,-1,457,-1,459,461,-1,463,-1,-1,-1,-1,-1,-1,-1,-1,-1,-1,-1,-1,-1,-1,-1,-1,-1,-1,-1,-1,-1,-1,-1,-1,-1,-1,-1,-1,-1,-1,-1,-1,-1,-1,-1,-1,-1,-1,-1,-1,-1,-1,-1,-1,-1,-1,-1,-1,-1,-1,-1,-1,-1,-1,-1,-1,-1,-1,-1,-1,-1,-1,-1,-1,-1,-1,-1,-1,-1,-1,-1,-1,-1,-1,-1,-1,-1,-1,-1,-1,-1,-1,-1,-1,-1,-1,-1,-1,-1,-1,-1,-1,-1,-1,-1,-1,-1,-1,-1,-1,-1,-1,-1,-1,-1,-1,-1,-1,-1,-1,-1,-1,-1,-1,-1,-1,-1,-1,-1,-1,-1,-1,-1,-1,-1,-1,-1,-1,-1,-1,-1,-1,-1,-1,-1,-1,-1,-1,-1,-1,-1,-1,-1,-1,-1,-1,-1,-1,-1,-1,-1,-1,-1,-1,-1,-1,-1,-1,-1,-1,-1,-1,-1,-1,-1,-1,-1,-1,-1,-1,-1,-1,-1,-1,-1,-1,-1,-1,-1,-1,-1,-1,-1,-1,-1,-1,-1,-1,-1,-1,-1,-1,-1,-1,-1,-1,-1,-1,-1,-1,-1,-1,-1,-1,-1,-1,-1,-1,-1,-1,-1,-1,-1,-1,-1,-1,-1,-1,-1,-1,-1,-1,-1,-1],"loss_changes":[1.3299862E6,2.3082597E5,9.92215E4,1.4334806E5,6.944643E4,7.390519E4,1.2285656E4,7.5407875E4,2.5907818E4,4.6100008E4,6.871172E3,3.5902062E4,1.50496875E4,6.056953E3,2.8046406E3,1.2657557E4,5.2355688E4,3.723043E3,1.9500715E4,2.099771E4,9.463672E3,3.0418672E3,1.6925352E3,4.57675E3,1.6230453E4,2.9270469E3,9.2243125E3,3.6839922E3,1.334625E3,9.39125E2,7.077344E1,5.970633E3,2.7432148E3,1.3889031E4,9.492969E3,1.7370569E3,1.8933887E3,1.150368E4,5.94554E3,3.6408955E3,1.5827426E4,1.8928125E3,6.5651953E3,8.73916E2,1.4155674E3,1.00060547E3,6.322285E2,1.2434375E3,1.9205E3,9.33032E3,2.3037266E3,1.01016406E3,2.6015625E2,3.168289E3,1.8713125E3,5.7941406E2,1.5056875E3,4.9385938E2,7.460469E2,5.103203E2,1.511875E2,0E0,0E0,1.8459846E3,1.2116865E3,1.5349375E3,7.2313574E2,4.2369062E3,7.1251406E3,2.5687188E3,3.039625E3,8.83397E2,6.4862604E2,9.8702734E2,7.133097E2,2.370146E3,1.3202617E3,1.8297339E3,1.2513448E3,1.8163936E3,1.4239069E3,1.0898465E4,4.419617E3,8.401865E2,2.1945117E2,3.447209E3,2.291207E3,2.0120898E2,4.4445703E2,9.040781E2,3.450078E2,1.0172168E2,4.3788867E2,2.8150928E2,2.2422803E2,8.475547E2,2.3065625E2,1.6682031E3,1.8483594E2,3.1880078E3,1.7846084E3,6.129492E2,9.0097656E2,4.601328E2,2.8010547E2,5.9441406E1,2.6091797E2,2.3117734E3,6.585625E2,8.327344E2,2.4088672E2,1.0330078E2,1.718584E2,4.0278516E2,3.171172E2,1.3041406E2,8.858398E0,2.9019922E2,1.6423438E2,1.0726953E2,1.7039062E2,1.1971094E2,0E0,7.89418E2,8.0491296E2,5.493003E2,7.1717126E2,4.1956055E2,5.1294434E2,4.8393164E2,2.9669614E2,2.3606484E3,1.6891992E3,1.9424062E3,6.6027734E2,1.3936562E3,6.333379E2,4.6804688E2,1.2025469E3,2.8038965E2,4.5934338E2,3.762918E2,1.8696591E2,3.0941992E2,1.9361597E2,2.0968115E2,2.4799385E2,5.758359E2,1.00434766E3,3.5413623E2,6.979492E2,6.65541E2,4.808181E2,7.6336096E2,2.988457E2,6.56542E2,9.71209E2,2.700537E2,9.2956323E2,3.79488E3,1.8608276E3,1.7491172E3,9.8962866E2,4.2509863E2,5.9416895E2,2.5254785E2,1.2171045E2,1.9539287E3,1.2525215E3,1.2804878E3,6.4740356E2,2.5877527E2,1.1304297E2,2.0007812E2,4.1739258E2,2.815376E2,5.898292E2,2.0086554E2,1.9883008E2,3.042871E1,0E0,2.2706445E2,1.830625E2,3.0619482E2,7.8536865E1,1.9841455E2,2.348846E1,3.5462695E2,5.0695703E2,1.352461E2,1.1969336E2,1.0704844E3,3.7518848E2,2.0743262E2,1.3236914E2,1.5795078E3,2.0047344E3,3.3604834E2,7.629492E2,2.2952344E2,2.216836E2,4.1898047E2,3.5758008E2,8.374609E1,2.1204492E2,4.696289E1,1.135957E2,5.8945312E1,4.073651E1,2.0371484E2,1.4436218E1,2.3727344E2,9.869883E2,1.3613574E2,2.0739453E2,2.4928906E2,5.8425E2,2.195039E2,1.4344531E2,5.8484375E1,5.103711E1,1.4606348E2,9.670715E1,2.0542188E2,1.771582E2,1.6512988E2,4.106543E2,5.774414E1,0E0,0E0,2.099511E1,1.2888867E2,1.0295166E2,1.3711719E2,0E0,7.382472E1,0E0,4.4396484E1,2.8662793E2,0E0,7.199805E1,0E0,0E0,0E0,0E0,0E0,0E0,0E0,0E0,0E0,0E0,0E0,0E0,0E0,0E0,0E0,0E0,0E0,0E0,0E0,0E0,0E0,0E0,0E0,0E0,0E0,0E0,0E0,0E0,0E0,0E0,0E0,0E0,0E0,0E0,0E0,0E0,0E0,0E0,0E0,0E0,0E0,0E0,0E0,0E0,0E0,0E0,0E0,0E0,0E0,0E0,0E0,0E0,0E0,0E0,0E0,0E0,0E0,0E0,0E0,0E0,0E0,0E0,0E0,0E0,0E0,0E0,0E0,0E0,0E0,0E0,0E0,0E0,0E0,0E0,0E0,0E0,0E0,0E0,0E0,0E0,0E0,0E0,0E0,0E0,0E0,0E0,0E0,0E0,0E0,0E0,0E0,0E0,0E0,0E0,0E0,0E0,0E0,0E0,0E0,0E0,0E0,0E0,0E0,0E0,0E0,0E0,0E0,0E0,0E0,0E0,0E0,0E0,0E0,0E0,0E0,0E0,0E0,0E0,0E0,0E0,0E0,0E0,0E0,0E0,0E0,0E0,0E0,0E0,0E0,0E0,0E0,0E0,0E0,0E0,0E0,0E0,0E0,0E0,0E0,0E0,0E0,0E0,0E0,0E0,0E0,0E0,0E0,0E0,0E0,0E0,0E0,0E0,0E0,0E0,0E0,0E0,0E0,0E0,0E0,0E0,0E0,0E0,0E0,0E0,0E0,0E0,0E0,0E0,0E0,0E0,0E0,0E0,0E0,0E0,0E0,0E0,0E0,0E0,0E0,0E0,0E0,0E0,0E0,0E0,0E0,0E0,0E0,0E0,0E0,0E0,0E0,0E0,0E0,0E0,0E0,0E0,0E0,0E0,0E0,0E0,0E0,0E0,0E0,0E0,0E0,0E0,0E0,0E0,0E0,0E0,0E0,0E0,0E0,0E0,0E0,0E0,0E0,0E0,0E0,0E0,0E0,0E0,0E0,0E0],"parents":[2147483647,0,0,1,1,2,2,3,3,4,4,5,5,6,6,7,7,8,8,9,9,10,10,11,11,12,12,13,13,14,14,15,15,16,16,17,17,18,18,19,19,20,20,21,21,22,22,23,23,24,24,25,25,26,26,27,27,28,28,29,29,30,30,31,31,32,32,33,33,34,34,35,35,36,36,37,37,38,38,39,39,40,40,41,41,42,42,43,43,44,44,45,45,46,46,47,47,48,48,49,49,50,50,51,51,52,52,53,53,54,54,55,55,56,56,57,57,58,58,59,59,60,60,63,63,64,64,65,65,66,66,67,67,68,68,69,69,70,70,71,71,72,72,73,73,74,74,75,75,76,76,77,77,78,78,79,79,80,80,81,81,82,82,83,83,84,84,85,85,86,86,87,87,88,88,89,89,90,90,91,91,92,92,93,93,94,94,95,95,96,96,97,97,98,98,99,99,100,100,101,101,102,102,103,103,104,104,105,105,106,106,107,107,108,108,109,109,110,110,111,111,112,112,113,113,114,114,115,115,116,116,117,117,118,118,119,119,120,120,121,121,123,123,124,124,125,125,126,126,127,127,128,128,129,129,130,130,131,131,132,132,133,133,134,134,135,135,136,136,137,137,138,138,139,139,140,140,141,141,142,142,143,143,144,144,145,145,146,146,147,147,148,148,149,149,150,150,151,151,152,152,153,153,154,154,155,155,156,156,157,157,158,158,159,159,160,160,161,161,162,162,163,163,164,164,165,165,166,166,167,167,168,168,169,169,170,170,171,171,172,172,173,173,174,174,175,175,176,176,177,177,178,178,179,179,181,181,182,182,183,183,184,184,185,185,186,186,187,187,188,188,189,189,190,190,191,191,192,192,193,193,194,194,195,195,196,196,197,197,198,198,199,199,200,200,201,201,202,202,203,203,204,204,205,205,206,206,207,207,208,208,209,209,210,210,211,211,212,212,213,213,214,214,215,215,216,216,217,217,218,218,219,219,220,220,221,221,222,222,223,223,224,224,225,225,226,226,227,227,230,230,231,231,232,232,233,233,235,235,237,237,238,238,240,240],"right_children":[2,4,6,8,10,12,14,16,18,20,22,24,26,28,30,32,34,36,38,40,42,44,46,48,50,52,54,56,58,60,62,64,66,68,70,72,74,76,78,80,82,84,86,88,90,92,94,96,98,100,102,104,106,108,110,112,114,116,118,120,122,-1,-1,124,126,128,130,132,134,136,138,140,142,144,146,148,150,152,154,156,158,160,162,164,166,168,170,172,174,176,178,180,182,184,186,188,190,192,194,196,198,200,202,204,206,208,210,212,214,216,218,220,222,224,226,228,230,232,234,236,238,240,-1,242,244,246,248,250,252,254,256,258,260,262,264,266,268,270,272,274,276,278,280,282,284,286,288,290,292,294,296,298,300,302,304,306,308,310,312,314,316,318,320,322,324,326,328,330,332,334,336,338,340,342,344,346,348,350,352,354,-1,356,358,360,362,364,366,368,370,372,374,376,378,380,382,384,386,388,390,392,394,396,398,400,402,404,406,408,410,412,414,416,418,420,422,424,426,428,430,432,434,436,438,440,442,444,446,448,-1,-1,450,452,454,456,-1,458,-1,460,462,-1,464,-1,-1,-1,-1,-1,-1,-1,-1,-1,-1,-1,-1,-1,-1,-1,-1,-1,-1,-1,-1,-1,-1,-1,-1,-1,-1,-1,-1,-1,-1,-1,-1,-1,-1,-1,-1,-1,-1,-1,-1,-1,-1,-1,-1,-1,-1,-1,-1,-1,-1,-1,-1,-1,-1,-1,-1,-1,-1,-1,-1,-1,-1,-1,-1,-1,-1,-1,-1,-1,-1,-1,-1,-1,-1,-1,-1,-1,-1,-1,-1,-1,-1,-1,-1,-1,-1,-1,-1,-1,-1,-1,-1,-1,-1,-1,-1,-1,-1,-1,-1,-1,-1,-1,-1,-1,-1,-1,-1,-1,-1,-1,-1,-1,-1,-1,-1,-1,-1,-1,-1,-1,-1,-1,-1,-1,-1,-1,-1,-1,-1,-1,-1,-1,-1,-1,-1,-1,-1,-1,-1,-1,-1,-1,-1,-1,-1,-1,-1,-1,-1,-1,-1,-1,-1,-1,-1,-1,-1,-1,-1,-1,-1,-1,-1,-1,-1,-1,-1,-1,-1,-1,-1,-1,-1,-1,-1,-1,-1,-1,-1,-1,-1,-1,-1,-1,-1,-1,-1,-1,-1,-1,-1,-1,-1,-1,-1,-1,-1,-1,-1,-1,-1,-1,-1,-1,-1,-1,-1,-1,-1,-1,-1,-1,-1,-1,-1,-1,-1,-1,-1,-1,-1,-1,-1],"split_conditions":[1E-45,5.929854E-1,1.6016967E0,5.04158E-1,3.763221E0,3.9192528E-1,3.763221E0,1E-45,1E-45,4.3681836E-1,3.9192528E-1,1E-45,1E-45,3.4703216E-1,1.3122338E0,1E-45,1E-45,1.5591458E0,1.7162716E0,1E-45,1E-45,-2.4636018E-1,1E-45,-9.765247E-1,5.929854E-1,1.895844E0,1.5142527E0,1E-45,-9.765247E-1,5.2042375E0,1E-45,-3.7911737E-1,7.205565E-1,2.846686E-1,2.1829E-1,1E-45,1E-45,1E-45,1E-45,1E-45,1E-45,1.7836113E0,1E-45,1E-45,5.2042375E0,1E-45,5.970376E-1,5.929854E-1,5.929854E-1,6.165616E-1,-4.4549596E-1,5.929854E-1,-9.765247E-1,1.6578892E-2,1.6578892E-2,-3.7911737E-1,2.846686E-1,1E-45,1.4918061E0,-5.7825315E-1,1.8852153E0,1.1393367E0,2.791488E-1,-3.4881082E-1,-5.5082977E-1,-4.8349014E-1,-2.3657809E-1,-5.059367E-1,-2.5902465E-1,-1.467919E-1,-5.9572285E-1,-1.1092819E0,1.3381507E0,-6.4463174E-1,-4.4549596E-1,-5.7825315E-1,-2.4636018E-1,2.846686E-1,8.156974E-1,-9.101461E-1,-1.4411749E0,1.6016967E0,1.6016967E0,-5.7825315E-1,1.6016967E0,1.6016967E0,1.895844E0,-1.0978073E0,1E-45,1E-45,-4.838589E-1,1.9221388E0,2.142756E0,1.6713785E0,1.5669293E0,-2.104961E0,1E-45,4.8380437E-1,1E-45,-5.059367E-1,-7.304022E-1,-4.6104357E-1,-3.4881082E-1,-4.4549596E-1,-5.1187456E-1,1.8297112E0,2.299151E0,-7.7738893E-1,-1.3084177E0,3.510472E-1,2.344775E0,1E-45,1E-45,1E-45,1E-45,2.1537461E0,2.013477E0,1E-45,2.4113739E0,-1.1344401E0,1E-45,-1.1756605E0,1.2914877E-1,-1.0429033E0,9.058348E-1,2.2648108E-1,2.846686E-1,-4.7224388E-2,-1.7998157E-1,1.1528724E0,1E-45,1.0293536E0,1.6472165E-1,1.3467262E0,1.213969E0,4.735188E-1,9.058348E-1,1.6122406E0,1.0812117E0,6.6128385E-1,2.882405E-1,1.6578892E-2,-3.3587924E-1,1E-45,-1.1460676E0,-6.4365424E-2,1E-45,1.446913E0,1.0148331E0,1E-45,1.1326613E0,1.9856303E0,1.3467262E0,1.6578892E-2,1E-45,1.6016967E0,1.6016967E0,8.059566E-1,1.6016967E0,-3.4881082E-1,-3.712574E-1,3.4999993E-1,-6.855091E-1,1.6016967E0,-1.3592447E0,1.2576746E0,1E-45,1.3346803E0,1.9631836E0,1.6016967E0,1.6016967E0,1E-45,1E-45,1E-45,5.2042375E0,-1.7899252E0,-9.9976075E-1,1E-45,9.675942E-1,9.081959E-1,1.5414877E-1,5.2042375E0,1.8986614E0,1E-45,1E-45,1E-45,2.2011988E0,-9.324211E-1,-1.0671004E0,-1.8282335E0,-1.3589056E0,-5.5082977E-1,-8.2018834E-1,1E-45,2.5745535E0,1.6472165E-1,2.2648108E-1,1.3614413E0,2.010512E0,-9.101461E-1,3.213127E0,8.8207597E-1,1.0148331E0,2.4810407E0,4.7002003E-1,1E-45,1.3328176E0,2.4113739E0,-6.9831896E-1,1E-45,-1.0607587E0,1E-45,1.0148331E0,1E-45,1.1138797E0,2.254989E0,1.9631836E0,5.929854E-1,-1.0429033E0,3.1031115E0,-1.2420391E0,-1.025012E-1,1E-45,1.3381507E0,-1.2216408E0,2.4355826E0,1E-45,-1.0721244E0,4.3122315E-1,7.474007E-1,3.8900024E-1,1E-45,1E-45,2.2873404E0,5.414877E-2,4.7961015E-1,8.170846E-1,-1.2419785E0,1E-45,1.0663543E0,4.1572757E0,1.184481E-2,-6.433735E-2,2.8219221E-2,1.2410583E-1,-1.730247E-1,-8.730503E-2,-2.5085822E-2,-1.12601556E-1,-2.4049723E-1,-3.2123968E-1,-1.3005672E-1,-2.1910389E-1,-2.0110987E-1,-1.0908613E-1,1.519271E-1,-6.397735E-2,-2.4461578E-1,-1.5526582E-1,-1.9126917E-1,-1.243424E-1,-2.8899297E-1,-3.5408697E-1,-1.9070983E-1,-2.470635E-1,-3.8873556E-1,-3.1650877E-1,-2.829958E-1,-1.9751692E-1,-4.586886E-1,-5.2119976E-1,-3.6318982E-1,-4.3373314E-1,9.544504E-2,2.2351705E-1,3.571608E-2,1.2725131E-1,-5.5741627E-2,7.913145E-2,4.866324E-2,2.2168246E-1,3.86913E-1,2.7479205E-1,3.0018446E-1,1.7341837E-1,2.2971268E-1,1.22441605E-1,4.9256995E-2,-1.3526145E-1,-7.580032E-3,1.3004124E-1,-7.7148974E-2,-1.4957277E-1,-1.2348457E-1,-2.0229648E-1,-2.8596285E-1,-2.0737913E-1,4.5095976E-2,1.491221E-1,4.8370775E-2,-5.1348336E-2,-5.0971117E-2,9.094938E-2,-8.930937E-2,-2.0124865E-1,1.7892395E-1,3.033988E-1,6.0334295E-2,1.8159631E-1,2.0068145E-1,3.3053495E-2,-7.263961E-2,6.0014635E-2,-1.268328E-1,-1.826781E-2,2.453629E-2,1.3034417E-1,-2.6540726E-1,-1.6454683E-1,-1.5653923E-1,-5.1263005E-2,2.8497398E-1,4.3665454E-1,-5.5715986E-2,2.2093725E-1,4.2099896E-1,1.7199057E-1,5.598259E-1,3.4107772E-1,6.6876024E-2,1.9702217E-1,2.230397E-1,3.7956965E-1,-8.2472995E-2,6.2208515E-2,7.9720065E-2,2.4031547E-1,6.735813E-1,2.752861E-1,5.8288646E-1,4.4833094E-1,4.6130475E-1,3.0552068E-1,2.3298636E-1,4.3948904E-1,6.4738564E-2,2.5930044E-1,-1.2163941E-1,1.3449684E-1,3.383921E-1,9.470293E-2,4.208354E-1,6.2231543E-3,7.0576286E-1,9.546876E-1,4.677549E-1,6.4102197E-1,7.432274E-1,2.914877E-2,4.0302095E-1,1.824854E-1,5.4733455E-1,2.4024795E-1,6.656219E-1,1.6872315E-1,2.3122315E-1,-2.085123E-2,3.2382947E-1,5.73765E-1,2.546432E-1,4.1882664E-1,2.9024795E-1,6.5271187E-1,-2.085123E-2,5.08691E-1,2.830151E-1,3.7583125E-1,1.23137034E-1,2.4103908E-1,5.4239887E-1,2.1351035E-1,4.1688916E-1,5.5316924E-3,1.1683953E-1,1.8634644E-1,1.8628322E-1,2.6198268E-1,3.6723573E-2,1.21211305E-1,1.2598155E-1,-4.6303917E-2,3.7850097E-1,2.904103E-1,4.5107546E-1,1.7246778E-1,2.6968807E-1,2.001849E-1,3.5027802E-1,2.4814998E-1,5.63876E-1,3.324678E-1,4.953188E-1,3.75753E-1,8.146389E-1,6.502917E-1,5.6405234E-1,1.6872315E-1,8.199771E-1,1.7914878E-1,7.914877E-2,5.2358127E-1,7.1988934E-1,5.2522576E-1,-4.585123E-2,1.5414877E-1,4.201014E-1,2.2456908E-1,2.9530117E-1,1.9113566E-1,6.066054E-1,3.7965393E-1,4.209775E-1,3.352498E-1,4.4305092E-1,5.0680774E-1,3.0082867E-1,4.313123E-1,4.3996462E-1,5.629398E-1,7.217453E-1,5.813718E-1,7.499645E-1,1.5414877E-1,6.578608E-1,4.219906E-1,4.8313162E-1,6.491316E-1,3.9024794E-1,3.1223154E-2,5.1366085E-1,6.3732594E-1,-2.7801642E-2,4.3258506E-1,4.4027337E-1,-1.1134974E-2,4.2167932E-1,2.8686172E-1,2.5414878E-1,1.0368445E0,5.414877E-2,4.041488E-1,6.8183184E-1,5.5936384E-1,5.1160276E-1,2.724678E-1,7.620594E-1,2.055317E-1,-2.085123E-2,4.555317E-1,5.077049E-1,7.285553E-1,6.551937E-1,4.116939E-1,8.5465205E-1,1.7914878E-1],"split_indices":[15,7,7,9,7,9,7,16,16,9,9,16,16,9,9,15,15,9,9,16,16,5,15,5,7,9,9,16,5,7,4,5,13,5,5,15,15,15,15,15,15,9,15,16,7,16,13,7,7,5,5,7,5,7,7,5,5,16,9,5,14,0,0,9,9,9,9,9,9,9,9,5,13,5,5,5,5,5,5,5,5,7,7,5,7,7,9,11,4,15,21,3,9,9,0,5,2,5,4,9,9,9,9,5,5,21,20,5,5,5,9,4,2,2,2,12,12,4,17,9,2,5,0,5,13,13,5,5,5,13,4,13,13,5,5,13,13,5,5,9,13,7,0,4,11,21,2,9,5,2,9,9,5,7,4,7,7,3,7,9,9,13,9,7,14,21,4,9,9,7,7,2,4,15,7,14,9,4,13,9,0,7,11,2,2,4,0,9,9,3,9,9,9,2,12,13,13,11,5,5,8,5,5,12,20,2,20,17,0,4,0,4,5,4,0,9,9,7,5,17,5,21,22,13,6,3,4,14,0,0,0,2,2,21,0,0,0,0,4,0,8,0,0,0,0,0,0,0,0,0,0,0,0,0,0,0,0,0,0,0,0,0,0,0,0,0,0,0,0,0,0,0,0,0,0,0,0,0,0,0,0,0,0,0,0,0,0,0,0,0,0,0,0,0,0,0,0,0,0,0,0,0,0,0,0,0,0,0,0,0,0,0,0,0,0,0,0,0,0,0,0,0,0,0,0,0,0,0,0,0,0,0,0,0,0,0,0,0,0,0,0,0,0,0,0,0,0,0,0,0,0,0,0,0,0,0,0,0,0,0,0,0,0,0,0,0,0,0,0,0,0,0,0,0,0,0,0,0,0,0,0,0,0,0,0,0,0,0,0,0,0,0,0,0,0,0,0,0,0,0,0,0,0,0,0,0,0,0,0,0,0,0,0,0,0,0,0,0,0,0,0,0,0,0,0,0,0,0,0,0,0,0,0,0,0,0,0,0,0,0,0,0,0,0,0,0,0,0,0,0,0,0,0,0,0,0,0,0,0,0,0,0,0,0,0],"split_type":[1,0,0,0,0,0,0,1,1,0,0,1,1,0,0,1,1,0,0,1,1,0,1,0,0,0,0,1,0,0,1,0,0,0,0,1,1,1,1,1,1,0,1,1,0,1,0,0,0,0,0,0,0,0,0,0,0,1,0,0,0,0,0,0,0,0,0,0,0,0,0,0,0,0,0,0,0,0,0,0,0,0,0,0,0,0,0,0,1,1,0,0,0,0,0,0,1,0,1,0,0,0,0,0,0,0,0,0,0,0,0,1,1,1,1,0,0,1,0,0,1,0,0,0,0,0,0,0,0,0,1,0,0,0,0,0,0,0,0,0,0,0,0,1,0,0,1,0,0,1,0,0,0,0,1,0,0,0,0,0,0,0,0,0,0,0,1,0,0,0,0,1,1,1,0,0,0,1,0,0,0,0,0,1,1,1,0,0,0,0,0,0,0,1,0,0,0,0,0,0,0,0,0,0,0,1,0,0,0,1,0,1,0,1,0,0,0,0,0,0,0,0,1,0,0,0,1,0,0,0,0,1,1,0,0,0,0,0,1,0,0,0,0,0,0,0,0,0,0,0,0,0,0,0,0,0,0,0,0,0,0,0,0,0,0,0,0,0,0,0,0,0,0,0,0,0,0,0,0,0,0,0,0,0,0,0,0,0,0,0,0,0,0,0,0,0,0,0,0,0,0,0,0,0,0,0,0,0,0,0,0,0,0,0,0,0,0,0,0,0,0,0,0,0,0,0,0,0,0,0,0,0,0,0,0,0,0,0,0,0,0,0,0,0,0,0,0,0,0,0,0,0,0,0,0,0,0,0,0,0,0,0,0,0,0,0,0,0,0,0,0,0,0,0,0,0,0,0,0,0,0,0,0,0,0,0,0,0,0,0,0,0,0,0,0,0,0,0,0,0,0,0,0,0,0,0,0,0,0,0,0,0,0,0,0,0,0,0,0,0,0,0,0,0,0,0,0,0,0,0,0,0,0,0,0,0,0,0,0,0,0,0,0,0,0,0,0,0,0,0,0,0,0,0,0,0,0,0,0,0,0,0,0,0,0],"sum_hessian":[8E4,5.6367E4,2.3633E4,4.1561E4,1.4806E4,2.1219E4,2.414E3,3.1344E4,1.0217E4,1.3441E4,1.365E3,1.5582E4,5.637E3,1.843E3,5.71E2,6.337E3,2.5007E4,2.089E3,8.128E3,9.987E3,3.454E3,1.007E3,3.58E2,3.1E3,1.2482E4,1.062E3,4.575E3,1.323E3,5.2E2,5.02E2,6.9E1,4.112E3,2.225E3,1.6149E4,8.858E3,1.234E3,8.55E2,5.188E3,2.94E3,1.974E3,8.013E3,7.03E2,2.751E3,4.34E2,5.73E2,2.27E2,1.31E2,1.205E3,1.895E3,1.0238E4,2.244E3,7.59E2,3.03E2,2.759E3,1.816E3,2.82E2,1.041E3,1.16E2,4.04E2,3.6E2,1.42E2,6.8E1,1E0,2.269E3,1.843E3,1.356E3,8.69E2,7.985E3,8.164E3,3.917E3,4.941E3,7.97E2,4.37E2,5.36E2,3.19E2,3.338E3,1.85E3,1.889E3,1.051E3,1.259E3,7.15E2,5.226E3,2.787E3,4.73E2,2.3E2,1.776E3,9.75E2,1.6E2,2.74E2,4.25E2,1.48E2,5.2E1,1.75E2,9.2E1,3.9E1,1.004E3,2.01E2,1.586E3,3.09E2,6.932E3,3.306E3,6.53E2,1.591E3,6.2E2,1.39E2,1.38E2,1.65E2,1.993E3,7.66E2,1.317E3,4.99E2,1.76E2,1.06E2,6.01E2,4.4E2,5E1,6.6E1,2.58E2,1.46E2,1.49E2,2.11E2,1.41E2,1E0,1.384E3,8.85E2,9.03E2,9.4E2,6.94E2,6.62E2,5.91E2,2.78E2,3.874E3,4.111E3,5.604E3,2.56E3,2.782E3,1.135E3,2.291E3,2.65E3,2.47E2,5.5E2,3.74E2,6.3E1,2.79E2,2.57E2,1.93E2,1.26E2,6.87E2,2.651E3,5.89E2,1.261E3,1.039E3,8.5E2,7.94E2,2.57E2,4.85E2,7.74E2,1.25E2,5.9E2,3.477E3,1.749E3,1.861E3,9.26E2,2.44E2,2.29E2,1.57E2,7.3E1,1.168E3,6.08E2,6.91E2,2.84E2,3E1,1.3E2,1.34E2,1.4E2,2.61E2,1.64E2,3.5E1,1.13E2,5.1E1,1E0,1.28E2,4.7E1,6.9E1,2.3E1,3.5E1,4E0,1.52E2,8.52E2,9.5E1,1.06E2,1.291E3,2.95E2,8.2E1,2.27E2,3.394E3,3.538E3,1.316E3,1.99E3,3.6E2,2.93E2,1.044E3,5.47E2,3.74E2,2.46E2,9.5E1,4.4E1,1.32E2,6E0,1.63E2,2E0,4.08E2,1.585E3,7.8E1,6.88E2,8.65E2,4.52E2,2.32E2,2.67E2,1.45E2,3.1E1,9.8E1,8E0,4.48E2,1.53E2,1.79E2,2.61E2,4.7E1,3E0,6.4E1,2E0,1.92E2,6.6E1,1.45E2,1E0,3E0,1.46E2,1.35E2,7.6E1,2.9E1,1.12E2,7.86E2,5.98E2,4.88E2,3.97E2,6.33E2,2.7E2,4.98E2,4.42E2,3.24E2,3.7E2,3.16E2,3.46E2,2.55E2,3.36E2,1.6E1,2.62E2,2.868E3,1.006E3,1.48E3,2.631E3,3.945E3,1.659E3,1.804E3,7.56E2,1.277E3,1.505E3,8.25E2,3.1E2,1.851E3,4.4E2,1.598E3,1.052E3,5.8E1,1.89E2,2.85E2,2.65E2,3.13E2,6.1E1,3.1E1,3.2E1,1.35E2,1.44E2,3.7E1,2.2E2,8.5E1,1.08E2,1.05E2,2.1E1,6.01E2,8.6E1,2.022E3,6.29E2,2.73E2,3.16E2,7.99E2,4.62E2,1.89E2,8.5E2,7.05E2,1.45E2,6.85E2,1.09E2,1E2,1.57E2,3.21E2,1.64E2,5.35E2,2.39E2,9.2E1,3.3E1,3.92E2,1.98E2,2.211E3,1.266E3,1.07E3,6.79E2,1.17E3,6.91E2,3.77E2,5.49E2,1.73E2,7.1E1,2.1E1,2.08E2,1.44E2,1.3E1,5.9E1,1.4E1,6.45E2,5.23E2,4.19E2,1.89E2,4.64E2,2.27E2,1.9E2,9.4E1,5E0,2.5E1,8E1,5E1,9.6E1,3.8E1,1.06E2,3.4E1,2.1E1,2.4E2,2.6E1,1.38E2,1.7E1,1.8E1,1.1E2,3E0,2.2E1,2.9E1,8.8E1,4E1,4.6E1,1E0,2.9E1,4E1,1.8E1,5E0,3.2E1,3E0,3E0,1E0,2.1E1,1.31E2,5.6E1,7.96E2,5E0,9E1,1E0,1.05E2,6.48E2,6.43E2,1.13E2,1.82E2,7.5E1,7E0,2.25E2,2E0,1.397E3,1.997E3,1.696E3,1.842E3,1.186E3,1.3E2,1.924E3,6.6E1,2.04E2,1.56E2,2.84E2,9E0,7.05E2,3.39E2,4.24E2,1.23E2,3.65E2,9E0,1.73E2,7.3E1,4.5E1,5E1,4.1E1,3E0,1.31E2,1E0,1E0,5E0,1.32E2,3.1E1,1E0,1E0,3.88E2,2E1,1.3E3,2.85E2,6.3E1,1.5E1,5.78E2,1.1E2,3.57E2,5.08E2,1.34E2,3.18E2,8.4E1,1.48E2,4.3E1,2.24E2,1.44E2,1E0,1.8E1,1.3E1,4.9E1,4.9E1,5E0,3E0,3.89E2,5.9E1,2E0,1.51E2,1.77E2,2E0,1.03E2,1.58E2,1E0,4.6E1,1E0,1E0,1.07E2,8.5E1,5.7E1,9E0,1.43E2,2E0,1E0,2E0,1.3E1,1.22E2,5E1,2.6E1,1.11E2,1E0],"tree_param":{"num_deleted":"0","num_feature":"25","num_nodes":"465","size_leaf_vector":"1"}},{"base_weights":[6.425647E-4,-2.5079532E0,5.98374E0,-3.6556594E0,7.1373075E-1,5.325991E0,1.1760738E1,-4.663015E0,-5.651119E-1,5.714807E-2,7.1742506E0,4.4529157E0,8.947505E0,1.055391E1,1.5630721E1,-1.7355525E0,-5.4047613E0,2.419074E0,-1.3322891E0,-9.470725E-1,3.1425004E0,5.889408E0,1.0761848E1,7.378312E0,3.7276988E0,1.2182915E1,8.203992E0,9.455594E0,1.3324769E1,1.4636596E1,2.065837E1,-7.474174E-1,-3.560559E0,-4.3861146E0,-7.2611494E0,1.3612307E0,3.942459E0,-2.4399056E0,6.224046E-1,1.8147082E0,-1.6303532E0,6.35003E0,2.329383E0,7.793542E0,4.436119E0,1.2356505E1,7.925912E0,8.843395E0,6.434374E0,3.2260692E0,6.0262356E0,1.1017048E1,1.42564945E1,7.233743E0,9.526809E0,1.2536382E1,8.609799E0,1.633945E1,1.242096E1,1.3712974E1,1.6926027E1,2.1629185E1,1.546562E1,2.844339E-1,-2.0172412E0,-2.7836418E0,-5.002966E0,-3.4943535E0,-5.2577887E0,-6.256287E0,-8.230942E0,2.1949644E0,-1.6087131E-1,5.03331E0,2.0995543E0,-1.3859267E0,-4.339849E0,1.6299198E0,-1.1882666E0,2.7731164E0,1.3501458E-1,-6.5574324E-1,-3.4576876E0,5.2470617E0,8.409108E0,3.426164E0,3.3487752E-1,9.604066E0,6.7052226E0,3.5388253E0,6.9717636E0,1.6231369E1,1.1119435E1,6.4325504E0,1.1199829E1,8.360086E0,1.1175523E1,5.270723E0,7.440843E0,3.8591876E0,1.8732005E0,7.5341845E0,5.401901E0,1.1930074E1,9.457782E0,1.4346123E1,1.407868E0,6.5651045E0,8.8321085E0,8.947815E0,1.1087413E1,1.3458525E1,9.98479E0,9.604744E0,7.232098E0,1.9020683E1,1.4054639E1,1.1436247E1,1.4535227E1,1.5282282E1,1.2503066E1,1.9505754E1,1.5620764E1,1.0887176E0,2.7217007E-1,1.9385643E-1,7.959615E-1,-4.00838E-1,1.3553336E0,-2.8031518E0,-1.2600888E0,-3.654612E0,-1.9112365E0,-5.5802584E0,-3.2602892E0,-4.207833E0,-2.8211465E0,-5.8582516E0,-3.941564E0,-6.761862E0,-4.989357E0,-9.020041E0,-7.5375476E0,3.6863282E0,1.5197316E0,-1.3403032E0,1.0139307E0,6.6668577E0,3.972096E0,3.2437067E0,3.35262E-1,1.86599E-1,-1.7933595E0,-3.155285E0,-4.8902082E0,2.4751403E0,5.9506756E-1,-1.6599531E0,1.1688769E0,3.5119424E0,9.445157E-1,3.2042978E0,-4.4224942E-1,-1.631884E0,1.2875537E0,-4.310401E0,-1.7458748E0,5.501891E0,-9.904536E-1,6.850525E0,9.158906E0,2.486024E0,5.2138047E0,-6.287549E-1,2.538223E0,1.0149706E1,6.7704725E0,7.9803133E0,5.4368362E0,4.636342E0,1.7746546E0,4.176415E0,7.7933497E0,1.64279E1,1.5029506E-1,1.001115E1,1.3866294E1,5.320908E0,9.4068165E0,1.2205927E1,4.7130914E0,7.040372E0,9.032027E0,9.864501E0,1.2201512E1,7.190868E0,4.7579837E0,6.904218E0,8.822975E0,3.2645814E0,4.936927E0,1.3452686E0,3.0572057E0,6.5539217E0,8.660934E0,4.8614297E0,6.8508296E0,1.1156212E1,1.427905E1,9.742094E0,5.2283196E0,1.4839297E1,1.1611266E1,-4.4704963E-2,1.5029506E-1,7.913973E0,5.836554E0,9.486593E0,7.3043723E0,9.078442E0,5.271371E0,1.156832E1,9.175331E0,1.3967195E1,1.0855496E1,1.0811265E1,6.8058534E0,1.0097839E1,8.1047125E0,7.596934E0,5.0047874E0,1.9517723E1,4.1505232E-1,1.4212111E1,5.957868E0,1.1830171E1,8.117365E0,1.4635416E1,5.279503E-2,6.40191E0,1.5422832E1,1.3631266E1,1.1141291E1,1.0023712E0,4.741737E-1,1.5804387E1,2.3913501E-1,-4.5539297E-2,3.39201E-2,2.6811143E-2,1.1791616E-1,-1.6438709E-1,-8.295589E-2,-2.3834065E-2,-1.0698415E-1,-2.1600704E-1,-1.1514335E-1,3.3516534E-2,-1.1004305E-1,-2.902869E-1,-1.4730732E-1,-1.4393015E-1,-2.2956339E-1,-2.2979136E-1,-1.3861398E-1,-1.817122E-1,-1.1812766E-1,-2.7454695E-1,-3.3639327E-1,-1.8246637E-1,-2.3821259E-1,-3.9671832E-1,-3.1561705E-1,-2.063653E-1,-2.7875966E-1,-4.3900344E-1,-4.9519882E-1,-3.4919125E-1,-4.120671E-1,1.4509864E-1,2.5397262E-1,3.3936474E-2,1.2091269E-1,-1.3431078E-1,-1.240871E-2,1.8886484E-2,1.3921967E-1,3.9068705E-1,2.722779E-1,2.9743353E-1,1.7890723E-1,2.1836057E-1,1.1637565E-1,4.6817366E-2,-1.2880579E-1,-7.2016716E-3,1.2361393E-1,-7.329346E-2,-1.4210604E-1,-1.0455725E-1,-1.8646188E-1,-2.931275E-1,-2.17019E-1,6.1872866E-2,1.4783229E-1,4.595568E-2,-4.8798535E-2,-5.3599805E-2,-1.5449516E-1,-4.093545E-2,1.2291213E-1,1.3726842E-1,2.5256148E-1,8.669523E-3,1.3827996E-1,2.0114163E-1,4.1508023E-2,-6.465048E-2,6.063811E-2,-1.2049401E-1,-1.634573E-2,1.0920054E-1,7.247992E-3,-2.7876362E-1,-1.794944E-1,-1.4873295E-1,-4.6034783E-2,3.2069597E-1,1.8731728E-1,1.1575977E-1,-1.9332461E-1,1.6588277E-1,3.71688E-1,4.6557283E-1,5.7425547E-2,9.282653E-2,2.4647959E-1,2.1205175E-1,3.6069104E-1,-7.544791E-2,5.9622873E-2,7.575496E-2,2.2842613E-1,5.137096E-1,-1.5705954E-1,3.6509472E-1,-2.0273338E-1,4.1108423E-1,7.1026884E-2,2.214459E-1,4.181424E-1,6.1648734E-2,2.4638925E-1,-1.157827E-1,1.2782039E-1,2.7489036E-1,9.55079E-3,4.5988926E-1,3.1137747E-1,6.72009E-1,9.085445E-1,4.4462997E-1,6.0975266E-1,7.0685667E-1,2.8420066E-2,3.835416E-1,1.7358367E-1,4.8877808E-1,2.3142576E-2,6.48403E-1,1.62396E-1,3.1304508E-1,2.8118834E-2,2.502181E-1,3.732135E-1,5.7283133E-1,4.2886335E-1,8.071186E-1,4.6921918E-1,6.4815825E-1,5.0109607E-1,3.8348874E-1,2.3501723E-1,2.1220827E-1,3.269417E-1,3.0445307E-1,3.8944873E-1,5.072026E-1,4.1387066E-1,1.3592412E-1,2.0512596E-1,2.0820741E-1,2.8429845E-1,4.141429E-2,9.40109E-2,1.9453885E-1,1.325696E-1,3.6660597E-1,2.7795812E-1,4.4686753E-1,3.216742E-1,2.6487723E-1,1.976701E-1,3.4745488E-1,1.0593323E-1,5.637867E-1,6.8755604E-2,2.8385532E-1,7.220699E-1,5.104936E-1,4.034345E-1,3.9091694E-1,2.3595175E-2,7.4405223E-1,1.3615155E-1,6.7921317E-1,4.5238248E-1,4.4443485E-1,3.647693E-1,3.1203485E-1,2.4268687E-1,5.6925297E-1,4.576285E-1,2.1269801E-1,3.991657E-1,4.8636457E-1,4.248696E-1,3.0490184E-1,7.0455946E-2,7.0929784E-1,5.5119085E-1,5.5386955E-1,3.6620563E-1,7.007416E-1,1.5029506E-1,3.9783224E-1,6.1074835E-1,4.7296277E-1,6.757776E-1,3.9851078E-1,-1.0304089E-1,4.5905694E-1,5.4084915E-1,3.7858957E-1,5.648349E-1,4.7022825E-1,3.554639E-1,3.098646E-1,8.9574866E-2,2.4779506E-1,9.8610526E-1,5.053887E-1,7.387289E-1,5.279503E-2,3.9404508E-1,6.0007393E-1,3.2678816E-1,4.6989393E-1,2.1161969E-1,7.3888147E-1,1.9868062E-1,-2.0329952E-2,4.4034728E-1,8.6702794E-1,7.245555E-1,4.4962102E-1,6.984484E-1,7.1659297E-1,5.0632215E-1,7.9543537E-1,1.5778247E-1],"categories":[1,0,2,0,2,0,2,0,2,0,0,0,2,0,2,0,0,2,3,6,9,10,0,0,0,0,0,0,0,0,2,0,2,0,2,13,0,1,2,3,9,10,11,12,0,0,1,2,0,8,9,11,12,14,1,2,4,6,10,11,2,7,11,13,0,4,6,8,9,5,7,8,10,0,9,10,11,1,3,4,5,7,8,0,7,9,10,0,1,5,7,8,10,11,0,1,8,9,10,11,12,13,14,3,4,8,1,4,6,7,9,12,13,0,3,0,4,5,6,7,1,3,4,5,8,11,3,5,7,8,9,10,11,0,5,8,10,11,13,14,0,1,4,5,6,7,9,10,12,13,0,1,2,3,7,8,9,11,12,13,14,3,5,9,10,13,0,3,4,7,13,0,1,4,7,11,4,5,10,12,13,1,2,3,4,7,11,12,13,14,2,0,1,2,5,6,7,9,10,11,0,3,4,9,10,11,2,6,9,10,11,0,2],"categories_nodes":[0,7,8,11,12,15,16,19,20,22,27,30,35,36,37,38,39,40,42,43,45,57,61,88,89,97,105,110,111,112,113,117,120,134,140,147,150,153,167,176,181,182,187,189,198,202,204,206,209,215,220,222,226,229,230,236,240],"categories_segments":[0,1,3,5,7,9,10,11,13,15,16,18,22,23,24,25,26,27,28,29,31,33,35,36,44,45,48,54,60,64,69,73,77,83,87,94,103,106,113,114,115,120,126,133,140,150,161,165,166,171,176,181,190,191,200,206,211],"categories_sizes":[1,2,2,2,2,1,1,2,2,1,2,4,1,1,1,1,1,1,1,2,2,2,1,8,1,3,6,6,4,5,4,4,6,4,7,9,3,7,1,1,5,6,7,7,10,11,4,1,5,5,5,9,1,9,6,5,2],"default_left":[1,0,0,0,0,0,0,1,1,0,0,1,1,0,0,1,1,0,0,1,1,0,1,0,0,0,0,1,0,0,1,0,0,0,0,1,1,1,1,1,1,0,1,1,0,1,0,0,0,0,0,0,0,0,0,0,0,1,0,0,0,1,0,0,0,0,0,0,0,0,0,0,0,0,0,0,0,0,0,0,0,0,0,0,0,0,0,0,1,1,0,0,0,0,0,0,0,1,0,0,0,0,0,0,0,1,0,0,0,0,1,1,1,1,0,0,0,1,0,0,1,0,0,0,0,0,0,0,0,0,0,0,0,0,1,0,0,0,0,0,1,0,0,0,0,0,0,1,0,0,1,0,0,1,0,0,0,0,0,0,0,0,0,0,0,0,0,1,0,0,0,0,0,0,0,0,1,0,0,0,0,1,1,0,0,0,0,1,0,1,0,0,0,0,0,0,0,0,1,0,0,0,1,0,1,0,1,0,0,1,0,0,0,0,0,1,0,0,0,0,1,0,1,0,0,0,1,0,0,1,1,0,0,0,0,0,1,0,0,0,1,0,0,0,0,0,0,0,0,0,0,0,0,0,0,0,0,0,0,0,0,0,0,0,0,0,0,0,0,0,0,0,0,0,0,0,0,0,0,0,0,0,0,0,0,0,0,0,0,0,0,0,0,0,0,0,0,0,0,0,0,0,0,0,0,0,0,0,0,0,0,0,0,0,0,0,0,0,0,0,0,0,0,0,0,0,0,0,0,0,0,0,0,0,0,0,0,0,0,0,0,0,0,0,0,0,0,0,0,0,0,0,0,0,0,0,0,0,0,0,0,0,0,0,0,0,0,0,0,0,0,0,0,0,0,0,0,0,0,0,0,0,0,0,0,0,0,0,0,0,0,0,0,0,0,0,0,0,0,0,0,0,0,0,0,0,0,0,0,0,0,0,0,0,0,0,0,0,0,0,0,0,0,0,0,0,0,0,0,0,0,0,0,0,0,0,0,0,0,0,0,0,0,0,0,0,0,0,0,0,0,0,0,0,0,0,0,0,0,0,0,0,0,0,0,0,0,0,0,0,0],"id":1,"left_children":[1,3,5,7,9,11,13,15,17,19,21,23,25,27,29,31,33,35,37,39,41,43,45,47,49,51,53,55,57,59,61,63,65,67,69,71,73,75,77,79,81,83,85,87,89,91,93,95,97,99,101,103,105,107,109,111,113,115,117,119,121,123,125,127,129,131,133,135,137,139,141,143,145,147,149,151,153,155,157,159,161,163,165,167,169,171,173,175,177,179,181,183,185,187,189,191,193,195,197,199,201,203,205,207,209,211,213,215,217,219,221,223,225,227,229,231,233,235,237,239,241,243,245,-1,-1,-1,-1,247,249,251,253,255,257,259,261,263,265,267,269,271,273,275,277,279,281,283,285,287,289,291,293,295,297,299,301,303,305,307,309,311,313,315,317,319,321,323,325,327,329,331,333,335,337,339,341,343,345,347,349,351,353,355,357,359,-1,361,363,365,367,369,371,373,375,377,379,381,383,385,387,389,391,393,395,397,399,401,403,405,407,409,411,413,415,-1,-1,417,419,421,423,425,427,429,431,433,435,437,439,441,443,445,447,449,-1,451,453,455,457,459,-1,461,463,465,467,-1,-1,469,-1,-1,-1,-1,-1,-1,-1,-1,-1,-1,-1,-1,-1,-1,-1,-1,-1,-1,-1,-1,-1,-1,-1,-1,-1,-1,-1,-1,-1,-1,-1,-1,-1,-1,-1,-1,-1,-1,-1,-1,-1,-1,-1,-1,-1,-1,-1,-1,-1,-1,-1,-1,-1,-1,-1,-1,-1,-1,-1,-1,-1,-1,-1,-1,-1,-1,-1,-1,-1,-1,-1,-1,-1,-1,-1,-1,-1,-1,-1,-1,-1,-1,-1,-1,-1,-1,-1,-1,-1,-1,-1,-1,-1,-1,-1,-1,-1,-1,-1,-1,-1,-1,-1,-1,-1,-1,-1,-1,-1,-1,-1,-1,-1,-1,-1,-1,-1,-1,-1,-1,-1,-1,-1,-1,-1,-1,-1,-1,-1,-1,-1,-1,-1,-1,-1,-1,-1,-1,-1,-1,-1,-1,-1,-1,-1,-1,-1,-1,-1,-1,-1,-1,-1,-1,-1,-1,-1,-1,-1,-1,-1,-1,-1,-1,-1,-1,-1,-1,-1,-1,-1,-1,-1,-1,-1,-1,-1,-1,-1,-1,-1,-1,-1,-1,-1,-1,-1,-1,-1,-1,-1,-1,-1,-1,-1,-1,-1,-1,-1,-1,-1,-1,-1,-1,-1,-1,-1,-1,-1,-1,-1,-1,-1,-1,-1,-1,-1,-1,-1,-1,-1,-1,-1,-1,-1],"loss_changes":[1.2007639E6,2.0842597E5,8.974219E4,1.293915E5,6.2808895E4,6.705469E4,1.1114094E4,6.805419E4,2.3396307E4,4.165133E4,6.2331953E3,3.6251E4,9.813375E3,5.4858125E3,2.5565469E3,1.142699E4,4.7258438E4,3.3626738E3,1.7601215E4,1.9141639E4,8.594541E3,2.7548242E3,1.5255859E3,4.639578E3,1.5782625E4,1.6995938E3,4.2358125E3,3.3420234E3,1.2166094E3,7.85E2,1.2928125E2,5.389712E3,2.4805977E3,1.2535406E4,8.581656E3,1.5676023E3,1.7102783E3,1.0384959E4,5.36714E3,3.2386084E3,1.4478541E4,1.4707012E3,5.763008E3,7.927363E2,1.2813027E3,9.124297E2,5.7332324E2,1.4034062E3,2.3839531E3,9.630406E3,2.2696562E3,5.933008E2,2.941875E2,2.0142812E3,1.1802656E3,5.315E2,1.3588438E3,4.4942578E2,6.7696094E2,4.6967578E2,1.4651562E2,5.769922E1,3.2898926E1,1.6663997E3,1.0937476E3,1.0940215E3,7.6450195E2,3.823961E3,6.4300625E3,2.7557656E3,2.3969688E3,7.979978E2,6.082513E2,9.044326E2,6.448707E2,2.139627E3,1.1913047E3,1.6516694E3,1.1715885E3,1.7273359E3,1.2983649E3,1.0063425E4,4.120461E3,7.000625E2,2.0720801E2,2.8441152E3,1.9889253E3,1.8020801E2,4.013711E2,8.165967E2,3.0964795E2,8.837793E1,3.9697852E2,2.5743506E2,2.0352441E2,9.1540625E2,1.8228516E2,9.1389453E2,7.601289E2,4.895211E3,2.2392793E3,7.340664E2,1.3285117E3,4.0239453E2,1.7513477E2,1.9321094E2,1.3723436E1,1.3011172E3,4.9963672E2,4.5064062E2,2.4235938E2,1.1981641E2,1.3397754E2,3.634297E2,3.2033594E2,1.0971484E2,7.529297E-1,2.7134375E2,1.5335742E2,8.474219E1,1.5847461E2,3.2458984E1,1.11484375E2,0E0,0E0,0E0,0E0,7.628612E2,7.2663696E2,4.9571143E2,6.47405E2,6.4138086E2,5.442947E2,3.2916016E2,8.635449E1,2.1455781E3,1.5247031E3,1.7534219E3,5.983242E2,1.5890938E3,6.0624414E2,3.5890625E2,8.792969E2,2.5625024E2,4.1472693E2,3.2124368E2,2.467497E2,2.5159375E2,2.3411963E2,1.8952869E2,2.246604E2,5.2029126E2,9.066875E2,3.525537E2,6.4924805E2,6.161304E2,4.3413153E2,7.340244E2,4.530522E2,1.0622715E3,5.1910535E2,2.2208472E2,8.703153E2,3.5840996E3,1.8167673E3,1.6997188E3,9.5241797E2,6.4843555E2,1.8008081E2,1.3811646E2,1.7627148E2,1.7074897E3,1.1075557E3,1.0469796E3,5.850939E2,2.523252E2,1.9643542E2,2.0207227E2,3.787964E2,2.5379834E2,5.335256E2,1.8853564E2,1.9341357E2,2.6573242E1,0E0,2.0667578E2,1.648418E2,2.7755872E2,7.462793E1,1.900044E2,4.1450653E1,2.8802148E2,7.044297E2,1.6198242E2,7.261328E1,2.036875E2,6.7041797E2,5.309883E2,1.3657422E2,2.250293E3,1.5525156E3,6.854165E2,3.638164E2,2.5882422E2,1.456836E2,4.8198242E2,2.0383594E2,2.615625E2,1.9961914E1,5.460547E1,1.6877945E2,7.379297E1,1.0976318E2,0E0,0E0,2.2336523E2,3.248047E2,1.4628125E2,3.2847363E2,2.9473438E2,1.1273328E2,2.6978125E2,2.040791E2,4.559375E1,5.2563965E1,9.518213E1,2.1258148E2,1.966875E2,1.7642969E2,2.654668E2,2.3796875E2,4.511328E1,0E0,7.167969E-1,1.995848E1,1.4739844E2,1.243916E2,1.2929492E2,0E0,6.907973E1,6.0117188E0,4.0441406E1,1.6894922E2,0E0,0E0,7.119141E1,0E0,0E0,0E0,0E0,0E0,0E0,0E0,0E0,0E0,0E0,0E0,0E0,0E0,0E0,0E0,0E0,0E0,0E0,0E0,0E0,0E0,0E0,0E0,0E0,0E0,0E0,0E0,0E0,0E0,0E0,0E0,0E0,0E0,0E0,0E0,0E0,0E0,0E0,0E0,0E0,0E0,0E0,0E0,0E0,0E0,0E0,0E0,0E0,0E0,0E0,0E0,0E0,0E0,0E0,0E0,0E0,0E0,0E0,0E0,0E0,0E0,0E0,0E0,0E0,0E0,0E0,0E0,0E0,0E0,0E0,0E0,0E0,0E0,0E0,0E0,0E0,0E0,0E0,0E0,0E0,0E0,0E0,0E0,0E0,0E0,0E0,0E0,0E0,0E0,0E0,0E0,0E0,0E0,0E0,0E0,0E0,0E0,0E0,0E0,0E0,0E0,0E0,0E0,0E0,0E0,0E0,0E0,0E0,0E0,0E0,0E0,0E0,0E0,0E0,0E0,0E0,0E0,0E0,0E0,0E0,0E0,0E0,0E0,0E0,0E0,0E0,0E0,0E0,0E0,0E0,0E0,0E0,0E0,0E0,0E0,0E0,0E0,0E0,0E0,0E0,0E0,0E0,0E0,0E0,0E0,0E0,0E0,0E0,0E0,0E0,0E0,0E0,0E0,0E0,0E0,0E0,0E0,0E0,0E0,0E0,0E0,0E0,0E0,0E0,0E0,0E0,0E0,0E0,0E0,0E0,0E0,0E0,0E0,0E0,0E0,0E0,0E0,0E0,0E0,0E0,0E0,0E0,0E0,0E0,0E0,0E0,0E0,0E0,0E0,0E0,0E0,0E0,0E0,0E0,0E0,0E0,0E0,0E0,0E0,0E0,0E0,0E0,0E0,0E0,0E0,0E0,0E0,0E0,0E0,0E0,0E0,0E0,0E0,0E0,0E0,0E0,0E0,0E0,0E0,0E0,0E0,0E0,0E0,0E0,0E0],"parents":[2147483647,0,0,1,1,2,2,3,3,4,4,5,5,6,6,7,7,8,8,9,9,10,10,11,11,12,12,13,13,14,14,15,15,16,16,17,17,18,18,19,19,20,20,21,21,22,22,23,23,24,24,25,25,26,26,27,27,28,28,29,29,30,30,31,31,32,32,33,33,34,34,35,35,36,36,37,37,38,38,39,39,40,40,41,41,42,42,43,43,44,44,45,45,46,46,47,47,48,48,49,49,50,50,51,51,52,52,53,53,54,54,55,55,56,56,57,57,58,58,59,59,60,60,61,61,62,62,63,63,64,64,65,65,66,66,67,67,68,68,69,69,70,70,71,71,72,72,73,73,74,74,75,75,76,76,77,77,78,78,79,79,80,80,81,81,82,82,83,83,84,84,85,85,86,86,87,87,88,88,89,89,90,90,91,91,92,92,93,93,94,94,95,95,96,96,97,97,98,98,99,99,100,100,101,101,102,102,103,103,104,104,105,105,106,106,107,107,108,108,109,109,110,110,111,111,112,112,113,113,114,114,115,115,116,116,117,117,118,118,119,119,120,120,121,121,122,122,127,127,128,128,129,129,130,130,131,131,132,132,133,133,134,134,135,135,136,136,137,137,138,138,139,139,140,140,141,141,142,142,143,143,144,144,145,145,146,146,147,147,148,148,149,149,150,150,151,151,152,152,153,153,154,154,155,155,156,156,157,157,158,158,159,159,160,160,161,161,162,162,163,163,164,164,165,165,166,166,167,167,168,168,169,169,170,170,171,171,172,172,173,173,174,174,175,175,176,176,177,177,178,178,179,179,180,180,181,181,182,182,183,183,185,185,186,186,187,187,188,188,189,189,190,190,191,191,192,192,193,193,194,194,195,195,196,196,197,197,198,198,199,199,200,200,201,201,202,202,203,203,204,204,205,205,206,206,207,207,208,208,209,209,210,210,211,211,212,212,215,215,216,216,217,217,218,218,219,219,220,220,221,221,222,222,223,223,224,224,225,225,226,226,227,227,228,228,229,229,230,230,231,231,233,233,234,234,235,235,236,236,237,237,239,239,240,240,241,241,242,242,245,245],"right_children":[2,4,6,8,10,12,14,16,18,20,22,24,26,28,30,32,34,36,38,40,42,44,46,48,50,52,54,56,58,60,62,64,66,68,70,72,74,76,78,80,82,84,86,88,90,92,94,96,98,100,102,104,106,108,110,112,114,116,118,120,122,124,126,128,130,132,134,136,138,140,142,144,146,148,150,152,154,156,158,160,162,164,166,168,170,172,174,176,178,180,182,184,186,188,190,192,194,196,198,200,202,204,206,208,210,212,214,216,218,220,222,224,226,228,230,232,234,236,238,240,242,244,246,-1,-1,-1,-1,248,250,252,254,256,258,260,262,264,266,268,270,272,274,276,278,280,282,284,286,288,290,292,294,296,298,300,302,304,306,308,310,312,314,316,318,320,322,324,326,328,330,332,334,336,338,340,342,344,346,348,350,352,354,356,358,360,-1,362,364,366,368,370,372,374,376,378,380,382,384,386,388,390,392,394,396,398,400,402,404,406,408,410,412,414,416,-1,-1,418,420,422,424,426,428,430,432,434,436,438,440,442,444,446,448,450,-1,452,454,456,458,460,-1,462,464,466,468,-1,-1,470,-1,-1,-1,-1,-1,-1,-1,-1,-1,-1,-1,-1,-1,-1,-1,-1,-1,-1,-1,-1,-1,-1,-1,-1,-1,-1,-1,-1,-1,-1,-1,-1,-1,-1,-1,-1,-1,-1,-1,-1,-1,-1,-1,-1,-1,-1,-1,-1,-1,-1,-1,-1,-1,-1,-1,-1,-1,-1,-1,-1,-1,-1,-1,-1,-1,-1,-1,-1,-1,-1,-1,-1,-1,-1,-1,-1,-1,-1,-1,-1,-1,-1,-1,-1,-1,-1,-1,-1,-1,-1,-1,-1,-1,-1,-1,-1,-1,-1,-1,-1,-1,-1,-1,-1,-1,-1,-1,-1,-1,-1,-1,-1,-1,-1,-1,-1,-1,-1,-1,-1,-1,-1,-1,-1,-1,-1,-1,-1,-1,-1,-1,-1,-1,-1,-1,-1,-1,-1,-1,-1,-1,-1,-1,-1,-1,-1,-1,-1,-1,-1,-1,-1,-1,-1,-1,-1,-1,-1,-1,-1,-1,-1,-1,-1,-1,-1,-1,-1,-1,-1,-1,-1,-1,-1,-1,-1,-1,-1,-1,-1,-1,-1,-1,-1,-1,-1,-1,-1,-1,-1,-1,-1,-1,-1,-1,-1,-1,-1,-1,-1,-1,-1,-1,-1,-1,-1,-1,-1,-1,-1,-1,-1,-1,-1,-1,-1,-1,-1,-1,-1,-1,-1,-1,-1,-1],"split_conditions":[1E-45,5.929854E-1,1.6016967E0,5.04158E-1,3.763221E0,7.5107E-1,3.763221E0,1E-45,1E-45,4.8171148E-1,3.9192528E-1,1E-45,1E-45,3.4703216E-1,1.0877683E0,1E-45,1E-45,1.5591458E0,1.7162716E0,1E-45,1E-45,-2.4636018E-1,1E-45,-9.765247E-1,5.929854E-1,2.05297E0,1.850951E0,1E-45,-9.765247E-1,5.2042375E0,1E-45,-3.7911737E-1,-4.7224388E-2,2.846686E-1,3.510472E-1,1E-45,1E-45,1E-45,1E-45,1E-45,1E-45,1.7836113E0,1E-45,1E-45,5.2042375E0,1E-45,5.970376E-1,5.929854E-1,-5.5082977E-1,6.165616E-1,-4.4549596E-1,-4.4549596E-1,2.3336627E0,1.6578892E-2,1.6578892E-2,-1.7998157E-1,2.846686E-1,1E-45,1.6938251E0,-5.7825315E-1,-9.101461E-1,1E-45,-1.3245989E0,-3.4881082E-1,-5.5082977E-1,-4.8349014E-1,-1.467919E-1,-5.059367E-1,-2.5902465E-1,-1.467919E-1,-5.9572285E-1,-1.1092819E0,4.735188E-1,-9.101461E-1,-4.4549596E-1,-5.7825315E-1,-2.4636018E-1,2.846686E-1,7.205565E-1,-4.7224388E-2,-1.5075535E0,1.6016967E0,1.6016967E0,8.8207597E-1,1.02962226E-1,1.6016967E0,1.895844E0,9.175748E-1,1E-45,1E-45,-4.838589E-1,1.9221388E0,2.142756E0,1.6713785E0,1.4763194E0,-6.4061594E-1,-4.6104357E-1,1E-45,1.6578892E-2,-1.9168499E-1,-2.3657809E-1,-3.9370394E-1,-1.2434535E-1,5.929854E-1,1.4979895E0,1E-45,-1.0607587E0,-3.7911737E-1,3.510472E-1,1.545862E0,1E-45,1E-45,1E-45,1E-45,9.1867477E-1,2.1537461E0,2.013477E0,1E-45,2.4113739E0,-1.1344401E0,1E-45,2.268978E0,1.7881969E0,1.0887176E0,2.7217007E-1,1.9385643E-1,7.959615E-1,1.2763913E0,9.058348E-1,2.2648108E-1,2.846686E-1,1.1528724E0,-1.9722037E0,9.058348E-1,1E-45,1.1528724E0,1.6472165E-1,1.3467262E0,1.2803476E0,4.1202802E-2,1E-45,1.6122406E0,1.0812117E0,1.0428752E0,2.882405E-1,8.8574934E-1,1.3999102E0,1E-45,-1.1460676E0,-6.4365424E-2,1E-45,1.446913E0,1.0148331E0,1E-45,8.184097E-1,2.1876493E0,1.3467262E0,8.156974E-1,2.344775E0,1.6016967E0,1.6016967E0,8.059566E-1,1.6016967E0,-3.4881082E-1,2.846686E-1,-3.2935375E-1,-6.855091E-1,1E-45,4.6952654E-2,-1.1856619E0,2.2873404E0,2.4794543E0,1.9631836E0,1.6016967E0,1.6016967E0,2.6818063E0,1E-45,3.213127E0,5.2042375E0,-1.7899252E0,-9.9976075E-1,1E-45,1E-45,9.081959E-1,1.5029506E-1,5.2042375E0,1.8986614E0,1E-45,9.4241536E-1,1E-45,5.2042375E0,-1.0671004E0,-2.104961E0,-1.6007044E0,5.045319E-1,3.510472E-1,1.6578892E-2,2.2648108E-1,1E-45,5.352782E-1,2.2648108E-1,-7.528487E-1,1E-45,-9.101461E-1,1E-45,8.8207597E-1,1E-45,2.4810407E0,-1.6007044E0,1E-45,2.629486E-1,2.9953609E0,-5.7825315E-1,-4.4704963E-2,1.5029506E-1,1E-45,8.156974E-1,-1.3747963E0,-7.889451E-1,-1.7998157E-1,1E-45,-1.0429033E0,1E-45,3.1031115E0,-3.6945158E-1,-3.712574E-1,1E-45,-5.7327634E-1,1.1051315E0,1E-45,1E-45,-1.0721244E0,4.1505232E-1,-1.0147003E0,3.8900024E-1,2.247259E0,1E-45,2.2873404E0,5.279503E-2,4.7961015E-1,1E-45,-1.2419785E0,-2.3947531E-1,1.0023712E0,4.741737E-1,2.172933E0,2.3913501E-1,-4.5539297E-2,3.39201E-2,2.6811143E-2,1.1791616E-1,-1.6438709E-1,-8.295589E-2,-2.3834065E-2,-1.0698415E-1,-2.1600704E-1,-1.1514335E-1,3.3516534E-2,-1.1004305E-1,-2.902869E-1,-1.4730732E-1,-1.4393015E-1,-2.2956339E-1,-2.2979136E-1,-1.3861398E-1,-1.817122E-1,-1.1812766E-1,-2.7454695E-1,-3.3639327E-1,-1.8246637E-1,-2.3821259E-1,-3.9671832E-1,-3.1561705E-1,-2.063653E-1,-2.7875966E-1,-4.3900344E-1,-4.9519882E-1,-3.4919125E-1,-4.120671E-1,1.4509864E-1,2.5397262E-1,3.3936474E-2,1.2091269E-1,-1.3431078E-1,-1.240871E-2,1.8886484E-2,1.3921967E-1,3.9068705E-1,2.722779E-1,2.9743353E-1,1.7890723E-1,2.1836057E-1,1.1637565E-1,4.6817366E-2,-1.2880579E-1,-7.2016716E-3,1.2361393E-1,-7.329346E-2,-1.4210604E-1,-1.0455725E-1,-1.8646188E-1,-2.931275E-1,-2.17019E-1,6.1872866E-2,1.4783229E-1,4.595568E-2,-4.8798535E-2,-5.3599805E-2,-1.5449516E-1,-4.093545E-2,1.2291213E-1,1.3726842E-1,2.5256148E-1,8.669523E-3,1.3827996E-1,2.0114163E-1,4.1508023E-2,-6.465048E-2,6.063811E-2,-1.2049401E-1,-1.634573E-2,1.0920054E-1,7.247992E-3,-2.7876362E-1,-1.794944E-1,-1.4873295E-1,-4.6034783E-2,3.2069597E-1,1.8731728E-1,1.1575977E-1,-1.9332461E-1,1.6588277E-1,3.71688E-1,4.6557283E-1,5.7425547E-2,9.282653E-2,2.4647959E-1,2.1205175E-1,3.6069104E-1,-7.544791E-2,5.9622873E-2,7.575496E-2,2.2842613E-1,5.137096E-1,-1.5705954E-1,3.6509472E-1,-2.0273338E-1,4.1108423E-1,7.1026884E-2,2.214459E-1,4.181424E-1,6.1648734E-2,2.4638925E-1,-1.157827E-1,1.2782039E-1,2.7489036E-1,9.55079E-3,4.5988926E-1,3.1137747E-1,6.72009E-1,9.085445E-1,4.4462997E-1,6.0975266E-1,7.0685667E-1,2.8420066E-2,3.835416E-1,1.7358367E-1,4.8877808E-1,2.3142576E-2,6.48403E-1,1.62396E-1,3.1304508E-1,2.8118834E-2,2.502181E-1,3.732135E-1,5.7283133E-1,4.2886335E-1,8.071186E-1,4.6921918E-1,6.4815825E-1,5.0109607E-1,3.8348874E-1,2.3501723E-1,2.1220827E-1,3.269417E-1,3.0445307E-1,3.8944873E-1,5.072026E-1,4.1387066E-1,1.3592412E-1,2.0512596E-1,2.0820741E-1,2.8429845E-1,4.141429E-2,9.40109E-2,1.9453885E-1,1.325696E-1,3.6660597E-1,2.7795812E-1,4.4686753E-1,3.216742E-1,2.6487723E-1,1.976701E-1,3.4745488E-1,1.0593323E-1,5.637867E-1,6.8755604E-2,2.8385532E-1,7.220699E-1,5.104936E-1,4.034345E-1,3.9091694E-1,2.3595175E-2,7.4405223E-1,1.3615155E-1,6.7921317E-1,4.5238248E-1,4.4443485E-1,3.647693E-1,3.1203485E-1,2.4268687E-1,5.6925297E-1,4.576285E-1,2.1269801E-1,3.991657E-1,4.8636457E-1,4.248696E-1,3.0490184E-1,7.0455946E-2,7.0929784E-1,5.5119085E-1,5.5386955E-1,3.6620563E-1,7.007416E-1,1.5029506E-1,3.9783224E-1,6.1074835E-1,4.7296277E-1,6.757776E-1,3.9851078E-1,-1.0304089E-1,4.5905694E-1,5.4084915E-1,3.7858957E-1,5.648349E-1,4.7022825E-1,3.554639E-1,3.098646E-1,8.9574866E-2,2.4779506E-1,9.8610526E-1,5.053887E-1,7.387289E-1,5.279503E-2,3.9404508E-1,6.0007393E-1,3.2678816E-1,4.6989393E-1,2.1161969E-1,7.3888147E-1,1.9868062E-1,-2.0329952E-2,4.4034728E-1,8.6702794E-1,7.245555E-1,4.4962102E-1,6.984484E-1,7.1659297E-1,5.0632215E-1,7.9543537E-1,1.5778247E-1],"split_indices":[15,7,7,9,7,9,7,16,16,9,9,16,16,9,9,15,15,9,9,16,16,5,15,5,7,9,9,16,5,7,2,5,5,5,5,15,15,15,15,15,15,9,15,16,7,16,13,7,9,5,5,5,20,7,7,5,5,16,9,5,5,4,20,9,9,9,9,9,9,9,9,5,13,5,5,5,5,5,13,5,5,7,7,5,13,7,9,3,4,15,21,3,9,9,0,9,9,16,7,9,9,9,9,7,3,4,0,5,5,5,2,4,2,2,20,12,12,4,17,9,2,8,3,0,0,0,0,13,13,13,5,13,5,13,4,13,13,5,5,13,2,5,5,9,13,9,13,4,11,21,2,9,5,4,9,9,5,5,9,7,7,3,7,9,5,13,9,15,3,17,21,9,9,7,7,11,4,8,7,14,9,2,2,9,0,7,11,2,11,4,7,9,5,17,20,5,7,13,4,13,13,9,4,5,2,5,4,12,17,4,20,12,5,0,0,2,5,5,21,5,4,5,4,17,21,9,4,9,21,2,4,14,0,14,0,12,2,21,0,0,16,0,14,0,0,21,0,0,0,0,0,0,0,0,0,0,0,0,0,0,0,0,0,0,0,0,0,0,0,0,0,0,0,0,0,0,0,0,0,0,0,0,0,0,0,0,0,0,0,0,0,0,0,0,0,0,0,0,0,0,0,0,0,0,0,0,0,0,0,0,0,0,0,0,0,0,0,0,0,0,0,0,0,0,0,0,0,0,0,0,0,0,0,0,0,0,0,0,0,0,0,0,0,0,0,0,0,0,0,0,0,0,0,0,0,0,0,0,0,0,0,0,0,0,0,0,0,0,0,0,0,0,0,0,0,0,0,0,0,0,0,0,0,0,0,0,0,0,0,0,0,0,0,0,0,0,0,0,0,0,0,0,0,0,0,0,0,0,0,0,0,0,0,0,0,0,0,0,0,0,0,0,0,0,0,0,0,0,0,0,0,0,0,0,0,0,0,0,0,0,0,0,0,0,0,0,0,0,0,0,0,0,0,0,0,0,0,0,0,0,0,0,0,0,0,0,0,0,0,0,0],"split_type":[1,0,0,0,0,0,0,1,1,0,0,1,1,0,0,1,1,0,0,1,1,0,1,0,0,0,0,1,0,0,1,0,0,0,0,1,1,1,1,1,1,0,1,1,0,1,0,0,0,0,0,0,0,0,0,0,0,1,0,0,0,1,0,0,0,0,0,0,0,0,0,0,0,0,0,0,0,0,0,0,0,0,0,0,0,0,0,0,1,1,0,0,0,0,0,0,0,1,0,0,0,0,0,0,0,1,0,0,0,0,1,1,1,1,0,0,0,1,0,0,1,0,0,0,0,0,0,0,0,0,0,0,0,0,1,0,0,0,0,0,1,0,0,0,0,0,0,1,0,0,1,0,0,1,0,0,0,0,0,0,0,0,0,0,0,0,0,1,0,0,0,0,0,0,0,0,1,0,0,0,0,1,1,0,0,0,0,1,0,1,0,0,0,0,0,0,0,0,1,0,0,0,1,0,1,0,1,0,0,1,0,0,0,0,0,1,0,0,0,0,1,0,1,0,0,0,1,0,0,1,1,0,0,0,0,0,1,0,0,0,1,0,0,0,0,0,0,0,0,0,0,0,0,0,0,0,0,0,0,0,0,0,0,0,0,0,0,0,0,0,0,0,0,0,0,0,0,0,0,0,0,0,0,0,0,0,0,0,0,0,0,0,0,0,0,0,0,0,0,0,0,0,0,0,0,0,0,0,0,0,0,0,0,0,0,0,0,0,0,0,0,0,0,0,0,0,0,0,0,0,0,0,0,0,0,0,0,0,0,0,0,0,0,0,0,0,0,0,0,0,0,0,0,0,0,0,0,0,0,0,0,0,0,0,0,0,0,0,0,0,0,0,0,0,0,0,0,0,0,0,0,0,0,0,0,0,0,0,0,0,0,0,0,0,0,0,0,0,0,0,0,0,0,0,0,0,0,0,0,0,0,0,0,0,0,0,0,0,0,0,0,0,0,0,0,0,0,0,0,0,0,0,0,0,0,0,0,0,0,0,0,0,0,0,0,0,0,0,0,0,0,0,0,0,0,0,0,0,0,0,0,0,0,0,0,0,0,0,0,0,0],"sum_hessian":[8E4,5.6367E4,2.3633E4,4.1561E4,1.4806E4,2.1219E4,2.414E3,3.1344E4,1.0217E4,1.3441E4,1.365E3,1.7099E4,4.12E3,1.843E3,5.71E2,6.337E3,2.5007E4,2.089E3,8.128E3,1.0141E4,3.3E3,1.007E3,3.58E2,3.395E3,1.3704E4,7.67E2,3.353E3,1.323E3,5.2E2,4.8E2,9.1E1,4.112E3,2.225E3,1.6149E4,8.858E3,1.234E3,8.55E2,5.188E3,2.94E3,2.011E3,8.13E3,6.66E2,2.634E3,4.34E2,5.73E2,2.27E2,1.31E2,1.327E3,2.068E3,1.1251E4,2.453E3,4.95E2,2.72E2,1.938E3,1.415E3,2.82E2,1.041E3,1.16E2,4.04E2,3.47E2,1.33E2,7.4E1,1.7E1,2.269E3,1.843E3,1.448E3,7.77E2,7.985E3,8.164E3,4.354E3,4.504E3,7.97E2,4.37E2,5.36E2,3.19E2,3.338E3,1.85E3,1.889E3,1.051E3,1.28E3,7.31E2,5.303E3,2.827E3,4.36E2,2.3E2,1.699E3,9.35E2,1.6E2,2.74E2,4.25E2,1.48E2,5.2E1,1.75E2,9.2E1,3.9E1,1.103E3,2.24E2,9.62E2,1.106E3,7.663E3,3.588E3,7.15E2,1.738E3,3.08E2,1.87E2,2.7E2,2E0,1.37E3,5.68E2,1.037E3,3.78E2,2.04E2,7.8E1,6.01E2,4.4E2,5E1,6.6E1,2.8E2,1.24E2,1.46E2,2.01E2,4E1,9.3E1,7.3E1,1E0,1E0,1.6E1,1.384E3,8.85E2,9.03E2,9.4E2,7.23E2,7.25E2,5.82E2,1.95E2,3.874E3,4.111E3,5.604E3,2.56E3,3.109E3,1.245E3,2.101E3,2.403E3,2.47E2,5.5E2,2.18E2,2.19E2,2.09E2,3.27E2,1.93E2,1.26E2,6.87E2,2.651E3,5.89E2,1.261E3,1.039E3,8.5E2,8.76E2,1.75E2,9.11E2,3.69E2,1.15E2,6.16E2,3.53E3,1.773E3,1.886E3,9.41E2,4.19E2,1.7E1,7.8E1,1.52E2,1.115E3,5.84E2,6.51E2,2.84E2,1.32E2,2.8E1,1.34E2,1.4E2,2.61E2,1.64E2,3.5E1,1.13E2,5.1E1,1E0,1.28E2,4.7E1,6.9E1,2.3E1,3.3E1,6E0,3.76E2,7.27E2,1.03E2,1.21E2,2E2,7.62E2,8.01E2,3.05E2,4.941E3,2.722E3,2.483E3,1.105E3,3.86E2,3.29E2,1.269E3,4.69E2,2.36E2,7.2E1,1.74E2,1.3E1,2.25E2,4.5E1,1E0,1E0,4.77E2,8.93E2,3.94E2,1.74E2,1E3,3.7E1,2.98E2,8E1,1.67E2,3.7E1,6E1,1.8E1,4.48E2,1.53E2,3.76E2,6.4E1,4.7E1,3E0,6.4E1,2E0,2.48E2,3.2E1,1.23E2,1E0,3E0,1.43E2,1.05E2,9.6E1,3.7E1,3E0,9.1E1,2E0,9.4E2,4.44E2,4.88E2,3.97E2,6.33E2,2.7E2,4.98E2,4.42E2,4.83E2,2.4E2,7.3E1,6.52E2,5.35E2,4.7E1,1.54E2,4.1E1,3.048E3,8.26E2,1.48E3,2.631E3,3.945E3,1.659E3,1.893E3,6.67E2,8.57E2,2.252E3,5.07E2,7.38E2,1.661E3,4.4E2,1.351E3,1.052E3,1.6E2,8.7E1,2.85E2,2.65E2,9.7E1,1.21E2,1.62E2,5.7E1,1.05E2,1.04E2,5.2E1,2.75E2,8.5E1,1.08E2,1.05E2,2.1E1,6.01E2,8.6E1,2.022E3,6.29E2,2.08E2,3.81E2,4.52E2,8.09E2,2.92E2,7.47E2,7.05E2,1.45E2,6.22E2,2.54E2,6.9E1,1.06E2,6.1E2,3.01E2,2.6E2,1.09E2,8.5E1,3E1,4.07E2,2.09E2,2.211E3,1.319E3,9.93E2,7.8E2,6.82E2,1.204E3,3.77E2,5.64E2,2.74E2,1.45E2,8E0,9E0,1.2E1,6.6E1,1.49E2,3E0,8.88E2,2.27E2,3.95E2,1.89E2,4.39E2,2.12E2,1.9E2,9.4E1,1.31E2,1E0,2.7E1,1E0,1.29E2,5E0,1.06E2,3.4E1,2.1E1,2.4E2,2.6E1,1.38E2,2.6E1,9E0,5.7E1,5.6E1,2.2E1,2.9E1,8.8E1,4E1,4.6E1,1E0,2.9E1,4E1,2.2E1,1E0,3E1,3E0,4E0,2E0,6.7E1,3.09E2,1.11E2,6.16E2,5E0,9.8E1,8.6E1,3.5E1,1.66E2,3.4E1,5.94E2,1.68E2,4.21E2,3.8E2,8.4E1,2.21E2,2.994E3,1.947E3,1.343E3,1.379E3,1.264E3,1.219E3,3.59E2,7.46E2,2.13E2,1.73E2,2.9E2,3.9E1,8.54E2,4.15E2,4.59E2,1E1,2.33E2,3E0,2E0,7E1,1.32E2,4.2E1,8E0,5E0,2.24E2,1E0,2.3E1,2.2E1,1.8E2,2.97E2,6.29E2,2.64E2,5.4E1,3.4E2,3.3E1,1.41E2,4.65E2,5.35E2,3E1,7E0,4.7E1,2.51E2,3.7E1,4.3E1,1.66E2,1E0,1.4E1,2.3E1,4.3E1,1.7E1,1.6E1,2E0,2.03E2,2.45E2,1.34E2,1.9E1,7.6E1,3E2,4.6E1,1.8E1,1E0,4.6E1,1E1,5.4E1,1E0,1E0,2.39E2,9E0,2.3E1,9E0,1.21E2,2E0,1E0,2E0,4.1E1,1.02E2,9E0,9.6E1,2E1,7.6E1,9E1,1E0],"tree_param":{"num_deleted":"0","num_feature":"25","num_nodes":"471","size_leaf_vector":"1"}},{"base_weights":[1.2411432E-3,-2.3824377E0,5.686407E0,-3.4729946E0,6.7882437E-1,5.0607285E0,1.1181734E1,-4.430057E0,-5.3674495E-1,-3.0745834E-1,4.6114354E0,4.042051E0,7.8753777E0,1.0032946E1,1.48656225E1,-1.6490058E0,-5.1347065E0,2.299057E0,-1.2657756E0,-1.310095E0,2.5181942E0,2.7260401E0,6.8219495E0,6.7913284E0,3.3587573E0,1.0954433E1,7.1583953E0,9.040029E0,1.2812076E1,1.40527315E1,2.0494455E1,-7.1010596E-1,-3.3830786E0,-4.166914E0,-6.8984184E0,1.2936274E0,3.746962E0,-2.3991854E0,4.6022776E-1,1.399184E0,-1.9862589E0,5.4978724E0,1.7380189E0,1.6998737E0,5.4199433E0,5.59793E0,1.0239749E1,7.971881E0,5.759055E0,2.8757424E0,5.560197E0,1.0044278E1,1.3551425E1,6.1138453E0,8.741114E0,1.1965387E1,8.227031E0,1.7443336E1,1.2237003E1,1.3152372E1,1.6227396E1,2.063764E1,2.653658E-1,2.7027094E-1,-1.916584E0,-4.1964655E0,-2.1104932E0,-3.319719E0,-4.995025E0,-5.841569E0,-7.7348886E0,2.0859108E0,-1.528014E-1,4.783766E0,1.9953663E0,-1.3899342E0,-4.253443E0,1.4385369E0,-1.2484554E0,2.3558621E0,-3.247724E-1,-1.0505972E0,-3.7354422E0,4.2903438E0,7.4291673E0,2.7592397E0,-1.20418295E-1,2.637281E0,-1.434873E-1,6.436606E0,2.095641E0,8.579865E0,4.7350044E0,1.1754121E1,7.546442E0,7.439402E0,9.422371E0,5.2995477E0,8.070845E0,3.7006342E0,1.9719582E0,7.0881915E0,4.9985647E0,9.501009E0,1.2399113E1,1.363624E1,1.3726711E0,8.003095E0,5.604229E0,8.15511E0,1.0268335E1,1.2846405E1,9.49004E0,9.122724E0,6.974682E0,1.79435E1,3.4595604E0,1.1437415E1,1.4426559E1,1.4633084E1,1.204266E1,9.66566E-1,1.5268229E1,2.9844737E-1,1.0382789E0,-3.8080415E-1,1.2877301E0,-2.6632679E0,-1.1972228E0,-5.140515E0,-3.2005222E0,-2.688292E0,-8.76918E-1,-3.878836E0,-2.5347798E0,-5.5654473E0,-3.7446501E0,-6.31022E0,-4.6883154E0,-8.23019E0,-6.695183E0,3.5036213E0,1.4440267E0,-1.2739573E0,9.639529E-1,5.978059E0,3.4690926E0,3.083247E0,3.1785288E-1,8.113115E-2,-1.7702535E0,-3.0455422E0,-4.811346E0,2.2606156E0,4.2435664E-1,-2.337255E0,-4.1445008E-1,3.735549E0,1.4943889E0,2.281522E0,-8.8697845E-1,-1.5934954E0,6.453143E-1,-4.6926155E0,-2.9245944E0,5.6302876E0,2.8379147E0,8.277351E0,5.565719E0,2.1525257E0,5.1547217E0,-1.0907884E0,1.7460806E0,4.86534E0,1.940554E0,7.498828E-1,-1.5648825E0,5.3930807E0,8.336457E0,1.229704E0,5.7143874E0,3.923959E0,8.965771E0,3.9188206E0,6.9617367E0,1.5452458E1,1.0573632E1,6.1224184E0,1.0668636E1,9.16504E0,7.066902E0,6.003122E0,9.716157E0,5.7923713E0,3.4651887E0,9.787645E0,7.358842E0,3.165092E0,4.4553385E0,1.0815594E0,2.4910793E0,6.2956634E0,8.089609E0,4.413508E0,5.943867E0,8.731977E0,1.0576624E1,1.3418246E1,9.836186E0,1.4884469E1,1.257627E1,-4.3587353E-2,1.4653769E-1,7.4993205E0,1.003653E1,4.9972916E0,7.2207804E0,8.697502E0,7.100217E0,1.0842046E1,9.215286E0,1.3262758E1,1.0063933E1,1.0246859E1,6.4811125E0,8.767694E0,1.111603E1,6.662921E0,9.632466E0,4.1097212E-1,1.8861702E1,2.0799188E-1,5.1475145E-2,1.2076606E1,9.853177E0,1.4537978E1,5.1475145E-2,6.1868186E0,1.476337E1,1.2863103E1,1.0437166E1,1.53608885E1,1.1994167E-1,6.205194E-2,-3.49901E-2,2.5473306E-2,1.1203517E-1,-1.5618072E-1,-7.882338E-2,-2.8518105E-2,-1.1013937E-1,-2.177422E-1,-2.9074574E-1,-1.1831607E-1,-1.9766892E-1,-3.8710527E-2,-1.5309054E-1,1.4742264E-1,-5.6042552E-2,-2.1145152E-1,-1.2672924E-1,-1.6112189E-1,-1.0133898E-1,-2.7072316E-1,-3.7716025E-1,-1.7206134E-1,-2.2315948E-1,-3.5130855E-1,-2.8492346E-1,-2.5598943E-1,-1.763635E-1,-3.9883173E-1,-4.7146678E-1,-2.9721126E-1,-3.6319298E-1,8.3621725E-2,2.0269065E-1,3.224563E-2,1.1488979E-1,-1.2766373E-1,-1.1793335E-2,8.7599955E-2,-1.7895333E-2,3.5095644E-1,2.4801894E-1,2.3022056E-1,1.4114374E-1,1.6276745E-1,-9.896938E-2,4.4498563E-2,-1.2265825E-1,-6.842162E-3,1.2777303E-1,-1.16688445E-1,-6.296676E-2,-1.6244964E-1,-2.8062451E-3,-2.6269874E-1,-1.9799308E-1,5.9464555E-2,1.4045052E-1,-1.338616E-2,5.8429766E-2,-4.4146754E-2,-1.5685497E-1,-5.636501E-2,8.611566E-2,1.4010282E-1,2.859179E-1,2.096588E-2,1.1642808E-1,9.636002E-2,3.635207E-1,4.6026513E-2,-7.259338E-2,-1.14471994E-1,-1.7636811E-2,-7.176082E-3,8.429101E-2,-2.5684753E-1,-1.2838227E-1,-1.0692071E-1,-1.9481833E-1,-1.7910096E-1,2.8690818E-1,1.5859027E-1,-1.4874034E-1,3.867961E-1,5.5905205E-1,3.185264E-1,2.3712961E-2,2.0759153E-1,8.503987E-2,2.0271681E-1,3.4420827E-1,-9.342613E-3,-1.336432E-1,6.888259E-3,1.3143452E-1,3.8692087E-1,2.1482038E-1,1.3858375E-1,8.345156E-3,-1.9059395E-2,1.2830636E-1,2.3283474E-1,-9.040895E-2,3.0431518E-1,1.5682581E-1,4.402406E-1,2.1141689E-1,2.1590863E-1,3.5957657E-2,3.802441E-1,1.7876944E-3,3.5938504E-1,-2.5052717E-2,4.7163603E-1,3.3562154E-1,2.4956588E-1,9.767571E-2,3.998681E-1,2.595912E-1,7.8757906E-1,2.608281E-1,4.7805625E-1,6.654341E-1,3.2108626E-1,-1.07129455E-1,5.704469E-1,1.6023728E-1,2.8358367E-1,4.7770524E-1,3.438463E-1,4.7061798E-1,4.99123E-1,2.374552E-1,5.3402734E-1,4.4649097E-1,2.4763797E-1,3.3310366E-1,1.0575296E-1,2.1436587E-1,5.0076103E-1,1.5652974E-1,3.7182355E-1,-6.999556E-3,1.1481668E-1,1.8149297E-1,1.9588535E-1,2.655856E-1,8.265471E-2,3.0450327E-2,1.3297711E-1,3.284205E-2,5.088249E-1,3.0551293E-1,4.1311845E-1,1.157552E-1,2.3562622E-1,1.6426463E-1,3.1803018E-1,2.2120503E-1,4.666532E-1,3.6684108E-1,5.452537E-1,3.9685297E-1,7.407121E-1,5.937218E-1,3.0575797E-1,5.50199E-1,3.5407683E-1,7.5471485E-1,6.613027E-1,4.6709067E-1,3.8233063E-1,1.9859591E-1,5.4714745E-1,4.1218525E-1,2.6682052E-1,1.718592E-1,3.9396247E-1,3.3513218E-1,4.0034968E-1,4.583039E-1,2.7080235E-1,3.895348E-1,5.727206E-1,4.781395E-1,5.2186793E-1,3.986697E-1,6.040354E-1,7.227764E-1,5.310918E-1,1.7515789E-1,2.2347613E-1,5.2813935E-1,3.7975737E-1,-9.96062E-2,5.0486374E-1,4.196132E-1,1.3565229E-1,5.6380886E-1,3.6068842E-1,2.5669846E-1,5.0903344E-1,1.605357E-1,9.741786E-1,5.057201E-1,1.468388E-1,6.072704E-1,1.4071123E-1,5.1006776E-1,6.551518E-1,8.140384E-1,-1.9821692E-2,4.2566904E-1,7.604202E-1,5.851411E-1,4.6141312E-1,6.586124E-1,5.941508E-1,3.6597785E-1,7.7215487E-1,1.5383792E-1],"categories":[1,0,2,0,2,0,2,0,2,0,0,0,2,0,2,0,2,13,0,0,0,0,0,0,0,0,2,0,5,9,10,11,0,0,2,0,0,2,1,3,6,7,9,10,11,12,14,0,4,6,8,9,0,4,7,9,10,11,14,1,3,4,5,8,0,1,2,3,4,5,6,7,8,9,10,12,13,1,2,8,9,10,11,12,13,14,3,4,8,0,2,5,7,9,10,1,0,7,8,11,13,1,2,3,4,6,7,8,9,11,12,13,14,0,2,0,1,3,4,6,7,9,10,11,12,13,3,4,5,6,8,9,10,11,12,13,14,0,0,10,11,13,14,0,0,2,5,7,8,10,12,14,10,11,1,4,5,7,8,9,10,6,8,0,7,12,13,0,1,2,3,10,11,0,8,9,11,12,14,9,11,0,2,3,5,6,8,9,10,0,1,2,3,11,12,13,14,2,0,2,4,5,6,7,8,9,10,5,8,9,10,11,1,4,7,12],"categories_nodes":[0,7,8,11,12,15,16,19,20,27,30,35,36,37,38,39,40,42,45,46,57,84,87,88,93,98,112,117,120,132,145,148,155,160,168,173,174,177,179,180,181,182,183,184,187,192,195,206,207,210,213,216,220,224,225,230,240],"categories_segments":[0,1,3,5,7,9,10,11,13,15,17,18,19,20,21,22,23,24,25,27,28,32,33,35,36,38,47,52,59,64,77,86,89,95,96,101,113,114,115,126,137,138,143,144,152,154,161,163,167,173,179,181,189,197,198,207,212],"categories_sizes":[1,2,2,2,2,1,1,2,2,2,1,1,1,1,1,1,1,1,2,1,4,1,2,1,2,9,5,7,5,13,9,3,6,1,5,12,1,1,11,11,1,5,1,8,2,7,2,4,6,6,2,8,8,1,9,5,4],"default_left":[1,0,0,0,0,0,0,1,1,0,0,1,1,0,0,1,1,0,0,1,1,0,0,0,0,0,0,1,0,0,1,0,0,0,0,1,1,1,1,1,1,0,1,0,0,1,1,0,0,0,0,0,0,0,0,0,0,1,0,0,0,0,0,0,0,0,0,0,0,0,0,0,0,0,0,0,0,0,0,0,0,0,0,0,1,0,0,1,1,0,0,0,0,1,0,0,0,0,1,0,0,0,0,0,0,0,0,0,0,0,0,0,1,0,0,0,0,1,0,0,1,0,0,0,0,0,0,0,0,0,0,0,1,0,0,0,0,0,0,0,0,0,0,0,0,1,0,0,1,0,0,0,0,0,0,1,0,0,0,0,1,0,0,0,0,0,0,0,1,0,0,0,0,1,1,0,0,1,0,1,1,1,1,1,1,0,0,1,0,0,0,0,1,0,0,1,0,0,0,0,0,0,0,0,0,0,1,1,0,0,1,0,0,1,0,0,1,0,0,0,1,0,0,0,1,1,0,0,0,0,1,0,0,0,0,0,0,0,0,0,1,0,0,0,0,0,0,0,0,0,0,0,0,0,0,0,0,0,0,0,0,0,0,0,0,0,0,0,0,0,0,0,0,0,0,0,0,0,0,0,0,0,0,0,0,0,0,0,0,0,0,0,0,0,0,0,0,0,0,0,0,0,0,0,0,0,0,0,0,0,0,0,0,0,0,0,0,0,0,0,0,0,0,0,0,0,0,0,0,0,0,0,0,0,0,0,0,0,0,0,0,0,0,0,0,0,0,0,0,0,0,0,0,0,0,0,0,0,0,0,0,0,0,0,0,0,0,0,0,0,0,0,0,0,0,0,0,0,0,0,0,0,0,0,0,0,0,0,0,0,0,0,0,0,0,0,0,0,0,0,0,0,0,0,0,0,0,0,0,0,0,0,0,0,0,0,0,0,0,0,0,0,0,0,0,0,0,0,0,0,0,0,0,0,0,0,0,0,0,0,0,0,0,0,0,0,0,0,0,0,0,0,0,0,0,0,0,0,0,0,0,0,0,0,0],"id":2,"left_children":[1,3,5,7,9,11,13,15,17,19,21,23,25,27,29,31,33,35,37,39,41,43,45,47,49,51,53,55,57,59,61,63,65,67,69,71,73,75,77,79,81,83,85,87,89,91,93,95,97,99,101,103,105,107,109,111,113,115,117,119,121,123,-1,125,127,129,131,133,135,137,139,141,143,145,147,149,151,153,155,157,159,161,163,165,167,169,171,173,175,177,179,181,183,185,187,189,191,193,195,197,199,201,203,205,207,209,211,213,215,217,219,221,223,225,227,229,231,233,235,237,239,-1,241,-1,-1,243,245,247,249,251,253,255,257,259,261,263,265,267,269,271,273,275,277,279,281,283,285,287,289,291,293,295,297,299,301,303,305,307,309,311,313,315,317,319,321,323,325,327,329,331,333,335,337,339,341,343,345,347,349,351,353,355,357,359,361,363,365,367,369,371,373,375,377,379,381,383,385,387,389,391,393,395,397,399,401,403,405,407,409,411,413,-1,-1,415,417,419,421,423,425,427,429,431,433,435,437,439,441,443,445,-1,447,-1,-1,449,451,453,-1,455,457,459,461,463,-1,-1,-1,-1,-1,-1,-1,-1,-1,-1,-1,-1,-1,-1,-1,-1,-1,-1,-1,-1,-1,-1,-1,-1,-1,-1,-1,-1,-1,-1,-1,-1,-1,-1,-1,-1,-1,-1,-1,-1,-1,-1,-1,-1,-1,-1,-1,-1,-1,-1,-1,-1,-1,-1,-1,-1,-1,-1,-1,-1,-1,-1,-1,-1,-1,-1,-1,-1,-1,-1,-1,-1,-1,-1,-1,-1,-1,-1,-1,-1,-1,-1,-1,-1,-1,-1,-1,-1,-1,-1,-1,-1,-1,-1,-1,-1,-1,-1,-1,-1,-1,-1,-1,-1,-1,-1,-1,-1,-1,-1,-1,-1,-1,-1,-1,-1,-1,-1,-1,-1,-1,-1,-1,-1,-1,-1,-1,-1,-1,-1,-1,-1,-1,-1,-1,-1,-1,-1,-1,-1,-1,-1,-1,-1,-1,-1,-1,-1,-1,-1,-1,-1,-1,-1,-1,-1,-1,-1,-1,-1,-1,-1,-1,-1,-1,-1,-1,-1,-1,-1,-1,-1,-1,-1,-1,-1,-1,-1,-1,-1,-1,-1,-1,-1,-1,-1,-1,-1,-1,-1,-1,-1,-1,-1,-1,-1,-1,-1,-1,-1,-1,-1,-1,-1,-1,-1,-1,-1,-1,-1,-1,-1,-1,-1,-1,-1,-1,-1,-1,-1,-1,-1,-1],"loss_changes":[1.0841559E6,1.8818581E5,8.1204375E4,1.1679409E5,5.743283E4,6.0810562E4,1.0071156E4,6.1417312E4,2.1127463E4,3.3544402E4,1.2355281E4,2.9250844E4,1.23681875E4,4.972578E3,2.32925E3,1.0316627E4,4.2657625E4,3.037706E3,1.5903617E4,1.6011898E4,7.19925E3,4.424874E3,5.6572773E3,3.733125E3,1.3257547E4,2.3764766E3,7.5117344E3,3.1408203E3,1.0729297E3,7.714375E2,4.2691406E1,4.8653877E3,2.2952852E3,1.1313781E4,7.786375E3,1.415606E3,1.5450029E3,9.177104E3,5.3894287E3,2.8803933E3,1.1442766E4,1.4676641E3,4.6672075E3,2.010019E3,1.4803359E3,2.5531465E3,1.3755391E3,1.0451953E3,1.7184961E3,7.626125E3,1.8911641E3,8.94125E2,2.6327344E2,2.612461E3,1.5423906E3,5.192539E2,1.1355E3,2.9462598E2,5.930703E2,4.1696484E2,1.3058203E2,5.5410156E0,0E0,1.5042344E3,9.8728906E2,1.2594258E3,6.177422E2,3.4950078E3,5.8027812E3,2.0879844E3,2.489875E3,7.2112524E2,5.496284E2,8.224072E2,5.82999E2,1.7787139E3,1.1505039E3,1.7081992E3,1.065099E3,1.3291743E3,9.163549E2,4.197612E3,1.8776836E3,7.5859863E2,3.4274414E2,2.2954062E3,1.5830776E3,1.1874199E3,5.0021747E2,6.251406E2,3.2200165E2,3.6908594E2,1.3975781E3,8.3202344E2,5.2156445E2,6.172422E2,3.2741406E2,1.2328945E3,2.6168164E2,2.1490469E3,2.2566602E3,4.2605664E2,8.8354297E2,4.4283203E2,2.4675195E2,1.7136328E2,1.3045843E1,5.2297656E2,2.0998672E3,6.9235156E2,2.0215625E2,1.1444141E2,1.1804248E2,3.4129688E2,3.086875E2,2.824707E2,8.2257843E-1,2.0707422E2,1.5221289E2,7.372656E1,1.4499414E2,0E0,9.909766E1,0E0,0E0,7.174179E2,6.5597327E2,4.4735156E2,5.919021E2,3.4292578E2,4.0703174E2,4.2087695E2,2.6364923E2,2.183914E3,1.1549922E3,1.6328594E3,5.429961E2,1.178875E3,5.5103125E2,9.4121875E2,6.401094E2,2.430813E2,3.7444287E2,2.9024008E2,2.297981E2,2.618369E2,1.7628735E2,1.7547388E2,2.0352272E2,3.5307837E2,7.2432275E2,3.3371826E2,4.243047E2,6.6171924E2,4.736646E2,5.893142E2,1.0163873E3,7.8173096E2,6.2050244E2,1.8220001E2,5.261522E2,2.9808564E3,9.08034E2,1.0405352E3,1.00166113E3,2.2527344E2,3.840127E2,1.7605273E2,3.2479077E2,1.138123E3,5.810664E2,8.218051E2,4.240727E2,2.6588184E2,8.6779297E2,4.9811896E2,2.3850073E2,3.266206E2,1.8980957E2,1.3250111E2,2.1443658E2,2.7800134E2,1.5448633E2,1.204334E3,3.4156934E2,8.010449E1,3.6014453E2,2.4382007E2,1.844585E2,1.972539E2,3.2605078E2,1.1726758E2,1.715586E2,7.6366797E2,3.1948608E2,8.530029E1,1.1571875E2,1.257082E3,1.00084766E3,4.8567822E2,9.521406E2,1.8245801E2,2.4224414E2,3.2861914E2,3.6833008E2,2.5271289E2,1.431914E2,4.1757812E1,1.2825146E2,8.794531E1,1.9800586E2,0E0,0E0,2.1485938E2,9.341992E1,8.2075E2,1.4916406E2,2.068125E2,4.845918E2,1.3957812E2,1.9451367E2,8.338086E1,7.991846E1,6.777881E1,1.9448065E2,1.803164E2,9.0521484E1,3.0490625E2,1.2573193E2,0E0,4.2280273E1,0E0,0E0,1.0582031E2,2.114707E2,6.426367E1,0E0,6.464035E1,2.2238281E1,3.1265625E1,2.6010645E2,6.659961E1,0E0,0E0,0E0,0E0,0E0,0E0,0E0,0E0,0E0,0E0,0E0,0E0,0E0,0E0,0E0,0E0,0E0,0E0,0E0,0E0,0E0,0E0,0E0,0E0,0E0,0E0,0E0,0E0,0E0,0E0,0E0,0E0,0E0,0E0,0E0,0E0,0E0,0E0,0E0,0E0,0E0,0E0,0E0,0E0,0E0,0E0,0E0,0E0,0E0,0E0,0E0,0E0,0E0,0E0,0E0,0E0,0E0,0E0,0E0,0E0,0E0,0E0,0E0,0E0,0E0,0E0,0E0,0E0,0E0,0E0,0E0,0E0,0E0,0E0,0E0,0E0,0E0,0E0,0E0,0E0,0E0,0E0,0E0,0E0,0E0,0E0,0E0,0E0,0E0,0E0,0E0,0E0,0E0,0E0,0E0,0E0,0E0,0E0,0E0,0E0,0E0,0E0,0E0,0E0,0E0,0E0,0E0,0E0,0E0,0E0,0E0,0E0,0E0,0E0,0E0,0E0,0E0,0E0,0E0,0E0,0E0,0E0,0E0,0E0,0E0,0E0,0E0,0E0,0E0,0E0,0E0,0E0,0E0,0E0,0E0,0E0,0E0,0E0,0E0,0E0,0E0,0E0,0E0,0E0,0E0,0E0,0E0,0E0,0E0,0E0,0E0,0E0,0E0,0E0,0E0,0E0,0E0,0E0,0E0,0E0,0E0,0E0,0E0,0E0,0E0,0E0,0E0,0E0,0E0,0E0,0E0,0E0,0E0,0E0,0E0,0E0,0E0,0E0,0E0,0E0,0E0,0E0,0E0,0E0,0E0,0E0,0E0,0E0,0E0,0E0,0E0,0E0,0E0,0E0,0E0,0E0,0E0,0E0,0E0,0E0,0E0,0E0,0E0,0E0,0E0,0E0,0E0,0E0,0E0,0E0,0E0,0E0,0E0,0E0,0E0,0E0,0E0,0E0,0E0,0E0,0E0,0E0,0E0],"parents":[2147483647,0,0,1,1,2,2,3,3,4,4,5,5,6,6,7,7,8,8,9,9,10,10,11,11,12,12,13,13,14,14,15,15,16,16,17,17,18,18,19,19,20,20,21,21,22,22,23,23,24,24,25,25,26,26,27,27,28,28,29,29,30,30,31,31,32,32,33,33,34,34,35,35,36,36,37,37,38,38,39,39,40,40,41,41,42,42,43,43,44,44,45,45,46,46,47,47,48,48,49,49,50,50,51,51,52,52,53,53,54,54,55,55,56,56,57,57,58,58,59,59,60,60,61,61,63,63,64,64,65,65,66,66,67,67,68,68,69,69,70,70,71,71,72,72,73,73,74,74,75,75,76,76,77,77,78,78,79,79,80,80,81,81,82,82,83,83,84,84,85,85,86,86,87,87,88,88,89,89,90,90,91,91,92,92,93,93,94,94,95,95,96,96,97,97,98,98,99,99,100,100,101,101,102,102,103,103,104,104,105,105,106,106,107,107,108,108,109,109,110,110,111,111,112,112,113,113,114,114,115,115,116,116,117,117,118,118,119,119,120,120,122,122,125,125,126,126,127,127,128,128,129,129,130,130,131,131,132,132,133,133,134,134,135,135,136,136,137,137,138,138,139,139,140,140,141,141,142,142,143,143,144,144,145,145,146,146,147,147,148,148,149,149,150,150,151,151,152,152,153,153,154,154,155,155,156,156,157,157,158,158,159,159,160,160,161,161,162,162,163,163,164,164,165,165,166,166,167,167,168,168,169,169,170,170,171,171,172,172,173,173,174,174,175,175,176,176,177,177,178,178,179,179,180,180,181,181,182,182,183,183,184,184,185,185,186,186,187,187,188,188,189,189,190,190,191,191,192,192,193,193,194,194,195,195,196,196,197,197,198,198,199,199,200,200,201,201,202,202,203,203,204,204,205,205,206,206,207,207,208,208,209,209,210,210,213,213,214,214,215,215,216,216,217,217,218,218,219,219,220,220,221,221,222,222,223,223,224,224,225,225,226,226,227,227,228,228,230,230,233,233,234,234,235,235,237,237,238,238,239,239,240,240,241,241],"right_children":[2,4,6,8,10,12,14,16,18,20,22,24,26,28,30,32,34,36,38,40,42,44,46,48,50,52,54,56,58,60,62,64,66,68,70,72,74,76,78,80,82,84,86,88,90,92,94,96,98,100,102,104,106,108,110,112,114,116,118,120,122,124,-1,126,128,130,132,134,136,138,140,142,144,146,148,150,152,154,156,158,160,162,164,166,168,170,172,174,176,178,180,182,184,186,188,190,192,194,196,198,200,202,204,206,208,210,212,214,216,218,220,222,224,226,228,230,232,234,236,238,240,-1,242,-1,-1,244,246,248,250,252,254,256,258,260,262,264,266,268,270,272,274,276,278,280,282,284,286,288,290,292,294,296,298,300,302,304,306,308,310,312,314,316,318,320,322,324,326,328,330,332,334,336,338,340,342,344,346,348,350,352,354,356,358,360,362,364,366,368,370,372,374,376,378,380,382,384,386,388,390,392,394,396,398,400,402,404,406,408,410,412,414,-1,-1,416,418,420,422,424,426,428,430,432,434,436,438,440,442,444,446,-1,448,-1,-1,450,452,454,-1,456,458,460,462,464,-1,-1,-1,-1,-1,-1,-1,-1,-1,-1,-1,-1,-1,-1,-1,-1,-1,-1,-1,-1,-1,-1,-1,-1,-1,-1,-1,-1,-1,-1,-1,-1,-1,-1,-1,-1,-1,-1,-1,-1,-1,-1,-1,-1,-1,-1,-1,-1,-1,-1,-1,-1,-1,-1,-1,-1,-1,-1,-1,-1,-1,-1,-1,-1,-1,-1,-1,-1,-1,-1,-1,-1,-1,-1,-1,-1,-1,-1,-1,-1,-1,-1,-1,-1,-1,-1,-1,-1,-1,-1,-1,-1,-1,-1,-1,-1,-1,-1,-1,-1,-1,-1,-1,-1,-1,-1,-1,-1,-1,-1,-1,-1,-1,-1,-1,-1,-1,-1,-1,-1,-1,-1,-1,-1,-1,-1,-1,-1,-1,-1,-1,-1,-1,-1,-1,-1,-1,-1,-1,-1,-1,-1,-1,-1,-1,-1,-1,-1,-1,-1,-1,-1,-1,-1,-1,-1,-1,-1,-1,-1,-1,-1,-1,-1,-1,-1,-1,-1,-1,-1,-1,-1,-1,-1,-1,-1,-1,-1,-1,-1,-1,-1,-1,-1,-1,-1,-1,-1,-1,-1,-1,-1,-1,-1,-1,-1,-1,-1,-1,-1,-1,-1,-1,-1,-1,-1,-1,-1,-1,-1,-1,-1,-1,-1,-1,-1,-1,-1,-1,-1,-1,-1,-1],"split_conditions":[1E-45,5.929854E-1,1.6016967E0,5.04158E-1,2.3222048E0,3.9192528E-1,3.763221E0,1E-45,1E-45,4.1437182E-1,3.763221E0,1E-45,1E-45,4.3681836E-1,1.3122338E0,1E-45,1E-45,1.5591458E0,1.6040388E0,1E-45,1E-45,3.4703216E-1,3.9192528E-1,-7.7738893E-1,5.929854E-1,2.05297E0,1.5142527E0,1E-45,-1.5075535E0,5.2042375E0,1E-45,-3.7911737E-1,7.205565E-1,2.846686E-1,2.1829E-1,1E-45,1E-45,1E-45,1E-45,1E-45,1E-45,1.6040388E0,1E-45,4.1742578E-1,6.165616E-1,1E-45,1E-45,1.6578892E-2,5.929854E-1,2.1829E-1,-5.1187456E-1,5.929854E-1,2.3336627E0,-7.7738893E-1,1.6578892E-2,-1.7998157E-1,2.846686E-1,1E-45,1.9856303E0,-5.7825315E-1,-1.1756605E0,-2.015747E0,2.653658E-1,-3.4881082E-1,-5.5082977E-1,-4.8349014E-1,-2.3657809E-1,-3.712574E-1,-2.5902465E-1,-1.467919E-1,-2.814712E-1,-1.1092819E0,4.735188E-1,-6.4463174E-1,-4.4549596E-1,-5.7825315E-1,-2.4636018E-1,2.846686E-1,2.344775E0,-9.101461E-1,-1.4411749E0,1.6016967E0,-5.9572285E-1,-5.7825315E-1,1E-45,2.4121146E0,1.6713785E0,1E-45,1E-45,1.7162716E0,2.2774353E0,-1.3018206E0,5.2042375E0,1E-45,5.970376E-1,-1.9722037E0,-9.9976075E-1,4.8380437E-1,1E-45,-3.712574E-1,-7.304022E-1,-4.6104357E-1,-3.9370394E-1,5.970376E-1,-5.1187456E-1,-1.0429033E0,-1.0607587E0,5.929854E-1,1.6578892E-2,3.510472E-1,2.846686E-1,9.8769855E-1,1E-45,1.1528724E0,1.6745979E-1,-1.0721244E0,-1.3325886E0,1E-45,2.4113739E0,-1.1344401E0,1E-45,9.66566E-1,1.8852153E0,2.9844737E-1,1.0382789E0,-1.8394464E0,9.058348E-1,2.2648108E-1,4.1742578E-1,-4.7224388E-2,-1.7998157E-1,-1.8394464E0,1E-45,1.1528724E0,2.882405E-1,2.010512E0,1.213969E0,4.735188E-1,9.058348E-1,1.6122406E0,8.156974E-1,6.6128385E-1,2.882405E-1,8.8574934E-1,-8.437675E-1,1E-45,-5.840197E-1,3.213127E0,1E-45,1.446913E0,8.8574934E-1,1.7704667E0,4.1202802E-2,2.1876493E0,2.5692406E0,1E-45,4.735188E-1,-2.1413155E-1,-6.630625E-1,1.91952E0,1E-45,-3.4881082E-1,-4.3859702E-1,9.058348E-1,3.510472E-1,-1.7325011E0,1.0148331E0,9.0900606E-1,1E-45,-7.7738893E-1,1.6472165E-1,4.8380437E-1,-2.6759434E-1,1E-45,1E-45,-4.1615048E-1,-1.6007044E0,1E-45,2.846686E-1,1E-45,1E-45,1E-45,1E-45,1E-45,1E-45,2.0602334E0,2.344775E0,1E-45,1.5669293E0,-9.5486766E-1,1.6745979E-1,-1.7459971E0,1E-45,-5.5082977E-1,-8.2018834E-1,1E-45,2.5745535E0,1.6472165E-1,5.970376E-1,8.8207597E-1,1.6786191E0,-2.237718E0,3.213127E0,1.1475904E0,1.0148331E0,4.3550813E-1,1E-45,1E-45,-8.414323E-1,-1.8384718E0,1E-45,-4.3587353E-2,1.4653769E-1,1E-45,1.5406868E-1,1.0148331E0,1E-45,2.254989E0,1.9631836E0,5.357496E-1,1E-45,-2.6229655E-2,1.1426809E0,-1.4933789E0,1E-45,1E-45,-1.9520422E0,5.735557E-1,1.6575392E0,4.1097212E-1,1E-45,2.0799188E-1,5.1475145E-2,-2.292442E0,-1.7899252E0,1.02962226E-1,5.1475145E-2,4.7961015E-1,1.3248295E0,-1.2419785E0,1E-45,2.172933E0,1.1994167E-1,6.205194E-2,-3.49901E-2,2.5473306E-2,1.1203517E-1,-1.5618072E-1,-7.882338E-2,-2.8518105E-2,-1.1013937E-1,-2.177422E-1,-2.9074574E-1,-1.1831607E-1,-1.9766892E-1,-3.8710527E-2,-1.5309054E-1,1.4742264E-1,-5.6042552E-2,-2.1145152E-1,-1.2672924E-1,-1.6112189E-1,-1.0133898E-1,-2.7072316E-1,-3.7716025E-1,-1.7206134E-1,-2.2315948E-1,-3.5130855E-1,-2.8492346E-1,-2.5598943E-1,-1.763635E-1,-3.9883173E-1,-4.7146678E-1,-2.9721126E-1,-3.6319298E-1,8.3621725E-2,2.0269065E-1,3.224563E-2,1.1488979E-1,-1.2766373E-1,-1.1793335E-2,8.7599955E-2,-1.7895333E-2,3.5095644E-1,2.4801894E-1,2.3022056E-1,1.4114374E-1,1.6276745E-1,-9.896938E-2,4.4498563E-2,-1.2265825E-1,-6.842162E-3,1.2777303E-1,-1.16688445E-1,-6.296676E-2,-1.6244964E-1,-2.8062451E-3,-2.6269874E-1,-1.9799308E-1,5.9464555E-2,1.4045052E-1,-1.338616E-2,5.8429766E-2,-4.4146754E-2,-1.5685497E-1,-5.636501E-2,8.611566E-2,1.4010282E-1,2.859179E-1,2.096588E-2,1.1642808E-1,9.636002E-2,3.635207E-1,4.6026513E-2,-7.259338E-2,-1.14471994E-1,-1.7636811E-2,-7.176082E-3,8.429101E-2,-2.5684753E-1,-1.2838227E-1,-1.0692071E-1,-1.9481833E-1,-1.7910096E-1,2.8690818E-1,1.5859027E-1,-1.4874034E-1,3.867961E-1,5.5905205E-1,3.185264E-1,2.3712961E-2,2.0759153E-1,8.503987E-2,2.0271681E-1,3.4420827E-1,-9.342613E-3,-1.336432E-1,6.888259E-3,1.3143452E-1,3.8692087E-1,2.1482038E-1,1.3858375E-1,8.345156E-3,-1.9059395E-2,1.2830636E-1,2.3283474E-1,-9.040895E-2,3.0431518E-1,1.5682581E-1,4.402406E-1,2.1141689E-1,2.1590863E-1,3.5957657E-2,3.802441E-1,1.7876944E-3,3.5938504E-1,-2.5052717E-2,4.7163603E-1,3.3562154E-1,2.4956588E-1,9.767571E-2,3.998681E-1,2.595912E-1,7.8757906E-1,2.608281E-1,4.7805625E-1,6.654341E-1,3.2108626E-1,-1.07129455E-1,5.704469E-1,1.6023728E-1,2.8358367E-1,4.7770524E-1,3.438463E-1,4.7061798E-1,4.99123E-1,2.374552E-1,5.3402734E-1,4.4649097E-1,2.4763797E-1,3.3310366E-1,1.0575296E-1,2.1436587E-1,5.0076103E-1,1.5652974E-1,3.7182355E-1,-6.999556E-3,1.1481668E-1,1.8149297E-1,1.9588535E-1,2.655856E-1,8.265471E-2,3.0450327E-2,1.3297711E-1,3.284205E-2,5.088249E-1,3.0551293E-1,4.1311845E-1,1.157552E-1,2.3562622E-1,1.6426463E-1,3.1803018E-1,2.2120503E-1,4.666532E-1,3.6684108E-1,5.452537E-1,3.9685297E-1,7.407121E-1,5.937218E-1,3.0575797E-1,5.50199E-1,3.5407683E-1,7.5471485E-1,6.613027E-1,4.6709067E-1,3.8233063E-1,1.9859591E-1,5.4714745E-1,4.1218525E-1,2.6682052E-1,1.718592E-1,3.9396247E-1,3.3513218E-1,4.0034968E-1,4.583039E-1,2.7080235E-1,3.895348E-1,5.727206E-1,4.781395E-1,5.2186793E-1,3.986697E-1,6.040354E-1,7.227764E-1,5.310918E-1,1.7515789E-1,2.2347613E-1,5.2813935E-1,3.7975737E-1,-9.96062E-2,5.0486374E-1,4.196132E-1,1.3565229E-1,5.6380886E-1,3.6068842E-1,2.5669846E-1,5.0903344E-1,1.605357E-1,9.741786E-1,5.057201E-1,1.468388E-1,6.072704E-1,1.4071123E-1,5.1006776E-1,6.551518E-1,8.140384E-1,-1.9821692E-2,4.2566904E-1,7.604202E-1,5.851411E-1,4.6141312E-1,6.586124E-1,5.941508E-1,3.6597785E-1,7.7215487E-1,1.5383792E-1],"split_indices":[15,7,7,9,7,9,7,16,16,9,7,16,16,9,9,15,15,9,9,16,16,9,9,5,7,9,9,16,5,7,4,5,13,5,5,15,15,15,15,15,15,9,15,5,5,16,15,7,7,5,5,7,20,5,7,5,5,2,9,5,5,17,0,9,9,9,9,9,9,9,9,5,13,5,5,5,5,5,9,5,5,7,9,5,15,9,9,16,15,9,9,14,7,16,13,5,9,5,4,9,9,9,9,13,5,5,0,7,7,5,5,20,2,13,9,14,0,4,17,9,2,0,14,0,0,5,13,13,5,5,5,5,4,13,13,5,5,13,13,5,5,9,13,9,5,4,14,8,2,9,9,13,13,9,9,2,13,9,9,20,16,9,9,13,5,14,5,14,4,5,13,5,13,4,15,9,17,22,5,4,4,22,4,15,4,12,9,2,0,9,9,11,2,9,9,2,12,13,13,5,5,5,8,5,5,20,4,2,20,11,4,0,0,4,11,5,2,9,9,14,4,21,11,3,4,2,11,20,0,0,2,0,0,17,14,13,0,0,8,0,4,21,0,0,0,0,0,0,0,0,0,0,0,0,0,0,0,0,0,0,0,0,0,0,0,0,0,0,0,0,0,0,0,0,0,0,0,0,0,0,0,0,0,0,0,0,0,0,0,0,0,0,0,0,0,0,0,0,0,0,0,0,0,0,0,0,0,0,0,0,0,0,0,0,0,0,0,0,0,0,0,0,0,0,0,0,0,0,0,0,0,0,0,0,0,0,0,0,0,0,0,0,0,0,0,0,0,0,0,0,0,0,0,0,0,0,0,0,0,0,0,0,0,0,0,0,0,0,0,0,0,0,0,0,0,0,0,0,0,0,0,0,0,0,0,0,0,0,0,0,0,0,0,0,0,0,0,0,0,0,0,0,0,0,0,0,0,0,0,0,0,0,0,0,0,0,0,0,0,0,0,0,0,0,0,0,0,0,0,0,0,0,0,0,0,0,0,0,0,0,0,0,0,0,0,0,0,0,0,0,0,0,0,0,0,0,0,0,0,0,0,0,0,0,0],"split_type":[1,0,0,0,0,0,0,1,1,0,0,1,1,0,0,1,1,0,0,1,1,0,0,0,0,0,0,1,0,0,1,0,0,0,0,1,1,1,1,1,1,0,1,0,0,1,1,0,0,0,0,0,0,0,0,0,0,1,0,0,0,0,0,0,0,0,0,0,0,0,0,0,0,0,0,0,0,0,0,0,0,0,0,0,1,0,0,1,1,0,0,0,0,1,0,0,0,0,1,0,0,0,0,0,0,0,0,0,0,0,0,0,1,0,0,0,0,1,0,0,1,0,0,0,0,0,0,0,0,0,0,0,1,0,0,0,0,0,0,0,0,0,0,0,0,1,0,0,1,0,0,0,0,0,0,1,0,0,0,0,1,0,0,0,0,0,0,0,1,0,0,0,0,1,1,0,0,1,0,1,1,1,1,1,1,0,0,1,0,0,0,0,1,0,0,1,0,0,0,0,0,0,0,0,0,0,1,1,0,0,1,0,0,1,0,0,1,0,0,0,1,0,0,0,1,1,0,0,0,0,1,0,0,0,0,0,0,0,0,0,1,0,0,0,0,0,0,0,0,0,0,0,0,0,0,0,0,0,0,0,0,0,0,0,0,0,0,0,0,0,0,0,0,0,0,0,0,0,0,0,0,0,0,0,0,0,0,0,0,0,0,0,0,0,0,0,0,0,0,0,0,0,0,0,0,0,0,0,0,0,0,0,0,0,0,0,0,0,0,0,0,0,0,0,0,0,0,0,0,0,0,0,0,0,0,0,0,0,0,0,0,0,0,0,0,0,0,0,0,0,0,0,0,0,0,0,0,0,0,0,0,0,0,0,0,0,0,0,0,0,0,0,0,0,0,0,0,0,0,0,0,0,0,0,0,0,0,0,0,0,0,0,0,0,0,0,0,0,0,0,0,0,0,0,0,0,0,0,0,0,0,0,0,0,0,0,0,0,0,0,0,0,0,0,0,0,0,0,0,0,0,0,0,0,0,0,0,0,0,0,0,0,0,0,0,0,0,0,0,0,0,0,0,0,0,0,0,0,0,0,0,0,0,0,0],"sum_hessian":[8E4,5.6367E4,2.3633E4,4.1561E4,1.4806E4,2.1219E4,2.414E3,3.1344E4,1.0217E4,1.1838E4,2.968E3,1.5582E4,5.637E3,1.843E3,5.71E2,6.337E3,2.5007E4,2.089E3,8.128E3,8.738E3,3.1E3,1.603E3,1.365E3,3.1E3,1.2482E4,1.062E3,4.575E3,1.361E3,4.82E2,5.02E2,6.9E1,4.112E3,2.225E3,1.6149E4,8.858E3,1.234E3,8.55E2,4.906E3,3.222E3,1.745E3,6.993E3,6.42E2,2.458E3,1.162E3,4.41E2,1.007E3,3.58E2,1.443E3,1.657E3,1.0238E4,2.244E3,7.9E2,2.72E2,2.759E3,1.816E3,2.93E2,1.068E3,5E1,4.32E2,3.6E2,1.42E2,6.8E1,1E0,2.269E3,1.843E3,1.356E3,8.69E2,7.985E3,8.164E3,3.917E3,4.941E3,7.97E2,4.37E2,5.36E2,3.19E2,3.178E3,1.728E3,2.049E3,1.173E3,1.122E3,6.23E2,4.557E3,2.436E3,3.97E2,2.45E2,1.586E3,8.72E2,7.7E2,3.92E2,3.37E2,1.04E2,2.24E2,7.83E2,2.27E2,1.31E2,1.06E3,3.83E2,1.385E3,2.72E2,5.351E3,4.887E3,6E2,1.644E3,6.46E2,1.44E2,2.7E2,2E0,5.83E2,2.176E3,1.317E3,4.99E2,2.13E2,8E1,6.19E2,4.49E2,4.8E1,2E0,3.21E2,1.11E2,1.49E2,2.11E2,2.9E1,1.13E2,1E0,6.7E1,1.384E3,8.85E2,9.03E2,9.4E2,6.94E2,6.62E2,5.91E2,2.78E2,4.661E3,3.324E3,5.604E3,2.56E3,2.782E3,1.135E3,3.342E3,1.599E3,2.47E2,5.5E2,2.18E2,2.19E2,2.79E2,2.57E2,1.93E2,1.26E2,6.53E2,2.525E3,5.48E2,1.18E3,1.131E3,9.18E2,5.08E2,6.65E2,4.3E2,6.92E2,1.1E2,5.13E2,3.452E3,1.105E3,1.115E3,1.321E3,2.05E2,1.92E2,1.66E2,7.9E1,1.267E3,3.19E2,5.74E2,2.98E2,1.82E2,5.88E2,2.41E2,1.51E2,2.2E2,1.17E2,8.5E1,1.9E1,1.8E1,2.06E2,5.75E2,2.08E2,5.2E1,1.75E2,9.2E1,3.9E1,1.84E2,8.76E2,3.2E1,3.51E2,1.09E3,2.95E2,7.6E1,1.96E2,3.133E3,2.218E3,1.801E3,3.086E3,3.39E2,2.61E2,1.019E3,6.25E2,3.82E2,2.64E2,1E2,4.4E1,1.18E2,1.52E2,1E0,1E0,4.71E2,1.12E2,1.585E3,5.91E2,8.65E2,4.52E2,3.17E2,1.82E2,1.82E2,3.1E1,6.2E1,1.8E1,5.3E2,8.9E1,4.05E2,4.4E1,5E0,4.3E1,1E0,1E0,2.24E2,9.7E1,1.1E2,1E0,3E0,1.46E2,1.35E2,7.6E1,1.12E2,1E0,2.27E2,1.157E3,4.88E2,3.97E2,6.33E2,2.7E2,5.8E2,3.6E2,3.24E2,3.7E2,3.16E2,3.46E2,9.7E1,4.94E2,1.6E1,2.62E2,3.696E3,9.65E2,1.41E3,1.914E3,5.21E3,3.94E2,1.804E3,7.56E2,1.277E3,1.505E3,8.25E2,3.1E2,2.765E3,5.77E2,6.94E2,9.05E2,5.8E1,1.89E2,2.85E2,2.65E2,9.7E1,1.21E2,1.37E2,8.2E1,1.35E2,1.44E2,9.1E1,1.66E2,1.87E2,6E0,1.05E2,2.1E1,6.01E2,5.2E1,1.199E3,1.326E3,5.13E2,3.5E1,7.73E2,4.07E2,3.84E2,7.47E2,4.76E2,4.42E2,1.81E2,3.27E2,4.99E2,1.66E2,2.94E2,1.36E2,3.03E2,3.89E2,1.04E2,6E0,1.22E2,3.91E2,2.211E3,1.241E3,6.29E2,4.76E2,9.21E2,1.94E2,7.32E2,5.89E2,2E0,2.03E2,1.82E2,1E1,1.43E2,2.3E1,6.8E1,1.1E1,2.32E2,1.035E3,1.97E2,1.22E2,3.66E2,2.08E2,1.06E2,1.92E2,2.8E1,1.54E2,4E2,1.88E2,1.49E2,9.2E1,5E0,1.46E2,1.67E2,5.3E1,1.04E2,1.3E1,1.1E1,7.4E1,1.4E1,5E0,1E1,8E0,1.68E2,3.8E1,3.71E2,2.04E2,1.29E2,7.9E1,5E1,2E0,1.31E2,4.4E1,8.9E1,3E0,3.5E1,4E0,2E1,1.64E2,8.14E2,6.2E1,6E0,2.6E1,1.52E2,1.99E2,5.58E2,5.32E2,1.13E2,1.82E2,7.3E1,3E0,1.94E2,2E0,1.094E3,2.039E3,1.366E3,8.52E2,8.14E2,9.87E2,2.826E3,2.6E2,1.3E1,3.26E2,2.53E2,8E0,8.03E2,2.16E2,4.88E2,1.37E2,2.63E2,1.19E2,2.32E2,3.2E1,4.8E1,5.2E1,1.2E1,3.2E1,4E0,1.14E2,1.24E2,2.8E1,4.51E2,2E1,7.1E1,4.1E1,1.3E3,2.85E2,2.54E2,3.37E2,3.57E2,5.08E2,1.34E2,3.18E2,2.09E2,1.08E2,8.8E1,9.4E1,9.7E1,8.5E1,2.8E1,3E0,4E0,5.8E1,1.6E1,2E0,1.11E2,4.19E2,2E0,8.7E1,2.95E2,1.1E2,4E1,4E0,3.9E1,4E0,2E0,2.22E2,5E0,9.2E1,6.5E1,4.5E1,1E0,2E0,1.24E2,2.2E1,1.3E1,1.22E2,5E1,2.6E1,1.11E2,1E0],"tree_param":{"num_deleted":"0","num_feature":"25","num_nodes":"465","size_leaf_vector":"1"}},{"base_weights":[1.7465319E-3,-2.263212E0,5.4037595E0,-3.0618672E0,1.5317112E0,4.8086834E0,1.0630307E1,-3.967776E0,-2.645959E-1,7.29513E-1,6.484721E0,4.0174046E0,8.090912E0,9.537292E0,1.4135359E1,-1.3131479E0,-4.6397557E0,2.4579875E0,-9.663254E-1,-3.776593E-1,2.9287064E0,5.320165E0,9.736499E0,6.6599846E0,3.3622992E0,1.1020135E1,7.4177647E0,8.541949E0,1.2048415E1,1.3228464E1,1.8723194E1,-4.3620086E-1,-2.9400284E0,-3.731496E0,-6.3076577E0,1.4255892E0,3.9299805E0,-1.8857639E0,9.335522E-1,5.8256376E-1,-2.1000416E0,5.6969123E0,2.2417784E0,7.0919642E0,3.9681568E0,1.1176028E1,7.176276E0,7.992194E0,5.801679E0,2.766401E0,4.945797E0,9.988882E0,1.2917771E1,6.544761E0,8.607974E0,1.1334249E1,7.7753825E0,1.4836324E1,1.121327E1,1.5822041E1,1.2523522E1,1.9627058E1,1.3916923E1,4.736695E-1,-1.572662E0,-3.483424E0,-1.1292661E0,-2.8789346E0,-4.4931545E0,-5.1734557E0,-7.0449533E0,2.1761947E0,7.556821E-2,4.901831E0,2.224275E0,-9.140454E-1,-3.6361322E0,1.8285341E0,-6.7525035E-1,1.9282904E0,-6.0535294E-1,-1.1404966E-1,-2.8827825E0,4.9205446E0,8.258698E0,1.3888164E0,4.198962E0,8.691544E0,6.129694E0,3.1500347E0,6.280585E0,1.4699617E1,1.0051448E1,5.8185973E0,1.0153473E1,7.5472474E0,1.013988E1,4.74919E0,6.7120185E0,3.2941108E0,1.5167254E0,5.490955E0,3.4371407E0,1.0844324E1,8.539213E0,1.3000113E1,1.3383541E0,5.944557E0,7.979445E0,8.213913E0,1.0553388E1,1.2398416E1,9.467971E0,8.67425E0,6.530727E0,1.7337023E1,1.27113695E1,1.0193592E1,1.2933566E1,1.6599277E1,1.2701542E1,1.1724072E1,1.4528504E1,9.876216E-1,2.5873166E-1,1.7986055E-1,7.1561825E-1,-1.9117406E-1,1.4815512E0,-1.820957E0,6.047249E-1,-4.0189557E0,-2.040058E0,-2.0096416E0,-1.6505477E-1,-3.3003652E0,-1.4568841E0,-5.0340824E0,-3.306977E0,-5.6150737E0,-3.5859559E0,-7.5530396E0,-6.0064225E0,1.5286719E0,3.4358091E0,-3.7496528E-1,2.9390264E0,6.760096E0,4.1600547E0,3.25057E0,6.356054E-1,-1.3640538E0,7.463844E-1,-3.0916243E0,-4.7918987E0,2.904989E0,9.404085E-1,9.327043E-2,-2.0731823E0,3.6239421E0,1.2107584E0,-1.6693821E0,3.801507E-1,1.4429102E0,-1.0996487E0,-3.3759642E0,-6.7122614E-1,5.9120502E0,3.104088E0,-6.2383126E-2,8.342714E0,2.304396E0,-2.9525292E-1,5.1831536E0,2.3560884E0,6.1169224E0,9.258439E0,7.5322466E0,5.104875E0,4.138103E0,1.5620114E0,3.6506553E0,7.0559964E0,1.1946232E1,1.6566343E1,9.044416E0,1.2548439E1,4.764674E0,8.650099E0,1.1065809E1,4.271626E0,6.319309E0,8.172776E0,8.937671E0,1.10816E1,6.5669036E0,4.264118E0,6.2180114E0,7.9848332E0,2.7460856E0,4.3023057E0,8.315728E-1,2.334937E0,4.520194E0,6.2069483E0,2.2743576E0,4.0793815E0,1.0166139E1,1.2925424E1,9.674898E0,7.4089913E0,1.346543E1,1.049207E1,-4.2497683E-2,1.4287424E-1,7.7825155E0,5.4930015E0,8.584212E0,6.568801E0,9.568215E0,7.856893E0,1.1511683E1,9.690827E0,1.2999476E1,1.0286131E1,9.823484E0,4.505327E0,9.132395E0,7.2821608E0,7.5469294E0,5.8076463E0,1.7792053E1,3.771198E-1,1.4159784E1,1.0982538E1,1.0571092E1,7.0761366E0,1.3008402E1,5.0188255E-2,8.472995E-1,4.1433802E-1,1.386537E1,3.4495828E-1,1.3184023E1,1.0650829E1,6.859269E-2,1.464182E1,7.020231E-2,-2.5281442E-2,5.136875E-2,1.4847638E-1,-7.519032E-2,-1.7050438E-1,1.0425208E-1,-2.1520669E-2,-2.2318016E-1,-1.1280093E-1,-1.1582357E-1,2.1960886E-2,-1.0976603E-1,5.15802E-2,-3.2985542E-2,1.748702E-1,-1.9682258E-1,-1.3459332E-1,-9.853969E-2,-2.0427225E-2,-2.6979983E-1,-1.8651025E-1,-1.8280272E-1,-9.3779884E-2,-3.1137112E-1,-2.4418461E-1,-2.4151571E-1,-1.4434204E-1,-3.9516884E-1,-3.10342E-1,-3.1247234E-1,-1.8721986E-1,2.5124056E-2,1.0640036E-1,2.091162E-1,1.17426574E-1,-4.833509E-2,6.991092E-2,1.838127E-1,-2.0304592E-2,4.4264325E-1,2.7706203E-1,1.7821603E-1,3.1013376E-1,2.128857E-1,1.0870506E-1,6.3169524E-2,-7.515159E-2,-9.28816E-2,-2.2447376E-2,1.5457717E-2,1.500495E-1,-1.832496E-1,-9.762411E-2,-2.852708E-1,-2.1508335E-1,2.3188134E-1,1.2701209E-1,6.0977217E-2,-5.6796577E-2,-2.689977E-2,1.1235589E-1,-7.953705E-2,-1.6919942E-1,1.189904E-1,2.1774843E-1,7.2936486E-3,1.0233891E-1,-1.17237724E-1,-1.6149959E-3,-2.4981746E-2,6.0889464E-2,4.0869387E-3,1.2633781E-1,-9.156924E-2,-2.8770869E-3,-2.4744406E-1,-1.4388525E-1,1.0949458E-2,-1.115692E-1,3.3557442E-1,1.6663721E-1,2.6481426E-1,9.052798E-2,4.229548E-1,3.3687975E-2,5.833313E-2,1.6481064E-1,-7.5728476E-2,4.1225806E-2,2.1649106E-1,3.593357E-1,2.6772472E-1,8.296068E-2,6.044593E-1,2.2816001E-1,5.0848484E-1,3.8237378E-1,1.7884332E-1,4.0942913E-1,2.1342734E-1,3.6600482E-1,2.2845407E-1,1.0075249E-1,-1.1514888E-1,1.15076356E-1,2.9979536E-1,7.3732935E-2,4.0812993E-1,2.6524135E-1,7.4046826E-1,4.0820786E-1,8.4448E-1,1.8787852E-1,5.192851E-1,3.6894786E-1,6.4030015E-1,1.1073733E-2,3.494846E-1,1.5102004E-1,4.8304614E-1,2.0037358E-1,5.894264E-1,1.3491444E-1,2.9001173E-1,1.5003522E-2,2.2115491E-1,3.3648747E-1,5.2054054E-1,3.8766375E-1,7.5269645E-1,4.238355E-1,5.9233946E-1,4.5391855E-1,3.5024196E-1,1.9696794E-1,1.8992311E-1,2.9391634E-1,2.7293718E-1,3.5213327E-1,4.7271243E-1,3.7626383E-1,1.0536273E-1,1.6808021E-1,1.9150332E-1,2.6652065E-1,5.363914E-2,-6.7173997E-3,1.481941E-1,8.305003E-2,2.8578508E-1,1.9965427E-1,3.677342E-1,2.9005602E-1,1.0236781E-1,3.4921834E-1,1.8550825E-1,2.6696202E-1,5.139152E-1,4.89429E-2,1.5499668E-1,6.509417E-1,5.2001387E-1,3.4470665E-1,3.871822E-1,1.2962656E-1,6.752845E-1,1.16215184E-1,6.1409944E-1,4.0840766E-1,3.9722767E-1,1.1183486E-1,2.916291E-1,2.1979335E-1,4.6319762E-1,3.8812706E-1,1.845121E-1,3.6058873E-1,4.1106907E-1,5.116109E-1,4.5889506E-1,3.784165E-1,6.124014E-1,4.6190044E-1,5.08386E-1,3.079312E-1,6.5288436E-1,1.3143682E-1,5.2625304E-1,1.756203E-1,4.096499E-1,5.6287503E-1,3.3353466E-1,6.547332E-3,4.4042116E-1,5.543005E-1,3.3870804E-1,5.173527E-1,3.8217005E-1,-3.4635544E-2,3.6640108E-1,2.3883303E-1,2.1050563E-1,8.995728E-1,7.172074E-1,2.0650521E-1,5.7725465E-1,1.8682328E-1,5.75585E-1,4.6649322E-1,4.1627756E-1,1.8099055E-1,6.558909E-1,1.7101756E-1,1.4368029E-1,7.1581894E-1,1.5200834E-1,6.623444E-1,4.8580405E-1,6.342246E-1,7.369279E-1,1.1694312E-1],"categories":[1,0,2,0,2,0,2,0,2,0,0,0,0,2,0,0,2,0,2,3,6,9,10,0,0,0,0,0,2,0,2,0,2,13,0,2,0,2,0,0,0,0,1,2,3,4,9,10,11,12,0,0,1,2,0,8,9,11,12,14,0,2,7,11,13,4,8,5,7,8,10,1,2,5,6,7,9,10,0,5,6,8,9,10,11,0,9,10,11,3,4,5,8,9,10,11,12,0,1,4,5,7,8,10,12,13,1,2,3,5,7,10,6,7,8,9,10,0,1,6,8,9,10,11,12,13,14,0,5,7,9,13,0,1,2,4,7,8,10,11,13,0,1,2,3,6,7,8,9,10,11,0,2,4,5,10,11,12,13,14,2,4,5,6,8,10,11,12,14,1,4,5,8,11,1,2,4,5,7,8,10,11,12,13,14,9,10,11,0,5,6,9,10,11,12,13,14,3,5,7,8,9,10,11,2,4,6,8,10,11,0,5,8,10,11,13,14,1,7,8,9,10,0,9,13,14,0,1,4,5,6,7,9,10,12,13,14,0,1,2,3,7,11,0,4,5,7,13,2,6,8,10,12,13,14,0,1,2,3,4,5,6,7,10,12,2,3,1,2,4,6,8,9,11,6,9,11,13,14,0,1,3,4,10,2,3,6,9,10,11],"categories_nodes":[0,7,8,11,12,15,16,19,20,22,27,29,30,35,36,37,38,43,45,57,61,79,81,83,85,86,88,89,97,105,111,112,113,114,116,117,120,121,130,144,147,150,168,175,176,181,182,183,184,185,187,188,189,194,195,198,202,209,217,220,226,230,234,235,236],"categories_segments":[0,1,3,5,7,9,10,11,12,14,15,17,19,23,24,25,26,27,29,31,33,34,36,38,39,40,41,50,51,54,60,65,67,71,78,85,89,97,106,112,117,127,132,141,151,160,169,174,185,188,197,204,210,217,222,226,237,243,248,255,265,267,274,279,284],"categories_sizes":[1,2,2,2,2,1,1,1,2,1,2,2,4,1,1,1,1,2,2,2,1,2,2,1,1,1,9,1,3,6,5,2,4,7,7,4,8,9,6,5,10,5,9,10,9,9,5,11,3,9,7,6,7,5,4,11,6,5,7,10,2,7,5,5,6],"default_left":[1,0,0,0,0,0,0,1,1,0,0,1,1,0,0,1,1,0,0,1,1,0,1,0,0,0,0,1,0,1,1,0,0,0,0,1,1,1,1,0,0,0,0,1,0,1,0,0,0,0,0,0,0,0,0,0,0,1,0,0,0,1,0,0,0,0,0,0,0,0,0,0,0,0,0,0,0,0,0,1,0,1,0,1,0,1,1,0,1,1,0,0,0,0,0,0,0,1,0,0,0,0,0,0,0,1,0,0,0,0,0,1,1,1,1,0,1,1,0,0,1,1,0,0,0,0,0,0,0,0,1,0,0,0,0,0,0,0,0,0,0,0,0,0,1,0,0,1,0,0,1,0,0,0,0,0,0,0,0,0,0,0,0,0,0,0,0,0,1,0,0,0,0,0,0,1,1,0,0,0,0,1,1,1,1,1,0,1,1,1,0,0,0,0,1,1,0,0,1,0,0,0,1,0,0,0,0,0,0,1,0,0,0,0,0,0,0,1,0,0,1,0,0,0,0,0,1,0,0,0,1,0,0,0,1,1,1,0,0,0,0,0,0,0,0,0,0,0,0,0,0,0,0,0,0,0,0,0,0,0,0,0,0,0,0,0,0,0,0,0,0,0,0,0,0,0,0,0,0,0,0,0,0,0,0,0,0,0,0,0,0,0,0,0,0,0,0,0,0,0,0,0,0,0,0,0,0,0,0,0,0,0,0,0,0,0,0,0,0,0,0,0,0,0,0,0,0,0,0,0,0,0,0,0,0,0,0,0,0,0,0,0,0,0,0,0,0,0,0,0,0,0,0,0,0,0,0,0,0,0,0,0,0,0,0,0,0,0,0,0,0,0,0,0,0,0,0,0,0,0,0,0,0,0,0,0,0,0,0,0,0,0,0,0,0,0,0,0,0,0,0,0,0,0,0,0,0,0,0,0,0,0,0,0,0,0,0,0,0,0,0,0,0,0,0,0,0,0,0,0,0,0,0,0,0,0,0,0,0,0,0,0,0,0,0,0,0,0,0,0,0,0,0,0,0,0,0,0,0,0,0,0,0,0,0,0,0,0,0],"id":3,"left_children":[1,3,5,7,9,11,13,15,17,19,21,23,25,27,29,31,33,35,37,39,41,43,45,47,49,51,53,55,57,59,61,63,65,67,69,71,73,75,77,79,81,83,85,87,89,91,93,95,97,99,101,103,105,107,109,111,113,115,117,119,121,123,125,127,129,131,133,135,137,139,141,143,145,147,149,151,153,155,157,159,161,163,165,167,169,171,173,175,177,179,181,183,185,187,189,191,193,195,197,199,201,203,205,207,209,211,213,215,217,219,221,223,225,227,229,231,233,235,237,239,241,243,245,-1,-1,-1,-1,247,249,251,253,255,257,259,261,263,265,267,269,271,273,275,277,279,281,283,285,287,289,291,293,295,297,299,301,303,305,307,309,311,313,315,317,319,321,323,325,327,329,-1,331,333,335,337,339,341,343,345,347,349,351,353,355,357,359,361,363,365,367,369,371,373,375,377,379,381,383,385,387,389,391,393,395,397,399,401,403,405,407,409,411,413,415,-1,-1,417,419,421,423,425,427,429,431,433,435,437,439,441,443,445,447,449,-1,451,453,455,457,459,-1,-1,-1,461,-1,463,465,-1,467,-1,-1,-1,-1,-1,-1,-1,-1,-1,-1,-1,-1,-1,-1,-1,-1,-1,-1,-1,-1,-1,-1,-1,-1,-1,-1,-1,-1,-1,-1,-1,-1,-1,-1,-1,-1,-1,-1,-1,-1,-1,-1,-1,-1,-1,-1,-1,-1,-1,-1,-1,-1,-1,-1,-1,-1,-1,-1,-1,-1,-1,-1,-1,-1,-1,-1,-1,-1,-1,-1,-1,-1,-1,-1,-1,-1,-1,-1,-1,-1,-1,-1,-1,-1,-1,-1,-1,-1,-1,-1,-1,-1,-1,-1,-1,-1,-1,-1,-1,-1,-1,-1,-1,-1,-1,-1,-1,-1,-1,-1,-1,-1,-1,-1,-1,-1,-1,-1,-1,-1,-1,-1,-1,-1,-1,-1,-1,-1,-1,-1,-1,-1,-1,-1,-1,-1,-1,-1,-1,-1,-1,-1,-1,-1,-1,-1,-1,-1,-1,-1,-1,-1,-1,-1,-1,-1,-1,-1,-1,-1,-1,-1,-1,-1,-1,-1,-1,-1,-1,-1,-1,-1,-1,-1,-1,-1,-1,-1,-1,-1,-1,-1,-1,-1,-1,-1,-1,-1,-1,-1,-1,-1,-1,-1,-1,-1,-1,-1,-1,-1,-1,-1,-1,-1,-1,-1,-1,-1,-1,-1,-1,-1,-1,-1,-1,-1,-1,-1,-1,-1,-1,-1],"loss_changes":[9.788513E5,1.7084681E5,7.3455125E4,1.1800569E5,3.893754E4,5.5079188E4,9.11725E3,6.2742812E4,2.1768896E4,2.0541803E4,5.121074E3,2.9580562E4,8.0440312E3,4.5060156E3,2.1322266E3,1.0138189E4,4.2499312E4,3.5428564E3,1.5826207E4,9.28275E3,5.359135E3,2.3865078E3,1.2428984E3,3.8367656E3,1.2918406E4,1.3738828E3,3.4286719E3,2.7458672E3,1.0466953E3,6.8128125E2,1.2651953E2,4.7769395E3,2.4451445E3,1.1789844E4,8.238156E3,1.3921553E3,1.5837969E3,1.0380459E4,4.2559893E3,5.7625615E3,3.1226963E3,1.0751289E3,3.7753672E3,6.162871E2,1.0661357E3,7.557129E2,4.744751E2,1.1925078E3,1.9504766E3,6.563289E3,3.0620469E3,5.299375E2,2.3717969E2,1.6222422E3,9.9883594E2,4.4466016E2,1.1091211E3,4.0134375E2,5.7858984E2,2.9273438E1,4.435703E2,3.3685547E1,2.1970459E1,1.7197178E3,1.1115645E3,1.4712617E3,4.8861627E2,5.136547E3,6.1417812E3,2.7154375E3,3.1174688E3,7.149487E2,6.3582324E2,8.154697E2,5.7022E2,2.9353013E3,1.3564824E3,1.8127642E3,1.1357703E3,2.051809E3,2.0087125E3,8.7473895E2,1.5694307E3,7.6149316E2,1.1343945E2,2.435339E3,1.2338281E3,1.7835352E2,3.5682422E2,6.619624E2,2.7809326E2,7.450488E1,3.290664E2,2.3631421E2,1.6737988E2,7.9634766E2,1.5568945E2,8.210957E2,6.4641016E2,3.8568984E3,1.656874E3,1.8833594E3,7.3526855E2,3.089453E2,1.7348242E2,1.6798438E2,1.2401707E1,1.0951016E3,4.2903516E2,4.9633594E2,8.269336E1,9.1009766E1,1.4451953E2,3.174375E2,2.8021484E2,9.310449E1,1.2262695E1,2.2999805E2,1.1817969E2,7.8609375E1,6.641138E1,2.967422E2,1.3645312E2,0E0,0E0,0E0,0E0,7.767232E2,6.862688E2,9.2423584E2,3.242196E2,1.0834492E3,3.5737622E2,1.7223792E2,5.0232465E2,2.5505625E3,1.0567642E3,3.089625E3,1.496625E3,1.3360078E3,7.2725195E2,1.8473281E3,1.0617578E3,3.587246E2,2.328667E2,4.4833536E2,1.6672253E2,3.92229E2,5.1331006E2,2.2166895E2,1.8852094E2,1.3948467E3,8.2515686E2,9.6211523E2,2.8715137E2,5.304536E2,6.053084E2,9.2985E2,2.3176208E2,4.4620264E2,1.0582268E3,1.01821875E3,7.33866E2,3.2583487E2,2.6602356E2,9.0898047E2,3.6715207E2,5.529287E2,4.2993958E2,0E0,1.0854492E2,1.1505312E3,7.617503E2,7.3311914E2,4.9468872E2,2.4177026E2,1.1306738E2,2.6666113E2,2.688833E2,2.3052051E2,4.7690668E2,1.7487543E2,1.7761377E2,1.4980884E2,5.6611816E1,2.1153125E2,1.4956299E2,2.5056116E2,7.391345E1,1.7380127E2,4.0756195E1,2.6364648E2,6.0277344E2,1.6560645E2,7.945801E1,2.0369531E2,5.511924E2,4.6371484E2,1.3549023E2,1.777707E3,1.1758867E3,3.7572363E2,5.6645264E2,7.1509766E2,6.9326953E2,3.6739746E2,2.783584E2,2.372539E2,2.6641602E1,1.1387305E2,1.4110791E2,6.728906E1,9.1020996E1,0E0,0E0,2.2306543E2,3.8566797E2,1.4870117E2,2.972832E2,1.3229688E2,2.892422E2,6.431836E1,1.563623E2,4.656836E1,3.4243164E1,1.3924414E2,8.437567E1,1.8653125E2,1.6968018E2,1.48375E2,3.7567676E2,5.4249023E1,0E0,1.7773438E0,9.95332E1,1.5995508E2,1.0373291E2,1.08296875E2,0E0,0E0,0E0,5.3051025E1,0E0,3.242383E1,1.923164E2,0E0,8.930664E1,0E0,0E0,0E0,0E0,0E0,0E0,0E0,0E0,0E0,0E0,0E0,0E0,0E0,0E0,0E0,0E0,0E0,0E0,0E0,0E0,0E0,0E0,0E0,0E0,0E0,0E0,0E0,0E0,0E0,0E0,0E0,0E0,0E0,0E0,0E0,0E0,0E0,0E0,0E0,0E0,0E0,0E0,0E0,0E0,0E0,0E0,0E0,0E0,0E0,0E0,0E0,0E0,0E0,0E0,0E0,0E0,0E0,0E0,0E0,0E0,0E0,0E0,0E0,0E0,0E0,0E0,0E0,0E0,0E0,0E0,0E0,0E0,0E0,0E0,0E0,0E0,0E0,0E0,0E0,0E0,0E0,0E0,0E0,0E0,0E0,0E0,0E0,0E0,0E0,0E0,0E0,0E0,0E0,0E0,0E0,0E0,0E0,0E0,0E0,0E0,0E0,0E0,0E0,0E0,0E0,0E0,0E0,0E0,0E0,0E0,0E0,0E0,0E0,0E0,0E0,0E0,0E0,0E0,0E0,0E0,0E0,0E0,0E0,0E0,0E0,0E0,0E0,0E0,0E0,0E0,0E0,0E0,0E0,0E0,0E0,0E0,0E0,0E0,0E0,0E0,0E0,0E0,0E0,0E0,0E0,0E0,0E0,0E0,0E0,0E0,0E0,0E0,0E0,0E0,0E0,0E0,0E0,0E0,0E0,0E0,0E0,0E0,0E0,0E0,0E0,0E0,0E0,0E0,0E0,0E0,0E0,0E0,0E0,0E0,0E0,0E0,0E0,0E0,0E0,0E0,0E0,0E0,0E0,0E0,0E0,0E0,0E0,0E0,0E0,0E0,0E0,0E0,0E0,0E0,0E0,0E0,0E0,0E0,0E0,0E0,0E0,0E0,0E0,0E0,0E0,0E0,0E0,0E0,0E0,0E0,0E0,0E0,0E0,0E0,0E0,0E0,0E0,0E0,0E0,0E0,0E0,0E0],"parents":[2147483647,0,0,1,1,2,2,3,3,4,4,5,5,6,6,7,7,8,8,9,9,10,10,11,11,12,12,13,13,14,14,15,15,16,16,17,17,18,18,19,19,20,20,21,21,22,22,23,23,24,24,25,25,26,26,27,27,28,28,29,29,30,30,31,31,32,32,33,33,34,34,35,35,36,36,37,37,38,38,39,39,40,40,41,41,42,42,43,43,44,44,45,45,46,46,47,47,48,48,49,49,50,50,51,51,52,52,53,53,54,54,55,55,56,56,57,57,58,58,59,59,60,60,61,61,62,62,63,63,64,64,65,65,66,66,67,67,68,68,69,69,70,70,71,71,72,72,73,73,74,74,75,75,76,76,77,77,78,78,79,79,80,80,81,81,82,82,83,83,84,84,85,85,86,86,87,87,88,88,89,89,90,90,91,91,92,92,93,93,94,94,95,95,96,96,97,97,98,98,99,99,100,100,101,101,102,102,103,103,104,104,105,105,106,106,107,107,108,108,109,109,110,110,111,111,112,112,113,113,114,114,115,115,116,116,117,117,118,118,119,119,120,120,121,121,122,122,127,127,128,128,129,129,130,130,131,131,132,132,133,133,134,134,135,135,136,136,137,137,138,138,139,139,140,140,141,141,142,142,143,143,144,144,145,145,146,146,147,147,148,148,149,149,150,150,151,151,152,152,153,153,154,154,155,155,156,156,157,157,158,158,159,159,160,160,161,161,162,162,163,163,164,164,165,165,166,166,167,167,168,168,170,170,171,171,172,172,173,173,174,174,175,175,176,176,177,177,178,178,179,179,180,180,181,181,182,182,183,183,184,184,185,185,186,186,187,187,188,188,189,189,190,190,191,191,192,192,193,193,194,194,195,195,196,196,197,197,198,198,199,199,200,200,201,201,202,202,203,203,204,204,205,205,206,206,207,207,208,208,209,209,210,210,211,211,212,212,215,